{"learner":{"attributes":{"scikit_learn":"{\"_estimator_type\": \"classifier\"}"},"feature_names":[],"feature_types":[],"gradient_booster":{"model":{"cats":{"enc":[],"feature_segments":[],"sorted_idx":[]},"gbtree_model_param":{"num_parallel_tree":"1","num_trees":"1200"},"iteration_indptr":[0,8,16,24,32,40,48,56,64,72,80,88,96,104,112,120,128,136,144,152,160,168,176,184,192,200,208,216,224,232,240,248,256,264,272,280,288,296,304,312,320,328,336,344,352,360,368,376,384,392,400,408,416,424,432,440,448,456,464,472,480,488,496,504,512,520,528,536,544,552,560,568,576,584,592,600,608,616,624,632,640,648,656,664,672,680,688,696,704,712,720,728,736,744,752,760,768,776,784,792,800,808,816,824,832,840,848,856,864,872,880,888,896,904,912,920,928,936,944,952,960,968,976,984,992,1000,1008,1016,1024,1032,1040,1048,1056,1064,1072,1080,1088,1096,1104,1112,1120,1128,1136,1144,1152,1160,1168,1176,1184,1192,1200],"tree_info":[0,1,2,3,4,5,6,7,0,1,2,3,4,5,6,7,0,1,2,3,4,5,6,7,0,1,2,3,4,5,6,7,0,1,2,3,4,5,6,7,0,1,2,3,4,5,6,7,0,1,2,3,4,5,6,7,0,1,2,3,4,5,6,7,0,1,2,3,4,5,6,7,0,1,2,3,4,5,6,7,0,1,2,3,4,5,6,7,0,1,2,3,4,5,6,7,0,1,2,3,4,5,6,7,0,1,2,3,4,5,6,7,0,1,2,3,4,5,6,7,0,1,2,3,4,5,6,7,0,1,2,3,4,5,6,7,0,1,2,3,4,5,6,7,0,1,2,3,4,5,6,7,0,1,2,3,4,5,6,7,0,1,2,3,4,5,6,7,0,1,2,3,4,5,6,7,0,1,2,3,4,5,6,7,0,1,2,3,4,5,6,7,0,1,2,3,4,5,6,7,0,1,2,3,4,5,6,7,0,1,2,3,4,5,6,7,0,1,2,3,4,5,6,7,0,1,2,3,4,5,6,7,0,1,2,3,4,5,6,7,0,1,2,3,4,5,6,7,0,1,2,3,4,5,6,7,0,1,2,3,4,5,6,7,0,1,2,3,4,5,6,7,0,1,2,3,4,5,6,7,0,1,2,3,4,5,6,7,0,1,2,3,4,5,6,7,0,1,2,3,4,5,6,7,0,1,2,3,4,5,6,7,0,1,2,3,4,5,6,7,0,1,2,3,4,5,6,7,0,1,2,3,4,5,6,7,0,1,2,3,4,5,6,7,0,1,2,3,4,5,6,7,0,1,2,3,4,5,6,7,0,1,2,3,4,5,6,7,0,1,2,3,4,5,6,7,0,1,2,3,4,5,6,7,0,1,2,3,4,5,6,7,0,1,2,3,4,5,6,7,0,1,2,3,4,5,6,7,0,1,2,3,4,5,6,7,0,1,2,3,4,5,6,7,0,1,2,3,4,5,6,7,0,1,2,3,4,5,6,7,0,1,2,3,4,5,6,7,0,1,2,3,4,5,6,7,0,1,2,3,4,5,6,7,0,1,2,3,4,5,6,7,0,1,2,3,4,5,6,7,0,1,2,3,4,5,6,7,0,1,2,3,4,5,6,7,0,1,2,3,4,5,6,7,0,1,2,3,4,5,6,7,0,1,2,3,4,5,6,7,0,1,2,3,4,5,6,7,0,1,2,3,4,5,6,7,0,1,2,3,4,5,6,7,0,1,2,3,4,5,6,7,0,1,2,3,4,5,6,7,0,1,2,3,4,5,6,7,0,1,2,3,4,5,6,7,0,1,2,3,4,5,6,7,0,1,2,3,4,5,6,7,0,1,2,3,4,5,6,7,0,1,2,3,4,5,6,7,0,1,2,3,4,5,6,7,0,1,2,3,4,5,6,7,0,1,2,3,4,5,6,7,0,1,2,3,4,5,6,7,0,1,2,3,4,5,6,7,0,1,2,3,4,5,6,7,0,1,2,3,4,5,6,7,0,1,2,3,4,5,6,7,0,1,2,3,4,5,6,7,0,1,2,3,4,5,6,7,0,1,2,3,4,5,6,7,0,1,2,3,4,5,6,7,0,1,2,3,4,5,6,7,0,1,2,3,4,5,6,7,0,1,2,3,4,5,6,7,0,1,2,3,4,5,6,7,0,1,2,3,4,5,6,7,0,1,2,3,4,5,6,7,0,1,2,3,4,5,6,7,0,1,2,3,4,5,6,7,0,1,2,3,4,5,6,7,0,1,2,3,4,5,6,7,0,1,2,3,4,5,6,7,0,1,2,3,4,5,6,7,0,1,2,3,4,5,6,7,0,1,2,3,4,5,6,7,0,1,2,3,4,5,6,7,0,1,2,3,4,5,6,7,0,1,2,3,4,5,6,7,0,1,2,3,4,5,6,7,0,1,2,3,4,5,6,7,0,1,2,3,4,5,6,7,0,1,2,3,4,5,6,7,0,1,2,3,4,5,6,7,0,1,2,3,4,5,6,7,0,1,2,3,4,5,6,7,0,1,2,3,4,5,6,7,0,1,2,3,4,5,6,7,0,1,2,3,4,5,6,7,0,1,2,3,4,5,6,7,0,1,2,3,4,5,6,7,0,1,2,3,4,5,6,7,0,1,2,3,4,5,6,7,0,1,2,3,4,5,6,7,0,1,2,3,4,5,6,7,0,1,2,3,4,5,6,7,0,1,2,3,4,5,6,7,0,1,2,3,4,5,6,7,0,1,2,3,4,5,6,7,0,1,2,3,4,5,6,7,0,1,2,3,4,5,6,7,0,1,2,3,4,5,6,7,0,1,2,3,4,5,6,7,0,1,2,3,4,5,6,7,0,1,2,3,4,5,6,7,0,1,2,3,4,5,6,7,0,1,2,3,4,5,6,7,0,1,2,3,4,5,6,7,0,1,2,3,4,5,6,7,0,1,2,3,4,5,6,7,0,1,2,3,4,5,6,7,0,1,2,3,4,5,6,7,0,1,2,3,4,5,6,7,0,1,2,3,4,5,6,7,0,1,2,3,4,5,6,7,0,1,2,3,4,5,6,7,0,1,2,3,4,5,6,7,0,1,2,3,4,5,6,7,0,1,2,3,4,5,6,7,0,1,2,3,4,5,6,7,0,1,2,3,4,5,6,7,0,1,2,3,4,5,6,7,0,1,2,3,4,5,6,7,0,1,2,3,4,5,6,7],"trees":[{"base_weights":[1.5214949E-2,-5.7109635E-2,1.2388765E0,1.7310371E0,-5.6569606E-2,-3.7952986E-2,1.7442751E-1],"categories":[],"categories_nodes":[],"categories_segments":[],"categories_sizes":[],"default_left":[0,0,0,0,0,0,0],"id":0,"left_children":[1,-1,3,5,-1,-1,-1],"loss_changes":[9.73184E2,0E0,3.912257E2,1.0314819E1,0E0,0E0,0E0],"parents":[2147483647,0,0,2,2,3,3],"right_children":[2,-1,4,6,-1,-1,-1],"split_conditions":[5E1,-5.7109635E-2,1.4758333E2,1.2404348E2,-5.6569606E-2,-3.7952986E-2,1.7442751E-1],"split_indices":[383,0,411,0,0,0,0],"split_type":[0,0,0,0,0,0,0],"sum_hessian":[1.3544689E3,9.1607117E2,4.3839764E2,3.4448663E2,9.391101E1,1.9747642E0,3.4251187E2],"tree_param":{"num_deleted":"0","num_feature":"418","num_nodes":"7","size_leaf_vector":"1"}},{"base_weights":[8.8524334E-2,-1.9705392E-1,8.032602E-1,-5.703634E-2,2.5443533E-1,-5.6697007E-2,1.2107165E0,4.7943717E-1,-5.6733478E-2,5.2085805E-1,3.849264E-1,-3.8261537E-2,4.854893E-2,1.1653315E0,-5.6695458E-2,-3.8261537E-2,1.1885651E-1],"categories":[],"categories_nodes":[],"categories_segments":[],"categories_sizes":[],"default_left":[0,0,0,0,0,0,0,0,0,0,0,0,0,0,0,0,0],"id":1,"left_children":[1,3,5,-1,7,-1,9,11,-1,13,-1,-1,-1,15,-1,-1,-1],"loss_changes":[2.8130493E2,1.6615807E2,2.2034238E2,0E0,8.282942E1,0E0,5.5056616E2,2.0173416E0,0E0,1.7018542E2,0E0,0E0,0E0,5.927643E0,0E0,0E0,0E0],"parents":[2147483647,0,0,1,1,2,2,4,4,6,6,7,7,9,9,13,13],"right_children":[2,4,6,-1,8,-1,10,12,-1,14,-1,-1,-1,16,-1,-1,-1],"split_conditions":[1E0,5E1,1E0,-5.703634E-2,1.4758333E2,-5.6697007E-2,9E0,1.2404348E2,-5.6733478E-2,1E0,3.849264E-1,-3.8261537E-2,4.854893E-2,3E1,-5.6695458E-2,-3.8261537E-2,1.1885651E-1],"split_indices":[234,383,16,0,411,0,6,0,0,212,0,0,0,1,0,0,0],"split_type":[0,0,0,0,0,0,0,0,0,0,0,0,0,0,0,0,0],"sum_hessian":[1.3764066E3,9.8397577E2,3.9243085E2,5.384776E2,4.4549823E2,8.985775E1,3.0257312E2,3.5006616E2,9.543205E1,2.4080984E2,6.1763268E1,2.0067487E0,3.4805942E2,1.5117506E2,8.963477E1,2.0067487E0,1.4916832E2],"tree_param":{"num_deleted":"0","num_feature":"418","num_nodes":"17","size_leaf_vector":"1"}},{"base_weights":[1.5857905E-2,-5.71249E-2,3.962457E-1],"categories":[],"categories_nodes":[],"categories_segments":[],"categories_sizes":[],"default_left":[0,0,0],"id":2,"left_children":[1,-1,-1],"loss_changes":[3.1434229E3,0E0,0E0],"parents":[2147483647,0,0],"right_children":[2,-1,-1],"split_conditions":[1.8664062E2,-5.71249E-2,3.962457E-1],"split_indices":[411,0,0],"split_type":[0,0,0],"sum_hessian":[1.3546566E3,1.1799755E3,1.7468114E2],"tree_param":{"num_deleted":"0","num_feature":"418","num_nodes":"3","size_leaf_vector":"1"}},{"base_weights":[1.9711856E-2,5.4514146E-1,-5.709184E-2,1.8466198E0,1.4864041E-1,-5.44278E-2,2.1697703E-1,-5.6692418E-2,3.4032053E-1,5.844412E-2,-5.6566603E-2],"categories":[],"categories_nodes":[],"categories_segments":[],"categories_sizes":[],"default_left":[0,0,0,0,0,0,0,0,0,0,0],"id":3,"left_children":[1,3,-1,5,7,-1,-1,-1,9,-1,-1],"loss_changes":[4.2136856E2,3.705171E2,0E0,1.3074939E2,7.588243E1,0E0,0E0,0E0,9.6732056E1,0E0,0E0],"parents":[2147483647,0,0,1,1,3,3,4,4,8,8],"right_children":[2,4,-1,6,8,-1,-1,-1,10,-1,-1],"split_conditions":[9.12E2,1E0,-5.709184E-2,1E0,5E1,-5.44278E-2,2.1697703E-1,-5.6692418E-2,1.4758333E2,5.844412E-2,-5.6566603E-2],"split_indices":[378,212,0,234,383,0,0,0,411,0,0],"split_type":[0,0,0,0,0,0,0,0,0,0,0],"sum_hessian":[1.3557849E3,7.1753595E2,6.3824896E2,1.6670027E2,5.508357E2,1.976683E1,1.4693344E2,1.1596541E2,4.3487027E2,3.428447E2,9.202557E1],"tree_param":{"num_deleted":"0","num_feature":"418","num_nodes":"11","size_leaf_vector":"1"}},{"base_weights":[3.1870082E-2,-5.7124503E-2,6.639087E-1,1.3118105E-1,3.926479E-1,-5.7088405E-2,3.9246997E-1],"categories":[],"categories_nodes":[],"categories_segments":[],"categories_sizes":[],"default_left":[0,0,0,0,0,0,0],"id":4,"left_children":[1,-1,3,5,-1,-1,-1],"loss_changes":[5.189385E2,0E0,1.1548018E3,1.5268379E3,0E0,0E0,0E0],"parents":[2147483647,0,0,2,2,3,3],"right_children":[2,-1,4,6,-1,-1,-1],"split_conditions":[1E0,-5.7124503E-2,1.493125E2,3.2E1,3.926479E-1,-5.7088405E-2,3.9246997E-1],"split_indices":[212,0,411,1,0,0,0],"split_type":[0,0,0,0,0,0,0],"sum_hessian":[1.3593622E3,6.956464E2,6.637158E2,5.7144745E2,9.226839E1,4.8292264E2,8.85248E1],"tree_param":{"num_deleted":"0","num_feature":"418","num_nodes":"7","size_leaf_vector":"1"}},{"base_weights":[-2.2923216E-1,4.1456747E-1,-4.1709194E-1,4.0115395E-1,-4.886603E-1,-5.483515E-1,3.9648607E-1,-5.549851E-1,2.6423132E-1,-5.616371E-2,2.6423132E-1],"categories":[],"categories_nodes":[],"categories_segments":[],"categories_sizes":[],"default_left":[0,0,0,0,0,0,0,0,0,0,0],"id":5,"left_children":[1,-1,3,-1,5,7,-1,9,-1,-1,-1],"loss_changes":[1.0612173E3,0E0,3.9401227E2,0E0,3.2600848E2,2.6927155E1,0E0,2.7033234E1,0E0,0E0,0E0],"parents":[2147483647,0,0,2,2,4,4,5,5,7,7],"right_children":[2,-1,4,-1,6,8,-1,10,-1,-1,-1],"split_conditions":[9.72125E1,4.1456747E-1,1.2404347E2,4.0115395E-1,4E1,2.2E1,3.9648607E-1,1E0,2.6423132E-1,-5.616371E-2,2.6423132E-1],"split_indices":[414,0,0,0,382,6,0,217,0,0,0],"split_type":[0,0,0,0,0,0,0,0,0,0,0],"sum_hessian":[1.2881202E3,5.216751E1,1.2359528E3,1.8780304E1,1.2171724E3,1.2019395E3,1.5232914E1,1.2002701E3,1.6693604E0,1.1986007E3,1.6693604E0],"tree_param":{"num_deleted":"0","num_feature":"418","num_nodes":"11","size_leaf_vector":"1"}},{"base_weights":[1.1996957E-2,-5.677856E-1,3.9602712E-1,-6.998205E-2,-5.7116646E-2,1.6091353E-1,-5.00344E-2],"categories":[],"categories_nodes":[],"categories_segments":[],"categories_sizes":[],"default_left":[0,0,0,0,0,0,0],"id":6,"left_children":[1,3,-1,5,-1,-1,-1],"loss_changes":[3.1029565E3,1.9492798E0,0E0,7.3903193E0,0E0,0E0,0E0],"parents":[2147483647,0,0,1,1,3,3],"right_children":[2,4,-1,6,-1,-1,-1],"split_conditions":[1E0,1E0,3.9602712E-1,8E0,-5.7116646E-2,1.6091353E-1,-5.00344E-2],"split_indices":[184,286,0,4,0,0,0],"split_type":[0,0,0,0,0,0,0],"sum_hessian":[1.3535294E3,1.180967E3,1.725624E2,8.112844E0,1.1728541E3,1.0963303E0,7.016514E0],"tree_param":{"num_deleted":"0","num_feature":"418","num_nodes":"7","size_leaf_vector":"1"}},{"base_weights":[3.314582E-2,-5.7160746E-2,3.9242476E-1],"categories":[],"categories_nodes":[],"categories_segments":[],"categories_sizes":[],"default_left":[0,0,0],"id":7,"left_children":[1,-1,-1],"loss_changes":[3.2042756E3,0E0,0E0],"parents":[2147483647,0,0],"right_children":[2,-1,-1],"split_conditions":[1E0,-5.7160746E-2,3.9242476E-1],"split_indices":[79,0,0],"split_type":[0,0,0],"sum_hessian":[1.3597393E3,1.1775743E3,1.8216498E2],"tree_param":{"num_deleted":"0","num_feature":"418","num_nodes":"3","size_leaf_vector":"1"}},{"base_weights":[1.6380645E-2,-5.657311E-2,1.0504544E0,1.4096327E0,-5.5999525E-2,-3.7066795E-2,1.4190271E-1],"categories":[],"categories_nodes":[],"categories_segments":[],"categories_sizes":[],"default_left":[0,0,0,0,0,0,0],"id":8,"left_children":[1,-1,3,5,-1,-1,-1],"loss_changes":[8.137497E2,0E0,2.8243335E2,7.189209E0,0E0,0E0,0E0],"parents":[2147483647,0,0,2,2,3,3],"right_children":[2,-1,4,6,-1,-1,-1],"split_conditions":[5E1,-5.657311E-2,1.4758333E2,1.2404348E2,-5.5999525E-2,-3.7066795E-2,1.4190271E-1],"split_indices":[383,0,411,0,0,0,0],"split_type":[0,0,0,0,0,0,0],"sum_hessian":[1.3498767E3,8.6397284E2,4.859039E2,3.9739716E2,8.850673E1,1.8841444E0,3.95513E2],"tree_param":{"num_deleted":"0","num_feature":"418","num_nodes":"7","size_leaf_vector":"1"}},{"base_weights":[8.512252E-2,-1.8611059E-1,7.061398E-1,-5.6466002E-2,2.3783942E-1,-5.6112092E-2,1.0278866E0,4.3658862E-1,-5.614958E-2,4.7351566E-1,2.6612055E-1,-3.7365433E-2,4.418962E-2,9.9998885E-1,-5.6110233E-2,-3.7458465E-2,1.0182678E-1],"categories":[],"categories_nodes":[],"categories_segments":[],"categories_sizes":[],"default_left":[0,0,0,0,0,0,0,0,0,0,0,0,0,0,0,0,0],"id":9,"left_children":[1,3,5,-1,7,-1,9,11,-1,13,-1,-1,-1,15,-1,-1,-1],"loss_changes":[2.3276517E2,1.5453098E2,1.7184561E2,0E0,7.245321E1,0E0,3.0238553E2,1.7329483E0,0E0,1.3759943E2,0E0,0E0,0E0,4.579895E0,0E0,0E0,0E0],"parents":[2147483647,0,0,1,1,2,2,4,4,6,6,7,7,9,9,13,13],"right_children":[2,4,6,-1,8,-1,10,12,-1,14,-1,-1,-1,16,-1,-1,-1],"split_conditions":[1E0,5E1,1E0,-5.6466002E-2,1.4758333E2,-5.6112092E-2,9E0,1.2404348E2,-5.614958E-2,1E0,2.6612055E-1,-3.7365433E-2,4.418962E-2,3E1,-5.6110233E-2,-3.7458465E-2,1.0182678E-1],"split_indices":[234,383,16,0,411,0,6,0,0,212,0,0,0,1,0,0,0],"split_type":[0,0,0,0,0,0,0,0,0,0,0,0,0,0,0,0,0],"sum_hessian":[1.3801039E3,9.610568E2,4.1904712E2,5.0753845E2,4.5351834E2,8.4699234E1,3.343479E2,3.635724E2,8.994596E1,2.5058559E2,8.376231E1,1.9144664E0,3.616579E2,1.6609856E2,8.448704E1,1.9239588E0,1.6417459E2],"tree_param":{"num_deleted":"0","num_feature":"418","num_nodes":"17","size_leaf_vector":"1"}},{"base_weights":[1.302791E-2,-5.6606125E-2,2.703766E-1],"categories":[],"categories_nodes":[],"categories_segments":[],"categories_sizes":[],"default_left":[0,0,0],"id":10,"left_children":[1,-1,-1],"loss_changes":[2.1132368E3,0E0,0E0],"parents":[2147483647,0,0],"right_children":[2,-1,-1],"split_conditions":[1.8664062E2,-5.6606125E-2,2.703766E-1],"split_indices":[411,0,0],"split_type":[0,0,0],"sum_hessian":[1.3542412E3,1.1150537E3,2.391875E2],"tree_param":{"num_deleted":"0","num_feature":"418","num_nodes":"3","size_leaf_vector":"1"}},{"base_weights":[2.1297608E-2,4.92123E-1,-5.6543525E-2,1.4883884E0,1.4168878E-1,-5.3834077E-2,1.706907E-1,-5.6129575E-2,3.1486556E-1,5.2699577E-2,-5.599457E-2],"categories":[],"categories_nodes":[],"categories_segments":[],"categories_sizes":[],"default_left":[0,0,0,0,0,0,0,0,0,0,0],"id":11,"left_children":[1,3,-1,5,7,-1,-1,-1,9,-1,-1],"loss_changes":[3.7372147E2,2.6181937E2,0E0,8.7367096E1,6.790552E1,0E0,0E0,0E0,8.324945E1,0E0,0E0],"parents":[2147483647,0,0,1,1,3,3,4,4,8,8],"right_children":[2,4,-1,6,8,-1,-1,-1,10,-1,-1],"split_conditions":[9.12E2,1E0,-5.6543525E-2,1E0,5E1,-5.3834077E-2,1.706907E-1,-5.6129575E-2,1.4758333E2,5.2699577E-2,-5.599457E-2],"split_indices":[378,212,0,234,383,0,0,0,411,0,0],"split_type":[0,0,0,0,0,0,0,0,0,0,0],"sum_hessian":[1.3508369E3,7.4953314E2,6.013037E2,1.9419633E2,5.5533685E2,1.8757702E1,1.7543863E2,1.0932157E2,4.4601526E2,3.592898E2,8.672546E1],"tree_param":{"num_deleted":"0","num_feature":"418","num_nodes":"11","size_leaf_vector":"1"}},{"base_weights":[2.816246E-2,-5.658669E-2,5.817407E-1,1.1825434E-1,2.6918474E-1,-5.6584626E-2,2.691143E-1],"categories":[],"categories_nodes":[],"categories_segments":[],"categories_sizes":[],"default_left":[0,0,0,0,0,0,0],"id":12,"left_children":[1,-1,3,5,-1,-1,-1],"loss_changes":[4.4807523E2,0E0,6.894519E2,1.02117816E3,0E0,0E0,0E0],"parents":[2147483647,0,0,2,2,3,3],"right_children":[2,-1,4,6,-1,-1,-1],"split_conditions":[1E0,-5.658669E-2,1.493125E2,3.2E1,2.6918474E-1,-5.6584626E-2,2.691143E-1],"split_indices":[212,0,411,1,0,0,0],"split_type":[0,0,0,0,0,0,0],"sum_hessian":[1.3605854E3,6.5630286E2,7.0428253E2,5.7831195E2,1.25970566E2,4.5745908E2,1.20852875E2],"tree_param":{"num_deleted":"0","num_feature":"418","num_nodes":"7","size_leaf_vector":"1"}},{"base_weights":[-2.2034547E-1,2.787039E-1,-4.0756142E-1,2.750871E-1,-4.8077798E-1,-5.4263467E-1,2.737525E-1,-5.495866E-1,2.1720615E-1,-5.5656433E-2,2.1715477E-1],"categories":[],"categories_nodes":[],"categories_segments":[],"categories_sizes":[],"default_left":[0,0,0,0,0,0,0,0,0,0,0],"id":13,"left_children":[1,-1,3,-1,5,7,-1,9,-1,-1,-1],"loss_changes":[7.091893E2,0E0,2.7529535E2,0E0,2.3216373E2,2.266568E1,0E0,2.277121E1,0E0,0E0,0E0],"parents":[2147483647,0,0,2,2,4,4,5,5,7,7],"right_children":[2,-1,4,-1,6,8,-1,10,-1,-1,-1],"split_conditions":[9.72125E1,2.787039E-1,1.2404347E2,2.750871E-1,4E1,2.2E1,2.737525E-1,1E0,2.1720615E-1,-5.5656433E-2,2.1715477E-1],"split_indices":[414,0,0,0,382,6,0,217,0,0,0],"split_type":[0,0,0,0,0,0,0,0,0,0,0],"sum_hessian":[1.2565759E3,7.282639E1,1.1837495E3,2.599058E1,1.1577589E3,1.1367418E3,2.1017103E1,1.1346337E3,2.1080801E0,1.1325251E3,2.1086311E0],"tree_param":{"num_deleted":"0","num_feature":"418","num_nodes":"11","size_leaf_vector":"1"}},{"base_weights":[9.509679E-3,-5.624298E-1,2.702347E-1,-5.3515084E-2,-5.6598794E-2,1.4868344E-1,-4.9260087E-2],"categories":[],"categories_nodes":[],"categories_segments":[],"categories_sizes":[],"default_left":[0,0,0,0,0,0,0],"id":14,"left_children":[1,3,-1,5,-1,-1,-1],"loss_changes":[2.086096E3,1.9927979E0,0E0,6.725835E0,0E0,0E0,0E0],"parents":[2147483647,0,0,1,1,3,3],"right_children":[2,4,-1,6,-1,-1,-1],"split_conditions":[1E0,1E0,2.702347E-1,8E0,-5.6598794E-2,1.4868344E-1,-4.9260087E-2],"split_indices":[184,286,0,4,0,0,0],"split_type":[0,0,0,0,0,0,0],"sum_hessian":[1.3524977E3,1.1162131E3,2.3628458E2,7.8614755E0,1.1083517E3,1.214545E0,6.64693E0],"tree_param":{"num_deleted":"0","num_feature":"418","num_nodes":"7","size_leaf_vector":"1"}},{"base_weights":[2.9172717E-2,-5.6638688E-2,2.6860054E0,-3.2927696E-2,2.701608E-1],"categories":[],"categories_nodes":[],"categories_segments":[],"categories_sizes":[],"default_left":[0,0,0,0,0],"id":15,"left_children":[1,-1,3,-1,-1],"loss_changes":[2.1573167E3,0E0,1.263501E1,0E0,0E0],"parents":[2147483647,0,0,2,2],"right_children":[2,-1,4,-1,-1],"split_conditions":[1E0,-5.6638688E-2,8E0,-3.2927696E-2,2.701608E-1],"split_indices":[79,0,4,0,0],"split_type":[0,0,0,0,0],"sum_hessian":[1.3614423E3,1.1127854E3,2.4865683E2,1.1765584E0,2.4748027E2],"tree_param":{"num_deleted":"0","num_feature":"418","num_nodes":"5","size_leaf_vector":"1"}},{"base_weights":[1.711976E-2,-5.6083925E-2,9.090193E-1,1.1845161E0,-5.5476196E-2,-3.621909E-2,1.1916109E-1],"categories":[],"categories_nodes":[],"categories_segments":[],"categories_sizes":[],"default_left":[0,0,0,0,0,0,0],"id":16,"left_children":[1,-1,3,5,-1,-1,-1],"loss_changes":[6.928721E2,0E0,2.1378891E2,5.316162E0,0E0,0E0,0E0],"parents":[2147483647,0,0,2,2,3,3],"right_children":[2,-1,4,6,-1,-1,-1],"split_conditions":[5E1,-5.6083925E-2,1.4758333E2,1.2404348E2,-5.5476196E-2,-3.621909E-2,1.1916109E-1],"split_indices":[383,0,411,0,0,0,0],"split_type":[0,0,0,0,0,0,0],"sum_hessian":[1.3421373E3,8.1462445E2,5.275129E2,4.4411688E2,8.3395996E1,1.799363E0,4.4231754E2],"tree_param":{"num_deleted":"0","num_feature":"418","num_nodes":"7","size_leaf_vector":"1"}},{"base_weights":[8.205563E-2,-1.7576137E-1,6.3165116E-1,-5.594616E-2,2.2292356E-1,-5.5573504E-2,8.956456E-1,3.995527E-1,-5.561415E-2,1.3082415E0,-5.5573344E-2,-3.650878E-2,4.0425185E-2,8.7232506E-1,2.0678201E-1,-3.6669355E-2,8.871644E-2],"categories":[],"categories_nodes":[],"categories_segments":[],"categories_sizes":[],"default_left":[0,0,0,0,0,0,0,0,0,0,0,0,0,0,0,0,0],"id":17,"left_children":[1,3,5,-1,7,-1,9,11,-1,13,-1,-1,-1,15,-1,-1,-1],"loss_changes":[1.9563637E2,1.4393153E2,1.3868423E2,0E0,6.3760887E1,0E0,2.1692725E2,1.5021706E0,0E0,9.13772E1,0E0,0E0,0E0,3.6446228E0,0E0,0E0,0E0],"parents":[2147483647,0,0,1,1,2,2,4,4,6,6,7,7,9,9,13,13],"right_children":[2,4,6,-1,8,-1,10,12,-1,14,-1,-1,-1,16,-1,-1,-1],"split_conditions":[1E0,5E1,1E0,-5.594616E-2,1.4758333E2,-5.5573504E-2,1E0,1.2404348E2,-5.561415E-2,9E0,-5.5573344E-2,-3.650878E-2,4.0425185E-2,3E1,2.0678201E-1,-3.6669355E-2,8.871644E-2],"split_indices":[234,383,16,0,411,0,212,0,0,6,0,0,0,1,0,0,0],"split_type":[0,0,0,0,0,0,0,0,0,0,0,0,0,0,0,0,0],"sum_hessian":[1.3789022E3,9.3906433E2,4.3983783E2,4.7831943E2,4.607449E2,7.980194E1,3.600359E2,3.7598825E2,8.4756676E1,2.8041776E2,7.961813E1,1.8281136E0,3.7416013E2,1.7953334E2,1.0088442E2,1.8441509E0,1.776892E2],"tree_param":{"num_deleted":"0","num_feature":"418","num_nodes":"17","size_leaf_vector":"1"}},{"base_weights":[1.074612E-2,-5.6131184E-2,2.090305E-1],"categories":[],"categories_nodes":[],"categories_segments":[],"categories_sizes":[],"default_left":[0,0,0],"id":18,"left_children":[1,-1,-1],"loss_changes":[1.5992941E3,0E0,0E0],"parents":[2147483647,0,0],"right_children":[2,-1,-1],"split_conditions":[1.8664062E2,-5.6131184E-2,2.090305E-1],"split_indices":[411,0,0],"split_type":[0,0,0],"sum_hessian":[1.3423783E3,1.0533472E3,2.890312E2],"tree_param":{"num_deleted":"0","num_feature":"418","num_nodes":"3","size_leaf_vector":"1"}},{"base_weights":[2.2530999E-2,4.4759423E-1,-5.604413E-2,1.2447089E0,1.3525061E-1,-5.330069E-2,1.4050587E-1,-5.561322E-2,2.9230452E-1,4.7815446E-2,-5.546956E-2],"categories":[],"categories_nodes":[],"categories_segments":[],"categories_sizes":[],"default_left":[0,0,0,0,0,0,0,0,0,0,0],"id":19,"left_children":[1,3,-1,5,7,-1,-1,-1,9,-1,-1],"loss_changes":[3.3339807E2,1.9354997E2,0E0,6.315509E1,6.0985172E1,0E0,0E0,0E0,7.222108E1,0E0,0E0],"parents":[2147483647,0,0,1,1,3,3,4,4,8,8],"right_children":[2,4,-1,6,8,-1,-1,-1,10,-1,-1],"split_conditions":[9.12E2,1E0,-5.604413E-2,1E0,5E1,-5.330069E-2,1.4050587E-1,-5.561322E-2,1.4758333E2,4.7815446E-2,-5.546956E-2],"split_indices":[378,212,0,234,383,0,0,0,411,0,0],"split_type":[0,0,0,0,0,0,0,0,0,0,0],"sum_hessian":[1.3434193E3,7.7706744E2,5.663518E2,2.1792589E2,5.591416E2,1.7838251E1,2.0008765E2,1.0303219E2,4.5610938E2,3.7439465E2,8.171472E1],"tree_param":{"num_deleted":"0","num_feature":"418","num_nodes":"11","size_leaf_vector":"1"}},{"base_weights":[2.5104383E-2,-5.6096256E-2,5.2138466E-1,1.07875586E-1,2.0847249E-1,-5.6120176E-2,2.0842472E-1],"categories":[],"categories_nodes":[],"categories_segments":[],"categories_sizes":[],"default_left":[0,0,0,0,0,0,0],"id":20,"left_children":[1,-1,3,5,-1,-1,-1],"loss_changes":[3.9329367E2,0E0,4.7308585E2,7.682183E2,0E0,0E0,0E0],"parents":[2147483647,0,0,2,2,3,3],"right_children":[2,-1,4,6,-1,-1,-1],"split_conditions":[1E0,-5.6096256E-2,1.493125E2,3.2E1,2.0847249E-1,-5.6120176E-2,2.0842472E-1],"split_indices":[212,0,411,1,0,0,0],"split_type":[0,0,0,0,0,0,0],"sum_hessian":[1.3502001E3,6.19037E2,7.311631E2,5.7906683E2,1.5209624E2,4.331463E2,1.4592053E2],"tree_param":{"num_deleted":"0","num_feature":"418","num_nodes":"7","size_leaf_vector":"1"}},{"base_weights":[-2.1273415E-1,2.1395628E-1,-3.99048E-1,2.125217E-1,-4.7360066E-1,-5.373271E-1,2.1197331E-1,-5.445827E-1,1.829363E-1,-5.518722E-2,1.8285365E-1],"categories":[],"categories_nodes":[],"categories_segments":[],"categories_sizes":[],"default_left":[0,0,0,0,0,0,0,0,0,0,0],"id":21,"left_children":[1,-1,3,-1,5,7,-1,9,-1,-1,-1],"loss_changes":[5.3642505E2,0E0,2.1426047E2,0E0,1.831757E2,1.9470886E1,0E0,1.9576782E1,0E0,0E0,0E0],"parents":[2147483647,0,0,2,2,4,4,5,5,7,7],"right_children":[2,-1,4,-1,6,8,-1,10,-1,-1,-1],"split_conditions":[9.72125E1,2.1395628E-1,1.2404347E2,2.125217E-1,4E1,2.2E1,2.1197331E-1,1E0,1.829363E-1,-5.518722E-2,1.8285365E-1],"split_indices":[414,0,0,0,382,6,0,217,0,0,0],"split_type":[0,0,0,0,0,0,0,0,0,0,0],"sum_hessian":[1.2210247E3,8.8844086E1,1.1321805E3,3.1689943E1,1.1004906E3,1.0748705E3,2.5620186E1,1.0723528E3,2.5176415E0,1.0698341E3,2.5187385E0],"tree_param":{"num_deleted":"0","num_feature":"418","num_nodes":"11","size_leaf_vector":"1"}},{"base_weights":[7.498264E-3,-5.5751E-1,2.0890698E0,-5.6125756E-2,1.5745372E-1,6.1571527E-2,2.0925303E-1],"categories":[],"categories_nodes":[],"categories_segments":[],"categories_sizes":[],"default_left":[0,0,0,0,0,0,0],"id":22,"left_children":[1,3,5,-1,-1,-1,-1],"loss_changes":[1.5785846E3,9.318481E0,1.7248535E-1,0E0,0E0,0E0,0E0],"parents":[2147483647,0,0,1,1,2,2],"right_children":[2,4,6,-1,-1,-1,-1],"split_conditions":[1E0,1E0,1.05E3,-5.6125756E-2,1.5745372E-1,6.1571527E-2,2.0925303E-1],"split_indices":[184,368,379,0,0,0,0],"split_type":[0,0,0,0,0,0,0],"sum_hessian":[1.3402234E3,1.05468E3,2.8554333E2,1.053565E3,1.1151149E0,1.0883288E0,2.8445502E2],"tree_param":{"num_deleted":"0","num_feature":"418","num_nodes":"7","size_leaf_vector":"1"}},{"base_weights":[2.5908973E-2,-5.6160964E-2,2.0786746E0,-3.2688804E-2,2.0891066E-1],"categories":[],"categories_nodes":[],"categories_segments":[],"categories_sizes":[],"default_left":[0,0,0,0,0],"id":23,"left_children":[1,-1,3,-1,-1],"loss_changes":[1.6321656E3,0E0,8.23999E0,0E0,0E0],"parents":[2147483647,0,0,2,2],"right_children":[2,-1,4,-1,-1],"split_conditions":[1E0,-5.6160964E-2,8E0,-3.2688804E-2,2.0891066E-1],"split_indices":[79,0,4,0,0],"split_type":[0,0,0,0,0],"sum_hessian":[1.3513606E3,1.0512192E3,3.001413E2,1.1649941E0,2.989763E2],"tree_param":{"num_deleted":"0","num_feature":"418","num_nodes":"5","size_leaf_vector":"1"}},{"base_weights":[1.7948937E-2,-5.5628043E-2,7.9857886E-1,1.0171788E0,-5.49829E-2,-3.5378247E-2,1.0227656E-1],"categories":[],"categories_nodes":[],"categories_segments":[],"categories_sizes":[],"default_left":[0,0,0,0,0,0,0],"id":24,"left_children":[1,-1,3,5,-1,-1,-1],"loss_changes":[5.9748285E2,0E0,1.6707309E2,4.0877075E0,0E0,0E0,0E0],"parents":[2147483647,0,0,2,2,3,3],"right_children":[2,-1,4,6,-1,-1,-1],"split_conditions":[5E1,-5.5628043E-2,1.4758333E2,1.2404348E2,-5.49829E-2,-3.5378247E-2,1.0227656E-1],"split_indices":[383,0,411,0,0,0,0],"split_type":[0,0,0,0,0,0,0],"sum_hessian":[1.3309006E3,7.669913E2,5.639094E2,4.8545456E2,7.8454834E1,1.7172933E0,4.8373727E2],"tree_param":{"num_deleted":"0","num_feature":"418","num_nodes":"7","size_leaf_vector":"1"}},{"base_weights":[7.9571895E-2,-1.6553326E-1,5.7210726E-1,-5.545941E-2,2.0971659E-1,-5.5066586E-2,7.9437006E-1,3.6733803E-1,-5.5109996E-2,1.1245868E0,-5.506748E-2,-3.5659656E-2,3.7152674E-2,7.7086073E-1,1.7063497E-1,-3.5875227E-2,7.8319065E-2],"categories":[],"categories_nodes":[],"categories_segments":[],"categories_sizes":[],"default_left":[0,0,0,0,0,0,0,0,0,0,0,0,0,0,0,0,0],"id":25,"left_children":[1,3,5,-1,7,-1,9,11,-1,13,-1,-1,-1,15,-1,-1,-1],"loss_changes":[1.6596521E2,1.3416943E2,1.1442551E2,0E0,5.634025E1,0E0,1.7015475E2,1.3101997E0,0E0,6.181778E1,0E0,0E0,0E0,2.9636917E0,0E0,0E0,0E0],"parents":[2147483647,0,0,1,1,2,2,4,4,6,6,7,7,9,9,13,13],"right_children":[2,4,6,-1,8,-1,10,12,-1,14,-1,-1,-1,16,-1,-1,-1],"split_conditions":[1E0,5E1,1E0,-5.545941E-2,1.4758333E2,-5.5066586E-2,1E0,1.2404348E2,-5.5109996E-2,9E0,-5.506748E-2,-3.5659656E-2,3.7152674E-2,3E1,1.7063497E-1,-3.5875227E-2,7.8319065E-2],"split_indices":[234,383,16,0,411,0,212,0,0,6,0,0,0,1,0,0,0],"split_type":[0,0,0,0,0,0,0,0,0,0,0,0,0,0,0,0,0],"sum_hessian":[1.3729766E3,9.1720355E2,4.5577304E2,4.500803E2,4.671233E2,7.507086E1,3.8070218E2,3.8738446E2,7.973882E1,3.057922E2,7.4909966E1,1.7445251E0,3.8563992E2,1.9161226E2,1.14179955E2,1.7655473E0,1.8984671E2],"tree_param":{"num_deleted":"0","num_feature":"418","num_nodes":"17","size_leaf_vector":"1"}},{"base_weights":[8.542207E-3,-5.5689406E-2,1.7204061E-1],"categories":[],"categories_nodes":[],"categories_segments":[],"categories_sizes":[],"default_left":[0,0,0],"id":26,"left_children":[1,-1,-1],"loss_changes":[1.2811138E3,0E0,0E0],"parents":[2147483647,0,0],"right_children":[2,-1,-1],"split_conditions":[1.8664062E2,-5.5689406E-2,1.7204061E-1],"split_indices":[411,0,0],"split_type":[0,0,0],"sum_hessian":[1.3215433E3,9.939213E2,3.2762198E2],"tree_param":{"num_deleted":"0","num_feature":"418","num_nodes":"3","size_leaf_vector":"1"}},{"base_weights":[2.3932625E-2,4.0984732E-1,-5.557809E-2,1.0671597E0,1.2964788E-1,-5.2789122E-2,1.1910447E-1,-5.5127032E-2,2.7245066E-1,4.362325E-2,-5.4974694E-2],"categories":[],"categories_nodes":[],"categories_segments":[],"categories_sizes":[],"default_left":[0,0,0,0,0,0,0,0,0,0,0],"id":27,"left_children":[1,3,-1,5,7,-1,-1,-1,9,-1,-1],"loss_changes":[2.9868353E2,1.4747641E2,0E0,4.7935577E1,5.4901714E1,0E0,0E0,0E0,6.300882E1,0E0,0E0],"parents":[2147483647,0,0,1,1,3,3,4,4,8,8],"right_children":[2,4,-1,6,8,-1,-1,-1,10,-1,-1],"split_conditions":[9.12E2,1E0,-5.557809E-2,1E0,5E1,-5.2789122E-2,1.1910447E-1,-5.5127032E-2,1.4758333E2,4.362325E-2,-5.4974694E-2],"split_indices":[378,212,0,234,383,0,0,0,411,0,0],"split_type":[0,0,0,0,0,0,0,0,0,0,0],"sum_hessian":[1.3330596E3,8.004763E2,5.3258325E2,2.3840344E2,5.620729E2,1.694688E1,2.2145656E2,9.6946785E1,4.6512607E2,3.8825507E2,7.6871E1],"tree_param":{"num_deleted":"0","num_feature":"418","num_nodes":"11","size_leaf_vector":"1"}},{"base_weights":[2.2225266E-2,-5.5639274E-2,4.7368962E-1,9.868512E-2,1.717326E-1,-5.5688508E-2,1.7169173E-1],"categories":[],"categories_nodes":[],"categories_segments":[],"categories_sizes":[],"default_left":[0,0,0,0,0,0,0],"id":28,"left_children":[1,-1,3,5,-1,-1,-1],"loss_changes":[3.4811343E2,0E0,3.489225E2,6.1219836E2,0E0,0E0,0E0],"parents":[2147483647,0,0,2,2,3,3],"right_children":[2,-1,4,6,-1,-1,-1],"split_conditions":[1E0,-5.5639274E-2,1.493125E2,3.2E1,1.717326E-1,-5.5688508E-2,1.7169173E-1],"split_indices":[212,0,411,1,0,0,0],"split_type":[0,0,0,0,0,0,0],"sum_hessian":[1.3306083E3,5.830769E2,7.475313E2,5.751736E2,1.7235773E2,4.0980948E2,1.653641E2],"tree_param":{"num_deleted":"0","num_feature":"418","num_nodes":"7","size_leaf_vector":"1"}},{"base_weights":[-2.06173E-1,1.7530325E-1,-3.913286E-1,1.7454869E-1,-4.6696E-1,-5.323155E-1,1.7431962E-1,-5.398626E-1,1.5738164E-1,-5.4745215E-1,1.572802E-1,-5.5337515E-2,-4.9922284E-2],"categories":[],"categories_nodes":[],"categories_segments":[],"categories_sizes":[],"default_left":[0,0,0,0,0,0,0,0,0,0,0,0,0],"id":29,"left_children":[1,-1,3,-1,5,7,-1,9,-1,11,-1,-1,-1],"loss_changes":[4.2984177E2,0E0,1.7562968E2,0E0,1.5194824E2,1.7003174E1,0E0,1.7109589E1,0E0,1.2390137E-2,0E0,0E0,0E0],"parents":[2147483647,0,0,2,2,4,4,5,5,7,7,9,9],"right_children":[2,-1,4,-1,6,8,-1,10,-1,12,-1,-1,-1],"split_conditions":[9.72125E1,1.7530325E-1,1.2404347E2,1.7454869E-1,4E1,2.2E1,1.7431962E-1,1E0,1.5738164E-1,1.6E1,1.572802E-1,-5.5337515E-2,-4.9922284E-2],"split_indices":[414,0,0,0,382,6,0,217,0,6,0,0,0],"split_type":[0,0,0,0,0,0,0,0,0,0,0,0,0],"sum_hessian":[1.1820364E3,1.0133218E2,1.0807041E3,3.6188587E1,1.0445155E3,1.0152531E3,2.9262411E1,1.0123691E3,2.8840458E0,1.00948346E3,2.8856091E0,8.897419E2,1.19741585E2],"tree_param":{"num_deleted":"0","num_feature":"418","num_nodes":"13","size_leaf_vector":"1"}},{"base_weights":[5.578921E-3,-5.529122E-1,1.7194822E-1,-5.568413E-2,1.4108406E-1],"categories":[],"categories_nodes":[],"categories_segments":[],"categories_sizes":[],"default_left":[0,0,0,0,0],"id":30,"left_children":[1,3,-1,-1,-1],"loss_changes":[1.2644767E3,8.473328E0,0E0,0E0,0E0],"parents":[2147483647,0,0,1,1],"right_children":[2,4,-1,-1,-1],"split_conditions":[1E0,1E0,1.7194822E-1,-5.568413E-2,1.4108406E-1],"split_indices":[184,368,0,0,0],"split_type":[0,0,0,0,0],"sum_hessian":[1.3190233E3,9.9535516E2,3.236682E2,9.940826E2,1.272544E0],"tree_param":{"num_deleted":"0","num_feature":"418","num_nodes":"5","size_leaf_vector":"1"}},{"base_weights":[2.2874119E-2,-5.5716712E-2,1.7118406E0,-3.231147E-2,1.7196578E-1],"categories":[],"categories_nodes":[],"categories_segments":[],"categories_sizes":[],"default_left":[0,0,0,0,0],"id":31,"left_children":[1,-1,3,-1,-1],"loss_changes":[1.3067772E3,0E0,5.9799194E0,0E0,0E0],"parents":[2147483647,0,0,2,2],"right_children":[2,-1,4,-1,-1],"split_conditions":[1E0,-5.5716712E-2,8E0,-3.231147E-2,1.7196578E-1],"split_indices":[79,0,4,0,0],"split_type":[0,0,0,0,0],"sum_hessian":[1.3319214E3,9.919325E2,3.3998892E2,1.1466985E0,3.3884222E2],"tree_param":{"num_deleted":"0","num_feature":"418","num_nodes":"5","size_leaf_vector":"1"}},{"base_weights":[1.8971212E-2,-5.5200316E-2,7.096135E-1,8.8736206E-1,-5.4514434E-2,-3.453515E-2,8.918949E-2],"categories":[],"categories_nodes":[],"categories_segments":[],"categories_sizes":[],"default_left":[0,0,0,0,0,0,0],"id":32,"left_children":[1,-1,3,5,-1,-1,-1],"loss_changes":[5.1994415E2,0E0,1.3357E2,3.230774E0,0E0,0E0,0E0],"parents":[2147483647,0,0,2,2,3,3],"right_children":[2,-1,4,6,-1,-1,-1],"split_conditions":[5E1,-5.5200316E-2,1.4758333E2,1.2404348E2,-5.4514434E-2,-3.453515E-2,8.918949E-2],"split_indices":[383,0,411,0,0,0,0],"split_type":[0,0,0,0,0,0,0],"sum_hessian":[1.3165272E3,7.2081165E2,5.957155E2,5.220543E2,7.366122E1,1.6371818E0,5.204171E2],"tree_param":{"num_deleted":"0","num_feature":"418","num_nodes":"7","size_leaf_vector":"1"}},{"base_weights":[7.770239E-2,-1.553065E-1,5.2344024E-1,-5.5000026E-2,1.9800273E-1,-5.4582436E-2,7.141057E-1,3.3908927E-1,-5.4631747E-2,9.862945E-1,-5.4587234E-2,-3.480883E-2,3.4284264E-2,6.882802E-1,1.4629428E-1,-3.507076E-2,6.987088E-2],"categories":[],"categories_nodes":[],"categories_segments":[],"categories_sizes":[],"default_left":[0,0,0,0,0,0,0,0,0,0,0,0,0,0,0,0,0],"id":33,"left_children":[1,3,5,-1,7,-1,9,11,-1,13,-1,-1,-1,15,-1,-1,-1],"loss_changes":[1.4172766E2,1.2511014E2,9.588632E1,0E0,4.993329E1,0E0,1.3702039E2,1.1480865E0,0E0,4.5530975E1,0E0,0E0,0E0,2.4496994E0,0E0,0E0,0E0],"parents":[2147483647,0,0,1,1,2,2,4,4,6,6,7,7,9,9,13,13],"right_children":[2,4,6,-1,8,-1,10,12,-1,14,-1,-1,-1,16,-1,-1,-1],"split_conditions":[1E0,5E1,1E0,-5.5000026E-2,1.4758333E2,-5.4582436E-2,1E0,1.2404348E2,-5.4631747E-2,9E0,-5.4587234E-2,-3.480883E-2,3.4284264E-2,3E1,1.4629428E-1,-3.507076E-2,6.987088E-2],"split_indices":[234,383,16,0,411,0,212,0,0,6,0,0,0,1,0,0,0],"split_type":[0,0,0,0,0,0,0,0,0,0,0,0,0,0,0,0,0],"sum_hessian":[1.3628087E3,8.9539417E2,4.6741455E2,4.2266452E2,4.727296E2,7.045205E1,3.969625E2,3.9785944E2,7.487018E1,3.266209E2,7.034159E1,1.6629398E0,3.961965E2,2.0247296E2,1.2414795E2,1.6878159E0,2.0078514E2],"tree_param":{"num_deleted":"0","num_feature":"418","num_nodes":"17","size_leaf_vector":"1"}},{"base_weights":[6.29009E-3,-5.5276513E-2,1.4720185E-1],"categories":[],"categories_nodes":[],"categories_segments":[],"categories_sizes":[],"default_left":[0,0,0],"id":34,"left_children":[1,-1,-1],"loss_changes":[1.061253E3,0E0,0E0],"parents":[2147483647,0,0],"right_children":[2,-1,-1],"split_conditions":[1.8664062E2,-5.5276513E-2,1.4720185E-1],"split_indices":[411,0,0],"split_type":[0,0,0],"sum_hessian":[1.2931292E3,9.365391E2,3.5659E2],"tree_param":{"num_deleted":"0","num_feature":"418","num_nodes":"3","size_leaf_vector":"1"}},{"base_weights":[2.560715E-2,3.774241E-1,-5.513962E-2,9.3139553E-1,1.24829024E-1,-5.2287288E-2,1.03053905E-1,-5.4665983E-2,2.549071E-1,3.9988518E-2,-5.4504704E-2],"categories":[],"categories_nodes":[],"categories_segments":[],"categories_sizes":[],"default_left":[0,0,0,0,0,0,0,0,0,0,0],"id":35,"left_children":[1,3,-1,5,7,-1,-1,-1,9,-1,-1],"loss_changes":[2.683729E2,1.1479948E2,0E0,3.7598312E1,4.950737E1,0E0,0E0,0E0,5.5209282E1,0E0,0E0],"parents":[2147483647,0,0,1,1,3,3,4,4,8,8],"right_children":[2,4,-1,6,8,-1,-1,-1,10,-1,-1],"split_conditions":[9.12E2,1E0,-5.513962E-2,1E0,5E1,-5.2287288E-2,1.03053905E-1,-5.4665983E-2,1.4758333E2,3.9988518E-2,-5.4504704E-2],"split_indices":[378,212,0,234,383,0,0,0,411,0,0],"split_type":[0,0,0,0,0,0,0,0,0,0,0],"sum_hessian":[1.3200117E3,8.202348E2,4.9977686E2,2.5603403E2,5.642008E2,1.6068096E1,2.3996591E2,9.103865E1,4.7316214E2,4.0098972E2,7.217245E1],"tree_param":{"num_deleted":"0","num_feature":"418","num_nodes":"11","size_leaf_vector":"1"}},{"base_weights":[1.9385783E-2,-5.5210512E-2,4.3455085E-1,9.018531E-2,1.4701293E-1,-5.5286344E-2,1.4697425E-1],"categories":[],"categories_nodes":[],"categories_segments":[],"categories_sizes":[],"default_left":[0,0,0,0,0,0,0],"id":36,"left_children":[1,-1,3,5,-1,-1,-1],"loss_changes":[3.0967892E2,0E0,2.69463E2,5.0504416E2,0E0,0E0,0E0],"parents":[2147483647,0,0,2,2,3,3],"right_children":[2,-1,4,6,-1,-1,-1],"split_conditions":[1E0,-5.5210512E-2,1.493125E2,3.2E1,1.4701293E-1,-5.5286344E-2,1.4697425E-1],"split_indices":[212,0,411,1,0,0,0],"split_type":[0,0,0,0,0,0,0],"sum_hessian":[1.3032021E3,5.4822253E2,7.549796E2,5.6739E2,1.8758963E2,3.8740796E2,1.7998204E2],"tree_param":{"num_deleted":"0","num_feature":"418","num_nodes":"7","size_leaf_vector":"1"}},{"base_weights":[-2.0052987E-1,1.495206E-1,-3.843139E-1,1.4901714E-1,-4.6079823E-1,-5.2756184E-1,1.4891963E-1,-5.353876E-1,1.3785039E-1,-5.4326475E-1,1.3773768E-1,-5.4953396E-2,-4.923038E-2],"categories":[],"categories_nodes":[],"categories_segments":[],"categories_sizes":[],"default_left":[0,0,0,0,0,0,0,0,0,0,0,0,0],"id":37,"left_children":[1,-1,3,-1,5,7,-1,9,-1,11,-1,-1,-1],"loss_changes":[3.5621204E2,0E0,1.4840782E2,0E0,1.2976727E2,1.5037903E1,0E0,1.5144501E1,0E0,3.3691406E-2,0E0,0E0,0E0],"parents":[2147483647,0,0,2,2,4,4,5,5,7,7,9,9],"right_children":[2,-1,4,-1,6,8,-1,10,-1,12,-1,-1,-1],"split_conditions":[9.72125E1,1.495206E-1,1.2404347E2,1.4901714E-1,4E1,2.2E1,1.4891963E-1,1E0,1.3785039E-1,1.6E1,1.3773768E-1,-5.4953396E-2,-4.923038E-2],"split_indices":[414,0,0,0,382,6,0,217,0,6,0,0,0],"split_type":[0,0,0,0,0,0,0,0,0,0,0,0,0],"sum_hessian":[1.1401467E3,1.10788574E2,1.0293582E3,3.962957E1,9.897286E2,9.576695E2,3.2059082E1,9.5446985E2,3.1996548E0,9.512683E2,3.2015514E0,8.383509E2,1.1291742E2],"tree_param":{"num_deleted":"0","num_feature":"418","num_nodes":"13","size_leaf_vector":"1"}},{"base_weights":[3.5484214E-3,-5.486016E-1,1.4710051E0,-5.5271428E-2,1.2719738E-1,4.7564518E-2,1.473257E-1],"categories":[],"categories_nodes":[],"categories_segments":[],"categories_sizes":[],"default_left":[0,0,0,0,0,0,0],"id":38,"left_children":[1,3,5,-1,-1,-1,-1],"loss_changes":[1.0471814E3,7.734253E0,9.124756E-2,0E0,0E0,0E0,0E0],"parents":[2147483647,0,0,1,1,2,2],"right_children":[2,4,6,-1,-1,-1,-1],"split_conditions":[1E0,1E0,1.05E3,-5.5271428E-2,1.2719738E-1,4.7564518E-2,1.473257E-1],"split_indices":[184,368,379,0,0,0,0],"split_type":[0,0,0,0,0,0,0],"sum_hessian":[1.2904115E3,9.3807465E2,3.5233688E2,9.3665515E2,1.4194802E0,1.2743514E0,3.5106253E2],"tree_param":{"num_deleted":"0","num_feature":"418","num_nodes":"7","size_leaf_vector":"1"}},{"base_weights":[1.9941393E-2,-5.5301785E-2,1.4655755E0,-3.18817E-2,1.4718714E-1],"categories":[],"categories_nodes":[],"categories_segments":[],"categories_sizes":[],"default_left":[0,0,0,0,0],"id":39,"left_children":[1,-1,3,-1,-1],"loss_changes":[1.0821934E3,0E0,4.635498E0,0E0,0E0],"parents":[2147483647,0,0,2,2],"right_children":[2,-1,4,-1,-1],"split_conditions":[1E0,-5.5301785E-2,8E0,-3.18817E-2,1.4718714E-1],"split_indices":[79,0,4,0,0],"split_type":[0,0,0,0,0],"sum_hessian":[1.3045616E3,9.3471594E2,3.698457E2,1.1258274E0,3.6871985E2],"tree_param":{"num_deleted":"0","num_feature":"418","num_nodes":"5","size_leaf_vector":"1"}},{"base_weights":[2.0179601E-2,-5.479895E-2,6.3626754E-1,7.8347987E-1,-5.4067798E-2,-3.3686627E-2,7.872414E-2],"categories":[],"categories_nodes":[],"categories_segments":[],"categories_sizes":[],"default_left":[0,0,0,0,0,0,0],"id":40,"left_children":[1,-1,3,5,-1,-1,-1],"loss_changes":[4.5559595E2,0E0,1.0861214E2,2.6058044E0,0E0,0E0,0E0],"parents":[2147483647,0,0,2,2,3,3],"right_children":[2,-1,4,6,-1,-1,-1],"split_conditions":[5E1,-5.479895E-2,1.4758333E2,1.2404348E2,-5.4067798E-2,-3.3686627E-2,7.872414E-2],"split_indices":[383,0,411,0,0,0,0],"split_type":[0,0,0,0,0,0,0],"sum_hessian":[1.29955E3,6.761246E2,6.2342554E2,5.5441376E2,6.901174E1,1.5588794E0,5.528549E2],"tree_param":{"num_deleted":"0","num_feature":"418","num_nodes":"7","size_leaf_vector":"1"}},{"base_weights":[7.6366775E-2,-5.4732468E-2,2.2812559E-1,8.861426E-2,1.1346527E0,2.66241E-1,-5.4685205E-2,1.2927559E-1,-5.084542E-2,-5.3320367E-2,3.0355608E-1,5.7944304E-1,1.7740415E-1,-4.9989358E-2,6.2880285E-2,-5.4266065E-2,3.1758603E-2],"categories":[],"categories_nodes":[],"categories_segments":[],"categories_sizes":[],"default_left":[0,0,0,0,0,0,0,0,0,0,0,0,0,0,0,0,0],"id":41,"left_children":[1,-1,3,5,7,9,-1,-1,-1,-1,11,13,15,-1,-1,-1,-1],"loss_changes":[1.2790568E2,0E0,1.3731326E2,1.0655356E2,3.828038E1,2.2160423E1,0E0,0E0,0E0,0E0,2.444017E1,1.2079323E1,4.9163773E1,0E0,0E0,0E0,0E0],"parents":[2147483647,0,0,2,2,3,3,4,4,5,5,10,10,11,11,12,12],"right_children":[2,-1,4,6,8,10,-1,-1,-1,-1,12,14,16,-1,-1,-1,-1],"split_conditions":[1E0,-5.4732468E-2,1.5025E2,9.332031E0,1E0,9.72125E1,-5.4685205E-2,1.2927559E-1,-5.084542E-2,-5.3320367E-2,1E0,1E0,1.2404348E2,-4.9989358E-2,6.2880285E-2,-5.4266065E-2,3.1758603E-2],"split_indices":[16,0,417,413,203,414,0,0,0,0,212,234,0,0,0,0,0],"split_type":[0,0,0,0,0,0,0,0,0,0,0,0,0,0,0,0,0],"sum_hessian":[1.3490256E3,2.634998E2,1.0855259E3,9.4169934E2,1.4382646E2,7.3643164E2,2.0526775E2,1.3139645E2,1.2430015E1,3.2248325E1,7.041833E2,2.1983145E2,4.8435184E2,9.21444E0,2.10617E2,7.845991E1,4.0589194E2],"tree_param":{"num_deleted":"0","num_feature":"418","num_nodes":"17","size_leaf_vector":"1"}},{"base_weights":[3.9380994E-3,-5.4890513E-2,1.2938885E-1],"categories":[],"categories_nodes":[],"categories_segments":[],"categories_sizes":[],"default_left":[0,0,0],"id":42,"left_children":[1,-1,-1],"loss_changes":[8.987782E2,0E0,0E0],"parents":[2147483647,0,0],"right_children":[2,-1,-1],"split_conditions":[1.8664062E2,-5.4890513E-2,1.2938885E-1],"split_indices":[411,0,0],"split_type":[0,0,0],"sum_hessian":[1.2583143E3,8.812186E2,3.7709567E2],"tree_param":{"num_deleted":"0","num_feature":"418","num_nodes":"3","size_leaf_vector":"1"}},{"base_weights":[2.754408E-2,3.4928766E-1,-5.4726955E-2,8.238198E-1,1.2073898E-1,-5.1800486E-2,9.05293E-2,-5.422734E-2,2.393791E-1,3.681673E-2,-5.4056555E-2],"categories":[],"categories_nodes":[],"categories_segments":[],"categories_sizes":[],"default_left":[0,0,0,0,0,0,0,0,0,0,0],"id":43,"left_children":[1,3,-1,5,7,-1,-1,-1,9,-1,-1],"loss_changes":[2.4167488E2,9.075805E1,0E0,3.022168E1,4.4698433E1,0E0,0E0,0E0,4.8543888E1,0E0,0E0],"parents":[2147483647,0,0,1,1,3,3,4,4,8,8],"right_children":[2,4,-1,6,8,-1,-1,-1,10,-1,-1],"split_conditions":[9.12E2,1E0,-5.4726955E-2,1E0,5E1,-5.1800486E-2,9.05293E-2,-5.422734E-2,1.4758333E2,3.681673E-2,-5.4056555E-2],"split_indices":[378,212,0,234,383,0,0,0,411,0,0],"split_type":[0,0,0,0,0,0,0,0,0,0,0],"sum_hessian":[1.3047228E3,8.3675415E2,4.6796866E2,2.7115485E2,5.655993E2,1.5214894E1,2.5593994E2,8.530533E1,4.8029395E2,4.1267844E2,6.761551E1],"tree_param":{"num_deleted":"0","num_feature":"418","num_nodes":"11","size_leaf_vector":"1"}},{"base_weights":[1.6522361E-2,-5.480838E-2,4.0168536E-1,8.217822E-2,1.292629E-1,-5.4911017E-2,1.292247E-1],"categories":[],"categories_nodes":[],"categories_segments":[],"categories_sizes":[],"default_left":[0,0,0,0,0,0,0],"id":44,"left_children":[1,-1,3,5,-1,-1,-1],"loss_changes":[2.7643893E2,0E0,2.1500012E2,4.264024E2,0E0,0E0,0E0],"parents":[2147483647,0,0,2,2,3,3],"right_children":[2,-1,4,6,-1,-1,-1],"split_conditions":[1E0,-5.480838E-2,1.493125E2,3.2E1,1.292629E-1,-5.4911017E-2,1.292247E-1],"split_indices":[212,0,411,1,0,0,0],"split_type":[0,0,0,0,0,0,0],"sum_hessian":[1.2691735E3,5.1452057E2,7.5465295E2,5.562608E2,1.9839212E2,3.6591208E2,1.9034877E2],"tree_param":{"num_deleted":"0","num_feature":"418","num_nodes":"7","size_leaf_vector":"1"}},{"base_weights":[-1.9569848E-1,1.3110845E-1,-3.7794352E-1,1.3069472E-1,-4.5507884E-1,-5.2304447E-1,1.3065398E-1,-5.3113526E-1,1.22575715E-1,-5.392866E-1,1.2245613E-1,-5.459371E-2,-4.853029E-2],"categories":[],"categories_nodes":[],"categories_segments":[],"categories_sizes":[],"default_left":[0,0,0,0,0,0,0,0,0,0,0,0,0],"id":45,"left_children":[1,-1,3,-1,5,7,-1,9,-1,11,-1,-1,-1],"loss_changes":[3.017003E2,0E0,1.278685E2,0E0,1.1288991E2,1.342868E1,0E0,1.3535004E1,0E0,5.6762695E-2,0E0,0E0,0E0],"parents":[2147483647,0,0,2,2,4,4,5,5,7,7,9,9],"right_children":[2,-1,4,-1,6,8,-1,10,-1,12,-1,-1,-1],"split_conditions":[9.72125E1,1.3110845E-1,1.2404347E2,1.3069472E-1,4E1,2.2E1,1.3065398E-1,1E0,1.22575715E-1,1.6E1,1.2245613E-1,-5.459371E-2,-4.853029E-2],"split_indices":[414,0,0,0,382,6,0,217,0,6,0,0,0],"split_type":[0,0,0,0,0,0,0,0,0,0,0,0,0],"sum_hessian":[1.0958707E3,1.17575424E2,9.7829535E2,4.2128387E1,9.3616693E2,9.020671E2,3.409988E1,8.98606E2,3.4610887E0,8.951428E2,3.4631498E0,7.8884863E2,1.0629423E2],"tree_param":{"num_deleted":"0","num_feature":"418","num_nodes":"13","size_leaf_vector":"1"}},{"base_weights":[1.4141054E-3,-5.445583E-1,1.2929326E0,-5.4885566E-2,1.1542483E-1,4.3698676E-2,1.2948006E-1],"categories":[],"categories_nodes":[],"categories_segments":[],"categories_sizes":[],"default_left":[0,0,0,0,0,0,0],"id":46,"left_children":[1,3,5,-1,-1,-1,-1],"loss_changes":[8.8668317E2,7.0859375E0,3.161621E-2,0E0,0E0,0E0,0E0],"parents":[2147483647,0,0,1,1,2,2],"right_children":[2,4,6,-1,-1,-1,-1],"split_conditions":[1E0,1E0,1.05E3,-5.4885566E-2,1.1542483E-1,4.3698676E-2,1.2948006E-1],"split_indices":[184,368,379,0,0,0,0],"split_type":[0,0,0,0,0,0,0],"sum_hessian":[1.2554701E3,8.828396E2,3.7263046E2,8.812872E2,1.5524212E0,1.3230772E0,3.7130737E2],"tree_param":{"num_deleted":"0","num_feature":"418","num_nodes":"7","size_leaf_vector":"1"}},{"base_weights":[1.7008591E-2,-5.4913934E-2,1.2887833E0,-3.1406876E-2,1.294109E-1],"categories":[],"categories_nodes":[],"categories_segments":[],"categories_sizes":[],"default_left":[0,0,0,0,0],"id":47,"left_children":[1,-1,3,-1,-1],"loss_changes":[9.162259E2,0E0,3.7523193E0,0E0,0E0],"parents":[2147483647,0,0,2,2],"right_children":[2,-1,4,-1,-1],"split_conditions":[1E0,-5.4913934E-2,8E0,-3.1406876E-2,1.294109E-1],"split_indices":[79,0,4,0,0],"split_type":[0,0,0,0,0],"sum_hessian":[1.2705308E3,8.7955365E2,3.9097714E2,1.1027446E0,3.898744E2],"tree_param":{"num_deleted":"0","num_feature":"418","num_nodes":"5","size_leaf_vector":"1"}},{"base_weights":[2.1544922E-2,-5.4422434E-2,5.746115E-1,6.98274E-1,-5.3641606E-2,-3.285873E-2,7.014556E-2],"categories":[],"categories_nodes":[],"categories_segments":[],"categories_sizes":[],"default_left":[0,0,0,0,0,0,0],"id":48,"left_children":[1,-1,3,5,-1,-1,-1],"loss_changes":[4.0130212E2,0E0,8.947458E1,2.1384277E0,0E0,0E0,0E0],"parents":[2147483647,0,0,2,2,3,3],"right_children":[2,-1,4,6,-1,-1,-1],"split_conditions":[5E1,-5.4422434E-2,1.4758333E2,1.2404348E2,-5.3641606E-2,-3.285873E-2,7.014556E-2],"split_indices":[383,0,411,0,0,0,0],"split_type":[0,0,0,0,0,0,0],"sum_hessian":[1.2804928E3,6.3298535E2,6.475075E2,5.829896E2,6.451793E1,1.4848163E0,5.8150476E2],"tree_param":{"num_deleted":"0","num_feature":"418","num_nodes":"7","size_leaf_vector":"1"}},{"base_weights":[7.548141E-2,-5.432998E-2,2.1612836E-1,8.771095E-2,1.0264918E0,2.5024915E-1,-5.4280072E-2,1.16024934E-1,-5.025178E-2,-5.2839912E-2,2.837463E-1,5.2718663E-1,1.6909477E-1,-4.9485356E-2,5.700437E-2,-5.3836923E-2,2.9521545E-2],"categories":[],"categories_nodes":[],"categories_segments":[],"categories_sizes":[],"default_left":[0,0,0,0,0,0,0,0,0,0,0,0,0,0,0,0,0],"id":49,"left_children":[1,-1,3,5,7,9,-1,-1,-1,-1,11,13,15,-1,-1,-1,-1],"loss_changes":[1.1614743E2,0E0,1.1303087E2,9.640985E1,3.0974731E1,1.9648403E1,0E0,0E0,0E0,0E0,1.9933659E1,1.0322117E1,4.3805523E1,0E0,0E0,0E0,0E0],"parents":[2147483647,0,0,2,2,3,3,4,4,5,5,10,10,11,11,12,12],"right_children":[2,-1,4,6,8,10,-1,-1,-1,-1,12,14,16,-1,-1,-1,-1],"split_conditions":[1E0,-5.432998E-2,1.5025E2,9.332031E0,1E0,9.72125E1,-5.4280072E-2,1.16024934E-1,-5.025178E-2,-5.2839912E-2,1E0,1E0,1.2404348E2,-4.9485356E-2,5.700437E-2,-5.3836923E-2,2.9521545E-2],"split_indices":[16,0,417,413,203,414,0,0,0,0,212,234,0,0,0,0,0],"split_type":[0,0,0,0,0,0,0,0,0,0,0,0,0,0,0,0,0],"sum_hessian":[1.3322231E3,2.4619904E2,1.0860242E3,9.384217E2,1.4760245E2,7.465686E2,1.9185313E2,1.3595067E2,1.1651781E1,3.018306E1,7.163855E2,2.2821567E2,4.8816986E2,8.760148E0,2.194555E2,7.336515E1,4.1480472E2],"tree_param":{"num_deleted":"0","num_feature":"418","num_nodes":"17","size_leaf_vector":"1"}},{"base_weights":[1.4751351E-3,-5.4529823E-2,1.1602682E-1],"categories":[],"categories_nodes":[],"categories_segments":[],"categories_sizes":[],"default_left":[0,0,0],"id":50,"left_children":[1,-1,-1],"loss_changes":[7.730928E2,0E0,0E0],"parents":[2147483647,0,0],"right_children":[2,-1,-1],"split_conditions":[1.8664062E2,-5.4529823E-2,1.1602682E-1],"split_indices":[411,0,0],"split_type":[0,0,0],"sum_hessian":[1.2181658E3,8.2800385E2,3.9016196E2],"tree_param":{"num_deleted":"0","num_feature":"418","num_nodes":"3","size_leaf_vector":"1"}},{"base_weights":[2.9707465E-2,3.2462955E-1,-5.433869E-2,7.3625034E-1,1.1726246E-1,-5.1321965E-2,8.045329E-2,-5.3809594E-2,2.2555912E-1,3.4029033E-2,-5.362885E-2],"categories":[],"categories_nodes":[],"categories_segments":[],"categories_sizes":[],"default_left":[0,0,0,0,0,0,0,0,0,0,0],"id":51,"left_children":[1,3,-1,5,7,-1,-1,-1,9,-1,-1],"loss_changes":[2.1798119E2,7.258928E1,0E0,2.4732483E1,4.0390488E1,0E0,0E0,0E0,4.2804855E1,0E0,0E0],"parents":[2147483647,0,0,1,1,3,3,4,4,8,8],"right_children":[2,4,-1,6,8,-1,-1,-1,10,-1,-1],"split_conditions":[9.12E2,1E0,-5.433869E-2,1E0,5E1,-5.1321965E-2,8.045329E-2,-5.3809594E-2,1.4758333E2,3.4029033E-2,-5.362885E-2],"split_indices":[378,212,0,234,383,0,0,0,411,0,0],"split_type":[0,0,0,0,0,0,0,0,0,0,0],"sum_hessian":[1.2876471E3,8.504352E2,4.3721188E2,2.840498E2,5.663854E2,1.4381074E1,2.6966873E2,7.9758316E1,4.8662708E2,4.2341568E2,6.3211388E1],"tree_param":{"num_deleted":"0","num_feature":"418","num_nodes":"11","size_leaf_vector":"1"}},{"base_weights":[1.3604004E-2,-5.443127E-2,3.735621E-1,7.451891E-2,1.1592914E-1,-5.4560672E-2,1.1589443E-1],"categories":[],"categories_nodes":[],"categories_segments":[],"categories_sizes":[],"default_left":[0,0,0,0,0,0,0],"id":52,"left_children":[1,-1,3,5,-1,-1,-1],"loss_changes":[2.473418E2,0E0,1.758096E2,3.6598972E2,0E0,0E0,0E0],"parents":[2147483647,0,0,2,2,3,3],"right_children":[2,-1,4,6,-1,-1,-1],"split_conditions":[1E0,-5.443127E-2,1.493125E2,3.2E1,1.1592914E-1,-5.4560672E-2,1.1589443E-1],"split_indices":[212,0,411,1,0,0,0],"split_type":[0,0,0,0,0,0,0],"sum_hessian":[1.2296061E3,4.8200723E2,7.475988E2,5.422985E2,2.0530028E2,3.4532324E2,1.9697528E2],"tree_param":{"num_deleted":"0","num_feature":"418","num_nodes":"7","size_leaf_vector":"1"}},{"base_weights":[-1.9159421E-1,1.1733719E-1,-3.7217203E-1,1.1694484E-1,-4.4977623E-1,-5.187479E-1,1.1692023E-1,-5.270903E-1,1.1042555E-1,-5.355014E-1,1.10258006E-1,-5.4257073E-2,-4.7817625E-2],"categories":[],"categories_nodes":[],"categories_segments":[],"categories_sizes":[],"default_left":[0,0,0,0,0,0,0,0,0,0,0,0,0],"id":53,"left_children":[1,-1,3,-1,5,7,-1,9,-1,11,-1,-1,-1],"loss_changes":[2.5942865E2,0E0,1.11637314E2,0E0,9.942378E1,1.2083801E1,0E0,1.2184326E1,0E0,8.1848145E-2,0E0,0E0,0E0],"parents":[2147483647,0,0,2,2,4,4,5,5,7,7,9,9],"right_children":[2,-1,4,-1,6,8,-1,10,-1,12,-1,-1,-1],"split_conditions":[9.72125E1,1.1733719E-1,1.2404347E2,1.1694484E-1,4E1,2.2E1,1.1692023E-1,1E0,1.1042555E-1,1.6E1,1.10258006E-1,-5.4257073E-2,-4.7817625E-2],"split_indices":[414,0,0,0,382,6,0,217,0,6,0,0,0],"split_type":[0,0,0,0,0,0,0,0,0,0,0,0,0],"sum_hessian":[1.0497515E3,1.2200821E2,9.277433E2,4.378943E1,8.8395386E2,8.484862E2,3.5467617E1,8.4481903E2,3.6671982E0,8.411491E2,3.6699522E0,7.412709E2,9.987823E1],"tree_param":{"num_deleted":"0","num_feature":"418","num_nodes":"13","size_leaf_vector":"1"}},{"base_weights":[-8.5633976E-4,-5.4076755E-1,1.1593163E0,-5.4525007E-2,1.0541438E-1,4.0465724E-2,1.16093315E-1],"categories":[],"categories_nodes":[],"categories_segments":[],"categories_sizes":[],"default_left":[0,0,0,0,0,0,0],"id":54,"left_children":[1,3,5,-1,-1,-1,-1],"loss_changes":[7.6249347E2,6.513626E0,1.953125E-3,0E0,0E0,0E0,0E0],"parents":[2147483647,0,0,1,1,2,2],"right_children":[2,4,6,-1,-1,-1,-1],"split_conditions":[1E0,1E0,1.05E3,-5.4525007E-2,1.0541438E-1,4.0465724E-2,1.16093315E-1],"split_indices":[184,368,379,0,0,0,0],"split_type":[0,0,0,0,0,0,0],"sum_hessian":[1.2152812E3,8.296976E2,3.8558365E2,8.280285E2,1.6690544E0,1.3615422E0,3.842221E2],"tree_param":{"num_deleted":"0","num_feature":"418","num_nodes":"7","size_leaf_vector":"1"}},{"base_weights":[1.4038196E-2,-5.455151E-2,1.1560036E0,-3.0894792E-2,1.16067246E-1],"categories":[],"categories_nodes":[],"categories_segments":[],"categories_sizes":[],"default_left":[0,0,0,0,0],"id":55,"left_children":[1,-1,3,-1,-1],"loss_changes":[7.8782275E2,0E0,3.1316528E0,0E0,0E0],"parents":[2147483647,0,0,2,2],"right_children":[2,-1,4,-1,-1],"split_conditions":[1E0,-5.455151E-2,8E0,-3.0894792E-2,1.16067246E-1],"split_indices":[79,0,4,0,0],"split_type":[0,0,0,0,0],"sum_hessian":[1.230931E3,8.264835E2,4.0444754E2,1.0778443E0,4.033697E2],"tree_param":{"num_deleted":"0","num_feature":"418","num_nodes":"5","size_leaf_vector":"1"}},{"base_weights":[2.3019435E-2,-5.4069877E-2,5.2196205E-1,6.270026E-1,-5.323428E-2,-3.2021087E-2,6.297305E-2],"categories":[],"categories_nodes":[],"categories_segments":[],"categories_sizes":[],"default_left":[0,0,0,0,0,0,0],"id":56,"left_children":[1,-1,3,5,-1,-1,-1],"loss_changes":[3.5491806E2,0E0,7.446321E1,1.7757416E0,0E0,0E0,0E0],"parents":[2147483647,0,0,2,2,3,3],"right_children":[2,-1,4,6,-1,-1,-1],"split_conditions":[5E1,-5.4069877E-2,1.4758333E2,1.2404348E2,-5.323428E-2,-3.2021087E-2,6.297305E-2],"split_indices":[383,0,411,0,0,0,0],"split_type":[0,0,0,0,0,0,0],"sum_hessian":[1.2598689E3,5.914968E2,6.683721E2,6.081839E2,6.0188152E1,1.412291E0,6.067716E2],"tree_param":{"num_deleted":"0","num_feature":"418","num_nodes":"7","size_leaf_vector":"1"}},{"base_weights":[7.4986465E-2,-5.3951163E-2,2.0554557E-1,8.719857E-2,9.412694E-1,2.3603857E-1,-5.3898025E-2,1.0573842E-1,-4.9660742E-2,-5.2373588E-2,2.6617202E-1,4.824419E-1,1.6167209E-1,-4.898878E-2,5.1999874E-2,-5.3427856E-2,2.7529016E-2],"categories":[],"categories_nodes":[],"categories_segments":[],"categories_sizes":[],"default_left":[0,0,0,0,0,0,0,0,0,0,0,0,0,0,0,0,0],"id":57,"left_children":[1,-1,3,5,7,9,-1,-1,-1,-1,11,13,15,-1,-1,-1,-1],"loss_changes":[1.0553181E2,0E0,9.4344055E1,8.729803E1,2.559758E1,1.7456394E1,0E0,0E0,0E0,0E0,1.6379147E1,8.899315E0,3.908738E1,0E0,0E0,0E0,0E0],"parents":[2147483647,0,0,2,2,3,3,4,4,5,5,10,10,11,11,12,12],"right_children":[2,-1,4,6,8,10,-1,-1,-1,-1,12,14,16,-1,-1,-1,-1],"split_conditions":[1E0,-5.3951163E-2,1.5025E2,9.332031E0,1E0,9.72125E1,-5.3898025E-2,1.0573842E-1,-4.9660742E-2,-5.2373588E-2,1E0,1E0,1.2404348E2,-4.898878E-2,5.1999874E-2,-5.3427856E-2,2.7529016E-2],"split_indices":[16,0,417,413,203,414,0,0,0,0,212,234,0,0,0,0,0],"split_type":[0,0,0,0,0,0,0,0,0,0,0,0,0,0,0,0,0],"sum_hessian":[1.3130112E3,2.295349E2,1.0834763E3,9.3430457E2,1.4917177E2,7.553776E2,1.7892694E2,1.3827046E2,1.0901312E1,2.8191315E1,7.271863E2,2.3572351E2,4.914628E2,8.318449E0,2.2740506E2,6.8454216E1,4.2300858E2],"tree_param":{"num_deleted":"0","num_feature":"418","num_nodes":"17","size_leaf_vector":"1"}},{"base_weights":[-1.115434E-3,-5.4193236E-2,1.0566788E-1],"categories":[],"categories_nodes":[],"categories_segments":[],"categories_sizes":[],"default_left":[0,0,0],"id":58,"left_children":[1,-1,-1],"loss_changes":[6.7259717E2,0E0,0E0],"parents":[2147483647,0,0],"right_children":[2,-1,-1],"split_conditions":[1.8664062E2,-5.4193236E-2,1.0566788E-1],"split_indices":[411,0,0],"split_type":[0,0,0],"sum_hessian":[1.173718E3,7.769669E2,3.9675107E2],"tree_param":{"num_deleted":"0","num_feature":"418","num_nodes":"3","size_leaf_vector":"1"}},{"base_weights":[3.2039553E-2,3.0282038E-1,-5.3973954E-2,6.63377E-1,1.1429218E-1,-5.085334E-2,7.2150044E-2,-5.341158E-2,2.1319264E-1,3.156281E-2,-5.3219974E-2],"categories":[],"categories_nodes":[],"categories_segments":[],"categories_sizes":[],"default_left":[0,0,0,0,0,0,0,0,0,0,0],"id":59,"left_children":[1,3,-1,5,7,-1,-1,-1,9,-1,-1],"loss_changes":[1.968311E2,5.8563194E1,0E0,2.0527985E1,3.651735E1,0E0,0E0,0E0,3.78305E1,0E0,0E0],"parents":[2147483647,0,0,1,1,3,3,4,4,8,8],"right_children":[2,4,-1,6,8,-1,-1,-1,10,-1,-1],"split_conditions":[9.12E2,1E0,-5.3973954E-2,1E0,5E1,-5.085334E-2,7.2150044E-2,-5.341158E-2,1.4758333E2,3.156281E-2,-5.3219974E-2],"split_indices":[378,212,0,234,383,0,0,0,411,0,0],"split_type":[0,0,0,0,0,0,0,0,0,0,0],"sum_hessian":[1.2692428E3,8.6165436E2,4.0758838E2,2.9498413E2,5.666703E2,1.3572851E1,2.8141125E2,7.4412025E1,4.9225824E2,4.3329E2,5.8968246E1],"tree_param":{"num_deleted":"0","num_feature":"418","num_nodes":"11","size_leaf_vector":"1"}},{"base_weights":[1.0614321E-2,-5.407822E-2,3.4914017E-1,6.711256E-2,1.0558553E-1,-5.423373E-2,1.0555285E-1],"categories":[],"categories_nodes":[],"categories_segments":[],"categories_sizes":[],"default_left":[0,0,0,0,0,0,0],"id":60,"left_children":[1,-1,3,5,-1,-1,-1],"loss_changes":[2.2167274E2,0E0,1.4658289E2,3.180236E2,0E0,0E0,0E0],"parents":[2147483647,0,0,2,2,3,3],"right_children":[2,-1,4,6,-1,-1,-1],"split_conditions":[1E0,-5.407822E-2,1.493125E2,3.2E1,1.0558553E-1,-5.423373E-2,1.0555285E-1],"split_indices":[212,0,411,1,0,0,0],"split_type":[0,0,0,0,0,0,0],"sum_hessian":[1.1855509E3,4.5075546E2,7.347955E2,5.25986E2,2.088094E2,3.256463E2,2.0033975E2],"tree_param":{"num_deleted":"0","num_feature":"418","num_nodes":"7","size_leaf_vector":"1"}},{"base_weights":[-1.8815373E-1,1.0668401E-1,-3.6696458E-1,1.0627996E-1,-4.4487074E-1,-5.1466215E-1,1.0625602E-1,-5.2324116E-1,1.0054679E-1,-5.318965E-1,1.003451E-1,-5.39424E-2,-4.7089707E-2],"categories":[],"categories_nodes":[],"categories_segments":[],"categories_sizes":[],"default_left":[0,0,0,0,0,0,0,0,0,0,0,0,0],"id":61,"left_children":[1,-1,3,-1,5,7,-1,9,-1,11,-1,-1,-1],"loss_changes":[2.2554866E2,0E0,9.837807E1,0E0,8.831447E1,1.093309E1,0E0,1.1028046E1,0E0,1.0890198E-1,0E0,0E0,0E0],"parents":[2147483647,0,0,2,2,4,4,5,5,7,7,9,9],"right_children":[2,-1,4,-1,6,8,-1,10,-1,12,-1,-1,-1],"split_conditions":[9.72125E1,1.0668401E-1,1.2404347E2,1.0627996E-1,4E1,2.2E1,1.0625602E-1,1E0,1.0054679E-1,1.6E1,1.003451E-1,-5.39424E-2,-4.7089707E-2],"split_indices":[414,0,0,0,382,6,0,217,0,6,0,0,0],"split_type":[0,0,0,0,0,0,0,0,0,0,0,0,0],"sum_hessian":[1.0023452E3,1.24383865E2,8.779613E2,4.471383E1,8.332475E2,7.970061E2,3.6241394E1,7.931855E2,3.820646E0,7.8936194E2,3.8235273E0,6.956706E2,9.369137E1],"tree_param":{"num_deleted":"0","num_feature":"418","num_nodes":"13","size_leaf_vector":"1"}},{"base_weights":[-3.2735274E-3,-5.3721803E-1,1.0557051E-1,-5.418854E-2,9.686275E-2],"categories":[],"categories_nodes":[],"categories_segments":[],"categories_sizes":[],"default_left":[0,0,0,0,0],"id":62,"left_children":[1,3,-1,-1,-1],"loss_changes":[6.6318054E2,6.0049896E0,0E0,0E0,0E0],"parents":[2147483647,0,0,1,1],"right_children":[2,4,-1,-1,-1],"split_conditions":[1E0,1E0,1.0557051E-1,-5.418854E-2,9.686275E-2],"split_indices":[184,368,0,0,0],"split_type":[0,0,0,0,0],"sum_hessian":[1.170863E3,7.787197E2,3.9214328E2,7.769517E2,1.768006E0],"tree_param":{"num_deleted":"0","num_feature":"418","num_nodes":"5","size_leaf_vector":"1"}},{"base_weights":[1.1011408E-2,-5.4213334E-2,1.0530037E0,-3.0351764E-2,1.0572107E-1],"categories":[],"categories_nodes":[],"categories_segments":[],"categories_sizes":[],"default_left":[0,0,0,0,0],"id":63,"left_children":[1,-1,3,-1,-1],"loss_changes":[6.8520105E2,0E0,2.673462E0,0E0,0E0],"parents":[2147483647,0,0,2,2],"right_children":[2,-1,4,-1,-1],"split_conditions":[1E0,-5.4213334E-2,8E0,-3.0351764E-2,1.0572107E-1],"split_indices":[79,0,4,0,0],"split_type":[0,0,0,0,0],"sum_hessian":[1.1868258E3,7.755842E2,4.112415E2,1.051459E0,4.1019003E2],"tree_param":{"num_deleted":"0","num_feature":"418","num_nodes":"5","size_leaf_vector":"1"}},{"base_weights":[2.4559643E-2,-5.3740274E-2,4.764033E-1,5.664206E-1,-5.2844573E-2,-3.1174952E-2,5.6878537E-2],"categories":[],"categories_nodes":[],"categories_segments":[],"categories_sizes":[],"default_left":[0,0,0,0,0,0,0],"id":64,"left_children":[1,-1,3,5,-1,-1,-1],"loss_changes":[3.1489627E2,0E0,6.247682E1,1.4884338E0,0E0,0E0,0E0],"parents":[2147483647,0,0,2,2,3,3],"right_children":[2,-1,4,6,-1,-1,-1],"split_conditions":[5E1,-5.3740274E-2,1.4758333E2,1.2404348E2,-5.2844573E-2,-3.1174952E-2,5.6878537E-2],"split_indices":[383,0,411,0,0,0,0],"split_type":[0,0,0,0,0,0,0],"sum_hessian":[1.2381356E3,5.5174084E2,6.8639484E2,6.303615E2,5.6033325E1,1.3415277E0,6.2902E2],"tree_param":{"num_deleted":"0","num_feature":"418","num_nodes":"7","size_leaf_vector":"1"}},{"base_weights":[7.481409E-2,-5.3595003E-2,1.9614324E-1,8.6986385E-2,8.727135E-1,2.2333033E-1,-5.3537924E-2,9.756088E-2,-4.907019E-2,-5.1919755E-2,2.5048202E-1,4.4372323E-1,1.5499575E-1,-4.8499655E-2,4.7689315E-2,-5.3037643E-2,2.574488E-2],"categories":[],"categories_nodes":[],"categories_segments":[],"categories_sizes":[],"default_left":[0,0,0,0,0,0,0,0,0,0,0,0,0,0,0,0,0],"id":65,"left_children":[1,-1,3,5,7,9,-1,-1,-1,-1,11,13,15,-1,-1,-1,-1],"loss_changes":[9.591783E1,0E0,7.964094E1,7.908327E1,2.150045E1,1.5533813E1,0E0,0E0,0E0,0E0,1.3544357E1,7.73098E0,3.491658E1,0E0,0E0,0E0,0E0],"parents":[2147483647,0,0,2,2,3,3,4,4,5,5,10,10,11,11,12,12],"right_children":[2,-1,4,6,8,10,-1,-1,-1,-1,12,14,16,-1,-1,-1,-1],"split_conditions":[1E0,-5.3595003E-2,1.5025E2,9.332031E0,1E0,9.72125E1,-5.3537924E-2,9.756088E-2,-4.907019E-2,-5.1919755E-2,1E0,1E0,1.2404348E2,-4.8499655E-2,4.7689315E-2,-5.3037643E-2,2.574488E-2],"split_indices":[16,0,417,413,203,414,0,0,0,0,212,234,0,0,0,0,0],"split_type":[0,0,0,0,0,0,0,0,0,0,0,0,0,0,0,0,0],"sum_hessian":[1.2919581E3,2.135487E2,1.0784094E3,9.295636E2,1.4884586E2,7.6304224E2,1.6652133E2,1.3866539E2,1.0180472E1,2.6278254E1,7.36764E2,2.4245216E2,4.9431183E2,7.891025E0,2.3456113E2,6.3739815E1,4.3057202E2],"tree_param":{"num_deleted":"0","num_feature":"418","num_nodes":"17","size_leaf_vector":"1"}},{"base_weights":[-3.837312E-3,-5.3879548E-2,9.7434886E-2],"categories":[],"categories_nodes":[],"categories_segments":[],"categories_sizes":[],"default_left":[0,0,0],"id":66,"left_children":[1,-1,-1],"loss_changes":[5.902401E2,0E0,0E0],"parents":[2147483647,0,0],"right_children":[2,-1,-1],"split_conditions":[1.8664062E2,-5.3879548E-2,9.7434886E-2],"split_indices":[411,0,0],"split_type":[0,0,0],"sum_hessian":[1.1259404E3,7.2816504E2,3.9777542E2],"tree_param":{"num_deleted":"0","num_feature":"418","num_nodes":"3","size_leaf_vector":"1"}},{"base_weights":[3.448545E-2,2.833736E-1,-5.363182E-2,6.016558E-1,1.1172634E-1,-5.0391447E-2,6.517355E-2,-5.303215E-2,2.0206022E-1,2.9367834E-2,-5.282865E-2],"categories":[],"categories_nodes":[],"categories_segments":[],"categories_sizes":[],"default_left":[0,0,0,0,0,0,0,0,0,0,0],"id":67,"left_children":[1,3,-1,5,7,-1,-1,-1,9,-1,-1],"loss_changes":[1.7786583E2,4.755851E1,0E0,1.7225838E1,3.30249E1,0E0,0E0,0E0,3.3496563E1,0E0,0E0],"parents":[2147483647,0,0,1,1,3,3,4,4,8,8],"right_children":[2,4,-1,6,8,-1,-1,-1,10,-1,-1],"split_conditions":[9.12E2,1E0,-5.363182E-2,1E0,5E1,-5.0391447E-2,6.517355E-2,-5.303215E-2,1.4758333E2,2.9367834E-2,-5.282865E-2],"split_indices":[378,212,0,234,383,0,0,0,411,0,0],"split_type":[0,0,0,0,0,0,0,0,0,0,0],"sum_hessian":[1.2499222E3,8.7075116E2,3.7917105E2,3.0419086E2,5.665603E2,1.278931E1,2.9140152E2,6.928027E1,4.9728006E2,4.423833E2,5.4896748E1],"tree_param":{"num_deleted":"0","num_feature":"418","num_nodes":"11","size_leaf_vector":"1"}},{"base_weights":[7.542874E-3,-5.374813E-2,3.2765198E-1,5.9887752E-2,9.7360276E-2,-5.3928703E-2,9.732877E-2],"categories":[],"categories_nodes":[],"categories_segments":[],"categories_sizes":[],"default_left":[0,0,0,0,0,0,0],"id":68,"left_children":[1,-1,3,5,-1,-1,-1],"loss_changes":[1.9889404E2,0E0,1.2415949E2,2.7897375E2,0E0,0E0,0E0],"parents":[2147483647,0,0,2,2,3,3],"right_children":[2,-1,4,6,-1,-1,-1],"split_conditions":[1E0,-5.374813E-2,1.493125E2,3.2E1,9.7360276E-2,-5.3928703E-2,9.732877E-2],"split_indices":[212,0,411,1,0,0,0],"split_type":[0,0,0,0,0,0,0],"sum_hessian":[1.1379988E3,4.2082117E2,7.171776E2,5.0778113E2,2.0939645E2,3.0688162E2,2.0089954E2],"tree_param":{"num_deleted":"0","num_feature":"418","num_nodes":"7","size_leaf_vector":"1"}},{"base_weights":[-1.8531649E-1,9.823027E-2,-3.6228538E-1,9.77977E-2,-4.403414E-1,-5.1077557E-1,9.776619E-2,-5.1957583E-1,9.238707E-2,-5.2845895E-1,9.2160486E-2,-5.3648632E-2,-4.6343267E-2],"categories":[],"categories_nodes":[],"categories_segments":[],"categories_sizes":[],"default_left":[0,0,0,0,0,0,0,0,0,0,0,0,0],"id":69,"left_children":[1,-1,3,-1,5,7,-1,9,-1,11,-1,-1,-1],"loss_changes":[1.9772615E2,0E0,8.728152E1,0E0,7.8921036E1,9.932419E0,0E0,1.00217285E1,0E0,1.3807678E-1,0E0,0E0,0E0],"parents":[2147483647,0,0,2,2,4,4,5,5,7,7,9,9],"right_children":[2,-1,4,-1,6,8,-1,10,-1,12,-1,-1,-1],"split_conditions":[9.72125E1,9.823027E-2,1.2404347E2,9.77977E-2,4E1,2.2E1,9.776619E-2,1E0,9.238707E-2,1.6E1,9.2160486E-2,-5.3648632E-2,-4.6343267E-2],"split_indices":[414,0,0,0,382,6,0,217,0,6,0,0,0],"split_type":[0,0,0,0,0,0,0,0,0,0,0,0,0],"sum_hessian":[9.5417633E2,1.2498564E2,8.2919073E2,4.499936E1,7.8419135E2,7.4769226E2,3.6499104E1,7.4376776E2,3.9244876E0,7.398408E2,3.9269187E0,6.520915E2,8.774934E1],"tree_param":{"num_deleted":"0","num_feature":"418","num_nodes":"13","size_leaf_vector":"1"}},{"base_weights":[-5.857912E-3,-5.3389907E-1,9.7323006E-1,-5.3875025E-2,8.9514576E-2,3.242672E-2,9.747877E-2],"categories":[],"categories_nodes":[],"categories_segments":[],"categories_sizes":[],"default_left":[0,0,0,0,0,0,0],"id":70,"left_children":[1,3,5,-1,-1,-1,-1],"loss_changes":[5.8172815E2,5.549713E0,8.236694E-2,0E0,0E0,0E0,0E0],"parents":[2147483647,0,0,1,1,2,2],"right_children":[2,4,6,-1,-1,-1,-1],"split_conditions":[1E0,1E0,1.05E3,-5.3875025E-2,8.9514576E-2,3.242672E-2,9.747877E-2],"split_indices":[184,368,379,0,0,0,0],"split_type":[0,0,0,0,0,0,0],"sum_hessian":[1.1231971E3,7.299667E2,3.932305E2,7.281179E2,1.8487328E0,1.4424396E0,3.9178806E2],"tree_param":{"num_deleted":"0","num_feature":"418","num_nodes":"7","size_leaf_vector":"1"}},{"base_weights":[7.915803E-3,-5.3898193E-2,9.71099E-1,-2.9783586E-2,9.7497284E-2],"categories":[],"categories_nodes":[],"categories_segments":[],"categories_sizes":[],"default_left":[0,0,0,0,0],"id":71,"left_children":[1,-1,3,-1,-1],"loss_changes":[6.0114594E2,0E0,2.321991E0,0E0,0E0],"parents":[2147483647,0,0,2,2],"right_children":[2,-1,4,-1,-1],"split_conditions":[1E0,-5.3898193E-2,8E0,-2.9783586E-2,9.7497284E-2],"split_indices":[79,0,4,0,0],"split_type":[0,0,0,0,0],"sum_hessian":[1.1392147E3,7.269125E2,4.1230222E2,1.0239037E0,4.1127832E2],"tree_param":{"num_deleted":"0","num_feature":"418","num_nodes":"5","size_leaf_vector":"1"}},{"base_weights":[2.6117865E-2,-5.3432822E-2,4.365365E-1,5.142345E-1,-5.2471142E-2,-3.03219E-2,5.1630296E-2],"categories":[],"categories_nodes":[],"categories_segments":[],"categories_sizes":[],"default_left":[0,0,0,0,0,0,0],"id":72,"left_children":[1,-1,3,5,-1,-1,-1],"loss_changes":[2.800982E2,0E0,5.2768463E1,1.2570496E0,0E0,0E0,0E0],"parents":[2147483647,0,0,2,2,3,3],"right_children":[2,-1,4,6,-1,-1,-1],"split_conditions":[5E1,-5.3432822E-2,1.4758333E2,1.2404348E2,-5.2471142E-2,-3.03219E-2,5.1630296E-2],"split_indices":[383,0,411,0,0,0,0],"split_type":[0,0,0,0,0,0,0],"sum_hessian":[1.2157113E3,5.1379626E2,7.0191504E2,6.498523E2,5.206276E1,1.2727401E0,6.485796E2],"tree_param":{"num_deleted":"0","num_feature":"418","num_nodes":"7","size_leaf_vector":"1"}},{"base_weights":[7.489058E-2,-5.3260464E-2,1.8771425E-1,8.698878E-2,8.1652486E-1,2.1189198E-1,-5.319896E-2,9.092359E-2,-4.8477992E-2,-5.1476695E-2,2.3638727E-1,4.0990835E-1,1.489446E-1,-4.801799E-2,4.394006E-2,-5.266499E-2,2.4139306E-2],"categories":[],"categories_nodes":[],"categories_segments":[],"categories_sizes":[],"default_left":[0,0,0,0,0,0,0,0,0,0,0,0,0,0,0,0,0],"id":73,"left_children":[1,-1,3,5,7,9,-1,-1,-1,-1,11,13,15,-1,-1,-1,-1],"loss_changes":[8.718701E1,0E0,6.7847336E1,7.165714E1,1.828843E1,1.3840439E1,0E0,0E0,0E0,0E0,1.1262367E1,6.760269E0,3.1217968E1,0E0,0E0,0E0,0E0],"parents":[2147483647,0,0,2,2,3,3,4,4,5,5,10,10,11,11,12,12],"right_children":[2,-1,4,6,8,10,-1,-1,-1,-1,12,14,16,-1,-1,-1,-1],"split_conditions":[1E0,-5.3260464E-2,1.5025E2,9.332031E0,1E0,9.72125E1,-5.319896E-2,9.092359E-2,-4.8477992E-2,-5.1476695E-2,1E0,1E0,1.2404348E2,-4.801799E-2,4.394006E-2,-5.266499E-2,2.4139306E-2],"split_indices":[16,0,417,413,203,414,0,0,0,0,212,234,0,0,0,0,0],"split_type":[0,0,0,0,0,0,0,0,0,0,0,0,0,0,0,0,0],"sum_hessian":[1.2696046E3,1.9827562E2,1.071329E3,9.243941E2,1.469349E2,7.6972876E2,1.5466534E2,1.3744405E2,9.490865E0,2.4448317E1,7.4528046E2,2.4848985E2,4.967906E2,7.47931E0,2.4101054E2,5.9232773E1,4.3755783E2],"tree_param":{"num_deleted":"0","num_feature":"418","num_nodes":"17","size_leaf_vector":"1"}},{"base_weights":[-6.6989725E-3,-5.358773E-2,9.07628E-2],"categories":[],"categories_nodes":[],"categories_segments":[],"categories_sizes":[],"default_left":[0,0,0],"id":74,"left_children":[1,-1,-1],"loss_changes":[5.21464E2,0E0,0E0],"parents":[2147483647,0,0],"right_children":[2,-1,-1],"split_conditions":[1.8664062E2,-5.358773E-2,9.07628E-2],"split_indices":[411,0,0],"split_type":[0,0,0],"sum_hessian":[1.0757516E3,6.816512E2,3.9410037E2],"tree_param":{"num_deleted":"0","num_feature":"418","num_nodes":"3","size_leaf_vector":"1"}},{"base_weights":[3.6984753E-2,2.6589435E-1,-5.3311467E-2,5.4857403E-1,1.0947413E-1,-4.9940508E-2,5.92174E-2,-5.26701E-2,1.9197653E-1,2.7403345E-2,-5.245356E-2],"categories":[],"categories_nodes":[],"categories_segments":[],"categories_sizes":[],"default_left":[0,0,0,0,0,0,0,0,0,0,0],"id":75,"left_children":[1,3,-1,5,7,-1,-1,-1,9,-1,-1],"loss_changes":[1.6079744E2,3.8808434E1,0E0,1.4592331E1,2.9868612E1,0E0,0E0,0E0,2.9704393E1,0E0,0E0],"parents":[2147483647,0,0,1,1,3,3,4,4,8,8],"right_children":[2,4,-1,6,8,-1,-1,-1,10,-1,-1],"split_conditions":[9.12E2,1E0,-5.3311467E-2,1E0,5E1,-4.9940508E-2,5.92174E-2,-5.26701E-2,1.4758333E2,2.7403345E-2,-5.245356E-2],"split_indices":[378,212,0,234,383,0,0,0,411,0,0],"split_type":[0,0,0,0,0,0,0,0,0,0,0],"sum_hessian":[1.2300664E3,8.780431E2,3.5202335E2,3.1189157E2,5.6615155E2,1.2040044E1,2.9985153E2,6.4374725E1,5.017768E2,4.5077084E2,5.1005962E1],"tree_param":{"num_deleted":"0","num_feature":"418","num_nodes":"11","size_leaf_vector":"1"}},{"base_weights":[4.3753143E-3,-5.344019E-2,3.0852002E-1,5.2788835E-2,9.069114E-2,-5.3644177E-2,9.066029E-2],"categories":[],"categories_nodes":[],"categories_segments":[],"categories_sizes":[],"default_left":[0,0,0,0,0,0,0],"id":76,"left_children":[1,-1,3,5,-1,-1,-1],"loss_changes":[1.785971E2,0E0,1.06555275E2,2.4655632E2,0E0,0E0,0E0],"parents":[2147483647,0,0,2,2,3,3],"right_children":[2,-1,4,6,-1,-1,-1],"split_conditions":[1E0,-5.344019E-2,1.493125E2,3.2E1,9.069114E-2,-5.3644177E-2,9.066029E-2],"split_indices":[212,0,411,1,0,0,0],"split_type":[0,0,0,0,0,0,0],"sum_hessian":[1.0878895E3,3.9226126E2,6.956283E2,4.8811398E2,2.0751434E2,2.89025E2,1.99089E2],"tree_param":{"num_deleted":"0","num_feature":"418","num_nodes":"7","size_leaf_vector":"1"}},{"base_weights":[-1.8303357E-1,9.138664E-2,-3.5810333E-1,9.091623E-2,-4.3616956E-1,-5.07078E-1,9.08725E-2,-5.160834E-1,8.5552335E-2,-5.251774E-1,8.530712E-2,-5.3374857E-2,-4.5574956E-2],"categories":[],"categories_nodes":[],"categories_segments":[],"categories_sizes":[],"default_left":[0,0,0,0,0,0,0,0,0,0,0,0,0],"id":77,"left_children":[1,-1,3,-1,5,7,-1,9,-1,11,-1,-1,-1],"loss_changes":[1.7445366E2,0E0,7.782604E1,0E0,7.083249E1,9.0507965E0,0E0,9.134216E0,0E0,1.6952515E-1,0E0,0E0,0E0],"parents":[2147483647,0,0,2,2,4,4,5,5,7,7,9,9],"right_children":[2,-1,4,-1,6,8,-1,10,-1,12,-1,-1,-1],"split_conditions":[9.72125E1,9.138664E-2,1.2404347E2,9.091623E-2,4E1,2.2E1,9.08725E-2,1E0,8.5552335E-2,1.6E1,8.530712E-2,-5.3374857E-2,-4.5574956E-2],"split_indices":[414,0,0,0,382,6,0,217,0,6,0,0,0],"split_type":[0,0,0,0,0,0,0,0,0,0,0,0,0],"sum_hessian":[9.057478E2,1.24083336E2,7.816644E2,4.4740257E1,7.369242E2,7.0060815E2,3.6316032E1,6.966254E2,3.9827287E0,6.926413E2,3.9841456E0,6.105757E2,8.206559E1],"tree_param":{"num_deleted":"0","num_feature":"418","num_nodes":"13","size_leaf_vector":"1"}},{"base_weights":[-8.576822E-3,-5.307999E-1,9.064553E-1,-5.3583324E-2,8.316006E-2,2.9991651E-2,9.0796135E-2],"categories":[],"categories_nodes":[],"categories_segments":[],"categories_sizes":[],"default_left":[0,0,0,0,0,0,0],"id":78,"left_children":[1,3,5,-1,-1,-1,-1],"loss_changes":[5.137588E2,5.139389E0,8.453369E-2,0E0,0E0,0E0,0E0],"parents":[2147483647,0,0,1,1,2,2],"right_children":[2,4,6,-1,-1,-1,-1],"split_conditions":[1E0,1E0,1.05E3,-5.3583324E-2,8.316006E-2,2.9991651E-2,9.0796135E-2],"split_indices":[184,368,379,0,0,0,0],"split_type":[0,0,0,0,0,0,0],"sum_hessian":[1.0731377E3,6.8348315E2,3.8965457E2,6.815718E2,1.9113469E0,1.460839E0,3.8819376E2],"tree_param":{"num_deleted":"0","num_feature":"418","num_nodes":"7","size_leaf_vector":"1"}},{"base_weights":[4.7355723E-3,-5.360505E-2,9.0469025E-2],"categories":[],"categories_nodes":[],"categories_segments":[],"categories_sizes":[],"default_left":[0,0,0],"id":79,"left_children":[1,-1,-1],"loss_changes":[5.3099097E2,0E0,0E0],"parents":[2147483647,0,0],"right_children":[2,-1,-1],"split_conditions":[1E0,-5.360505E-2,9.0469025E-2],"split_indices":[79,0,0],"split_type":[0,0,0],"sum_hessian":[1.0890444E3,6.805211E2,4.0852325E2],"tree_param":{"num_deleted":"0","num_feature":"418","num_nodes":"3","size_leaf_vector":"1"}},{"base_weights":[2.7652256E-2,-5.3146508E-2,4.0131682E-1,4.6877638E-1,-5.211261E-2,-2.9463692E-2,4.7059923E-2],"categories":[],"categories_nodes":[],"categories_segments":[],"categories_sizes":[],"default_left":[0,0,0,0,0,0,0],"id":80,"left_children":[1,-1,3,5,-1,-1,-1],"loss_changes":[2.4965778E2,0E0,4.481407E1,1.0681915E0,0E0,0E0,0E0],"parents":[2147483647,0,0,2,2,3,3],"right_children":[2,-1,4,6,-1,-1,-1],"split_conditions":[5E1,-5.3146508E-2,1.4758333E2,1.2404348E2,-5.211261E-2,-2.9463692E-2,4.7059923E-2],"split_indices":[383,0,411,0,0,0,0],"split_type":[0,0,0,0,0,0,0],"sum_hessian":[1.1929581E3,4.7771982E2,7.1523834E2,6.669548E2,4.8283535E1,1.2061172E0,6.6574866E2],"tree_param":{"num_deleted":"0","num_feature":"418","num_nodes":"7","size_leaf_vector":"1"}},{"base_weights":[7.5152785E-2,-5.2946586E-2,1.800992E-1,8.7130494E-2,7.69864E-1,2.015296E-1,-5.287991E-2,8.545655E-2,-4.7881994E-2,-5.1042594E-2,2.2364895E-1,3.8013366E-1,1.434151E-1,-4.7543764E-2,4.065093E-2,-5.2308526E-2,2.2687485E-2],"categories":[],"categories_nodes":[],"categories_segments":[],"categories_sizes":[],"default_left":[0,0,0,0,0,0,0,0,0,0,0,0,0,0,0,0,0],"id":81,"left_children":[1,-1,3,5,7,9,-1,-1,-1,-1,11,13,15,-1,-1,-1,-1],"loss_changes":[7.924817E1,0E0,5.8254185E1,6.4929E1,1.5715027E1,1.2343815E1,0E0,0E0,0E0,0E0,9.410736E0,5.945759E0,2.7929695E1,0E0,0E0,0E0,0E0],"parents":[2147483647,0,0,2,2,3,3,4,4,5,5,10,10,11,11,12,12],"right_children":[2,-1,4,6,8,10,-1,-1,-1,-1,12,14,16,-1,-1,-1,-1],"split_conditions":[1E0,-5.2946586E-2,1.5025E2,9.332031E0,1E0,9.72125E1,-5.287991E-2,8.545655E-2,-4.7881994E-2,-5.1042594E-2,1E0,1E0,1.2404348E2,-4.7543764E-2,4.065093E-2,-5.2308526E-2,2.2687485E-2],"split_indices":[16,0,417,413,203,414,0,0,0,0,212,234,0,0,0,0,0],"split_type":[0,0,0,0,0,0,0,0,0,0,0,0,0,0,0,0,0],"sum_hessian":[1.2464329E3,1.837522E2,1.0626807E3,9.189656E2,1.4371515E2,7.755857E2,1.4337988E2,1.3488142E2,8.833733E0,2.270495E1,7.5288074E2,2.5391595E2,4.9896478E2,7.0844707E0,2.4683148E2,5.49414E1,4.4402338E2],"tree_param":{"num_deleted":"0","num_feature":"418","num_nodes":"17","size_leaf_vector":"1"}},{"base_weights":[-9.7066825E-3,-5.3316623E-2,8.527041E-2],"categories":[],"categories_nodes":[],"categories_segments":[],"categories_sizes":[],"default_left":[0,0,0],"id":82,"left_children":[1,-1,-1],"loss_changes":[4.631743E2,0E0,0E0],"parents":[2147483647,0,0],"right_children":[2,-1,-1],"split_conditions":[1.8664062E2,-5.3316623E-2,8.527041E-2],"split_indices":[411,0,0],"split_type":[0,0,0],"sum_hessian":[1.0239924E3,6.37456E2,3.865364E2],"tree_param":{"num_deleted":"0","num_feature":"418","num_nodes":"3","size_leaf_vector":"1"}},{"base_weights":[3.9482668E-2,2.50086E-1,-5.301209E-2,5.02393E-1,1.07456855E-1,-4.949061E-2,5.4064095E-2,-5.2324116E-2,1.8278614E-1,2.5636015E-2,-5.2093256E-2],"categories":[],"categories_nodes":[],"categories_segments":[],"categories_sizes":[],"default_left":[0,0,0,0,0,0,0,0,0,0,0],"id":83,"left_children":[1,3,-1,5,7,-1,-1,-1,9,-1,-1],"loss_changes":[1.4540536E2,3.1786552E1,0E0,1.2445892E1,2.7011414E1,0E0,0E0,0E0,2.6374554E1,0E0,0E0],"parents":[2147483647,0,0,1,1,3,3,4,4,8,8],"right_children":[2,4,-1,6,8,-1,-1,-1,10,-1,-1],"split_conditions":[9.12E2,1E0,-5.301209E-2,1E0,5E1,-4.949061E-2,5.4064095E-2,-5.2324116E-2,1.4758333E2,2.5636015E-2,-5.2093256E-2],"split_indices":[378,212,0,234,383,0,0,0,411,0,0],"split_type":[0,0,0,0,0,0,0,0,0,0,0],"sum_hessian":[1.2100061E3,8.837954E2,3.2621066E2,3.182672E2,5.655282E2,1.1314208E1,3.06953E2,5.9704384E1,5.0582382E2,4.5852103E2,4.7302807E1],"tree_param":{"num_deleted":"0","num_feature":"418","num_nodes":"11","size_leaf_vector":"1"}},{"base_weights":[1.1002745E-3,-5.3153217E-2,2.9128626E-1,4.5758203E-2,8.5198514E-2,-5.3378906E-2,8.5167944E-2],"categories":[],"categories_nodes":[],"categories_segments":[],"categories_sizes":[],"default_left":[0,0,0,0,0,0,0],"id":84,"left_children":[1,-1,3,5,-1,-1,-1],"loss_changes":[1.6044937E2,0E0,9.247061E1,2.1922609E2,0E0,0E0,0E0],"parents":[2147483647,0,0,2,2,3,3],"right_children":[2,-1,4,6,-1,-1,-1],"split_conditions":[1E0,-5.3153217E-2,1.493125E2,3.2E1,8.5198514E-2,-5.3378906E-2,8.5167944E-2],"split_indices":[212,0,411,1,0,0,0],"split_type":[0,0,0,0,0,0,0],"sum_hessian":[1.0360857E3,3.6510632E2,6.709794E2,4.6739178E2,2.0358762E2,2.7207626E2,1.953155E2],"tree_param":{"num_deleted":"0","num_feature":"418","num_nodes":"7","size_leaf_vector":"1"}},{"base_weights":[-1.812602E-1,8.575677E-2,-3.5438684E-1,8.52429E-2,-4.3233478E-1,-5.0355756E-1,8.518404E-2,-5.1275176E-1,7.97551E-2,-5.2203906E-1,7.949554E-2,-5.3119995E-2,-4.478268E-2],"categories":[],"categories_nodes":[],"categories_segments":[],"categories_sizes":[],"default_left":[0,0,0,0,0,0,0,0,0,0,0,0,0],"id":85,"left_children":[1,-1,3,-1,5,7,-1,9,-1,11,-1,-1,-1],"loss_changes":[1.5470702E2,0E0,6.9658295E1,0E0,6.3772186E1,8.265991E0,0E0,8.343246E0,0E0,2.032013E-1,0E0,0E0,0E0],"parents":[2147483647,0,0,2,2,4,4,5,5,7,7,9,9],"right_children":[2,-1,4,-1,6,8,-1,10,-1,12,-1,-1,-1],"split_conditions":[9.72125E1,8.575677E-2,1.2404347E2,8.52429E-2,4E1,2.2E1,8.518404E-2,1E0,7.97551E-2,1.6E1,7.949554E-2,-5.3119995E-2,-4.478268E-2],"split_indices":[414,0,0,0,382,6,0,217,0,6,0,0,0],"split_type":[0,0,0,0,0,0,0,0,0,0,0,0,0],"sum_hessian":[8.575163E2,1.21930695E2,7.3558563E2,4.402593E1,6.915597E2,6.557959E2,3.5763798E1,6.517959E2,3.9999623E0,6.477961E2,3.9998393E0,5.7113654E2,7.665955E1],"tree_param":{"num_deleted":"0","num_feature":"418","num_nodes":"13","size_leaf_vector":"1"}},{"base_weights":[-1.14286365E-2,-5.278717E-1,8.514648E-1,-5.331241E-2,7.888808E-2,2.7724102E-2,8.5295655E-2],"categories":[],"categories_nodes":[],"categories_segments":[],"categories_sizes":[],"default_left":[0,0,0,0,0,0,0],"id":86,"left_children":[1,3,5,-1,-1,-1,-1],"loss_changes":[4.5612933E2,4.8489227E0,9.1796875E-2,0E0,0E0,0E0,0E0],"parents":[2147483647,0,0,1,1,2,2],"right_children":[2,4,6,-1,-1,-1,-1],"split_conditions":[1E0,1E0,1.05E3,-5.331241E-2,7.888808E-2,2.7724102E-2,8.5295655E-2],"split_indices":[184,368,379,0,0,0,0],"split_type":[0,0,0,0,0,0,0],"sum_hessian":[1.0215396E3,6.3930365E2,3.82236E2,6.3735645E2,1.9471927E0,1.4745791E0,3.807614E2],"tree_param":{"num_deleted":"0","num_feature":"418","num_nodes":"7","size_leaf_vector":"1"}},{"base_weights":[1.475362E-3,-5.3332705E-2,8.4979635E-1,-3.0349493E-2,8.535788E-2],"categories":[],"categories_nodes":[],"categories_segments":[],"categories_sizes":[],"default_left":[0,0,0,0,0],"id":87,"left_children":[1,-1,3,-1,-1],"loss_changes":[4.71505E2,0E0,2.012024E0,0E0,0E0],"parents":[2147483647,0,0,2,2],"right_children":[2,-1,4,-1,-1],"split_conditions":[1E0,-5.3332705E-2,8E0,-3.0349493E-2,8.535788E-2],"split_indices":[79,0,4,0,0],"split_type":[0,0,0,0,0],"sum_hessian":[1.0372815E3,6.36431E2,4.0085043E2,1.0513488E0,3.997991E2],"tree_param":{"num_deleted":"0","num_feature":"418","num_nodes":"5","size_leaf_vector":"1"}},{"base_weights":[2.9137509E-2,-5.2880187E-2,3.699482E-1,4.2880368E-1,-5.1767416E-2,-2.8602198E-2,4.3042034E-2],"categories":[],"categories_nodes":[],"categories_segments":[],"categories_sizes":[],"default_left":[0,0,0,0,0,0,0],"id":88,"left_children":[1,-1,3,5,-1,-1,-1],"loss_changes":[2.228939E2,0E0,3.82349E1,9.1230774E-1,0E0,0E0,0E0],"parents":[2147483647,0,0,2,2,3,3],"right_children":[2,-1,4,6,-1,-1,-1],"split_conditions":[5E1,-5.2880187E-2,1.4758333E2,1.2404348E2,-5.1767416E-2,-2.8602198E-2,4.3042034E-2],"split_indices":[383,0,411,0,0,0,0],"split_type":[0,0,0,0,0,0,0],"sum_hessian":[1.170161E3,4.4352194E2,7.2663904E2,6.8193866E2,4.4700336E1,1.1418159E0,6.807969E2],"tree_param":{"num_deleted":"0","num_feature":"418","num_nodes":"7","size_leaf_vector":"1"}},{"base_weights":[7.555432E-2,-5.2651923E-2,1.7316103E-1,8.734506E-2,7.3066515E-1,1.920812E-1,-5.257959E-2,8.089583E-2,-4.7279995E-2,-5.06155E-2,2.1206874E-1,3.537233E-1,1.3831946E-1,-4.7076937E-2,3.7743367E-2,-5.1966738E-2,2.13687E-2],"categories":[],"categories_nodes":[],"categories_segments":[],"categories_sizes":[],"default_left":[0,0,0,0,0,0,0,0,0,0,0,0,0,0,0,0,0],"id":89,"left_children":[1,-1,3,5,7,9,-1,-1,-1,-1,11,13,15,-1,-1,-1,-1],"loss_changes":[7.201214E1,0E0,5.0356148E1,5.8823433E1,1.3615692E1,1.1017374E1,0E0,0E0,0E0,0E0,7.8979797E0,5.2565536E0,2.5000277E1,0E0,0E0,0E0,0E0],"parents":[2147483647,0,0,2,2,3,3,4,4,5,5,10,10,11,11,12,12],"right_children":[2,-1,4,6,8,10,-1,-1,-1,-1,12,14,16,-1,-1,-1,-1],"split_conditions":[1E0,-5.2651923E-2,1.5025E2,9.332031E0,1E0,9.72125E1,-5.257959E-2,8.089583E-2,-4.7279995E-2,-5.06155E-2,1E0,1E0,1.2404348E2,-4.7076937E-2,3.7743367E-2,-5.1966738E-2,2.13687E-2],"split_indices":[16,0,417,413,203,414,0,0,0,0,212,234,0,0,0,0,0],"split_type":[0,0,0,0,0,0,0,0,0,0,0,0,0,0,0,0,0],"sum_hessian":[1.2228447E3,1.699761E2,1.0528687E3,9.134231E2,1.3944548E2,7.807439E2,1.3267918E2,1.3123557E2,8.209916E0,2.1050516E1,7.596934E2,2.5880164E2,5.0089175E2,6.707386E0,2.5209425E2,5.087127E1,4.500205E2],"tree_param":{"num_deleted":"0","num_feature":"418","num_nodes":"17","size_leaf_vector":"1"}},{"base_weights":[-1.2853505E-2,-5.306502E-2,8.069085E-2],"categories":[],"categories_nodes":[],"categories_segments":[],"categories_sizes":[],"default_left":[0,0,0],"id":90,"left_children":[1,-1,-1],"loss_changes":[4.1318088E2,0E0,0E0],"parents":[2147483647,0,0],"right_children":[2,-1,-1],"split_conditions":[1.8664062E2,-5.306502E-2,8.069085E-2],"split_indices":[411,0,0],"split_type":[0,0,0],"sum_hessian":[9.7139526E2,5.9556415E2,3.758311E2],"tree_param":{"num_deleted":"0","num_feature":"418","num_nodes":"3","size_leaf_vector":"1"}},{"base_weights":[4.1940674E-2,2.3568194E-1,-5.2732226E-2,2.7682334E-1,-5.1797856E-2,4.6371892E-1,1.6011928E-1,-4.8781082E-2,4.9555045E-2,-5.197665E-2,2.403832E-2],"categories":[],"categories_nodes":[],"categories_segments":[],"categories_sizes":[],"default_left":[0,0,0,0,0,0,0,0,0,0,0],"id":91,"left_children":[1,3,-1,5,-1,7,9,-1,-1,-1,-1],"loss_changes":[1.3147934E2,2.7716785E1,0E0,1.8332314E1,0E0,1.0051201E1,2.8557558E1,0E0,0E0,0E0,0E0],"parents":[2147483647,0,0,1,1,3,3,5,5,6,6],"right_children":[2,4,-1,6,-1,8,10,-1,-1,-1,-1],"split_conditions":[9.12E2,9.332031E0,-5.2732226E-2,1E0,-5.1797856E-2,1E0,5E1,-4.8781082E-2,4.9555045E-2,-5.197665E-2,2.403832E-2],"split_indices":[378,413,0,212,0,234,383,0,0,0,0],"split_type":[0,0,0,0,0,0,0,0,0,0,0],"sum_hessian":[1.19E3,8.8827356E2,3.0172644E2,8.4289374E2,4.5379856E1,3.228664E2,5.2002734E2,9.987527E0,3.1287888E2,5.4331306E1,4.65696E2],"tree_param":{"num_deleted":"0","num_feature":"418","num_nodes":"11","size_leaf_vector":"1"}},{"base_weights":[-2.2792302E-3,-5.28862E-2,2.7562416E-1,3.8783655E-2,8.061643E-2,-5.313133E-2,8.05859E-2],"categories":[],"categories_nodes":[],"categories_segments":[],"categories_sizes":[],"default_left":[0,0,0,0,0,0,0],"id":92,"left_children":[1,-1,3,5,-1,-1,-1],"loss_changes":[1.4419316E2,0E0,8.101072E1,1.9588551E2,0E0,0E0,0E0],"parents":[2147483647,0,0,2,2,3,3],"right_children":[2,-1,4,6,-1,-1,-1],"split_conditions":[1E0,-5.28862E-2,1.493125E2,3.2E1,8.061643E-2,-5.313133E-2,8.05859E-2],"split_indices":[212,0,411,1,0,0,0],"split_type":[0,0,0,0,0,0,0],"sum_hessian":[9.833396E2,3.3937494E2,6.4396466E2,4.4595654E2,1.9800812E2,2.5600143E2,1.8995511E2],"tree_param":{"num_deleted":"0","num_feature":"418","num_nodes":"7","size_leaf_vector":"1"}},{"base_weights":[-1.7994525E-1,8.1063986E-2,-3.5109824E-1,8.0502704E-2,-4.2881197E-1,-5.001999E-1,8.0426775E-2,-5.095667E-1,7.4781545E-2,-5.190298E-1,7.451047E-2,-5.2883036E-2,-4.396021E-2],"categories":[],"categories_nodes":[],"categories_segments":[],"categories_sizes":[],"default_left":[0,0,0,0,0,0,0,0,0,0,0,0,0],"id":93,"left_children":[1,-1,3,-1,5,7,-1,9,-1,11,-1,-1,-1],"loss_changes":[1.3775974E2,0E0,6.2528275E1,0E0,5.7546066E1,7.5615997E0,0E0,7.632492E0,0E0,2.394867E-1,0E0,0E0,0E0],"parents":[2147483647,0,0,2,2,4,4,5,5,7,7,9,9],"right_children":[2,-1,4,-1,6,8,-1,10,-1,12,-1,-1,-1],"split_conditions":[9.72125E1,8.1063986E-2,1.2404347E2,8.0502704E-2,4E1,2.2E1,8.0426775E-2,1E0,7.4781545E-2,1.6E1,7.451047E-2,-5.2883036E-2,-4.396021E-2],"split_indices":[414,0,0,0,382,6,0,217,0,6,0,0,0],"split_type":[0,0,0,0,0,0,0,0,0,0,0,0,0],"sum_hessian":[8.098637E2,1.1876266E2,6.911011E2,4.2939747E1,6.481613E2,6.13252E2,3.490929E1,6.0927094E2,3.9810843E0,6.05292E2,3.978952E0,5.337718E2,7.152017E1],"tree_param":{"num_deleted":"0","num_feature":"418","num_nodes":"13","size_leaf_vector":"1"}},{"base_weights":[-1.445212E-2,-5.2517444E-1,8.055908E-1,-5.3060915E-2,7.389436E-2,2.5608731E-2,8.070976E-2],"categories":[],"categories_nodes":[],"categories_segments":[],"categories_sizes":[],"default_left":[0,0,0,0,0,0,0],"id":94,"left_children":[1,3,5,-1,-1,-1,-1],"loss_changes":[4.067275E2,4.5032806E0,1.0192871E-1,0E0,0E0,0E0,0E0],"parents":[2147483647,0,0,1,1,2,2],"right_children":[2,4,6,-1,-1,-1,-1],"split_conditions":[1E0,1E0,1.05E3,-5.3060915E-2,7.389436E-2,2.5608731E-2,8.070976E-2],"split_indices":[184,368,379,0,0,0,0],"split_type":[0,0,0,0,0,0,0],"sum_hessian":[9.691305E2,5.974183E2,3.7171222E2,5.954386E2,1.979641E0,1.4840035E0,3.702282E2],"tree_param":{"num_deleted":"0","num_feature":"418","num_nodes":"7","size_leaf_vector":"1"}},{"base_weights":[-1.8965453E-3,-5.3079993E-2,8.041655E-1,-2.9679833E-2,8.078044E-2],"categories":[],"categories_nodes":[],"categories_segments":[],"categories_sizes":[],"default_left":[0,0,0,0,0],"id":95,"left_children":[1,-1,3,-1,-1],"loss_changes":[4.2056842E2,0E0,1.8056183E0,0E0,0E0],"parents":[2147483647,0,0,2,2],"right_children":[2,-1,4,-1,-1],"split_conditions":[1E0,-5.3079993E-2,8E0,-2.9679833E-2,8.078044E-2],"split_indices":[79,0,4,0,0],"split_type":[0,0,0,0,0],"sum_hessian":[9.844869E2,5.9464667E2,3.898402E2,1.0188798E0,3.8882132E2],"tree_param":{"num_deleted":"0","num_feature":"418","num_nodes":"5","size_leaf_vector":"1"}},{"base_weights":[3.0539062E-2,-5.2632835E-2,3.418137E-1,3.9337173E-1,-5.1433947E-2,-2.7739177E-2,3.9481323E-2],"categories":[],"categories_nodes":[],"categories_segments":[],"categories_sizes":[],"default_left":[0,0,0,0,0,0,0],"id":96,"left_children":[1,-1,3,5,-1,-1,-1],"loss_changes":[1.992741E2,0E0,3.275068E1,7.8250885E-1,0E0,0E0,0E0],"parents":[2147483647,0,0,2,2,3,3],"right_children":[2,-1,4,6,-1,-1,-1],"split_conditions":[5E1,-5.2632835E-2,1.4758333E2,1.2404348E2,-5.1433947E-2,-2.7739177E-2,3.9481323E-2],"split_indices":[383,0,411,0,0,0,0],"split_type":[0,0,0,0,0,0,0],"sum_hessian":[1.1475846E3,4.1122183E2,7.363628E2,6.950472E2,4.1315598E1,1.0799457E0,6.939673E2],"tree_param":{"num_deleted":"0","num_feature":"418","num_nodes":"7","size_leaf_vector":"1"}},{"base_weights":[7.60388E-2,-5.2375384E-2,1.66785E-1,8.757539E-2,6.974118E-1,1.8341126E-1,-5.229671E-2,7.705056E-2,-4.666978E-2,-5.0193336E-2,2.0148134E-1,3.3014056E-1,1.3358393E-1,-4.661733E-2,3.515538E-2,-5.163805E-2,2.0165531E-2],"categories":[],"categories_nodes":[],"categories_segments":[],"categories_sizes":[],"default_left":[0,0,0,0,0,0,0,0,0,0,0,0,0,0,0,0,0],"id":97,"left_children":[1,-1,3,5,7,9,-1,-1,-1,-1,11,13,15,-1,-1,-1,-1],"loss_changes":[6.54137E1,0E0,4.3787422E1,5.3276646E1,1.1877304E1,9.839067E0,0E0,0E0,0E0,0E0,6.6546497E0,4.669096E0,2.2386322E1,0E0,0E0,0E0,0E0],"parents":[2147483647,0,0,2,2,3,3,4,4,5,5,10,10,11,11,12,12],"right_children":[2,-1,4,6,8,10,-1,-1,-1,-1,12,14,16,-1,-1,-1,-1],"split_conditions":[1E0,-5.2375384E-2,1.5025E2,9.332031E0,1E0,9.72125E1,-5.229671E-2,7.705056E-2,-4.666978E-2,-5.0193336E-2,1E0,1E0,1.2404348E2,-4.661733E-2,3.515538E-2,-5.163805E-2,2.0165531E-2],"split_indices":[16,0,417,413,203,414,0,0,0,0,212,234,0,0,0,0,0],"split_type":[0,0,0,0,0,0,0,0,0,0,0,0,0,0,0,0,0],"sum_hessian":[1.1992144E3,1.5696603E2,1.0422483E3,9.078879E2,1.3436043E2,7.8531744E2,1.2257041E2,1.2674058E2,7.619855E0,1.9486214E1,7.6583124E2,2.632102E2,5.0262103E2,6.3485875E0,2.5686163E2,4.7025223E1,4.555958E2],"tree_param":{"num_deleted":"0","num_feature":"418","num_nodes":"17","size_leaf_vector":"1"}},{"base_weights":[-1.6147546E-2,-5.2831788E-2,7.68315E-2],"categories":[],"categories_nodes":[],"categories_segments":[],"categories_sizes":[],"default_left":[0,0,0],"id":98,"left_children":[1,-1,-1],"loss_changes":[3.698946E2,0E0,0E0],"parents":[2147483647,0,0],"right_children":[2,-1,-1],"split_conditions":[1.8664062E2,-5.2831788E-2,7.68315E-2],"split_indices":[411,0,0],"split_type":[0,0,0],"sum_hessian":[9.1863293E2,5.559702E2,3.6266272E2],"tree_param":{"num_deleted":"0","num_feature":"418","num_nodes":"3","size_leaf_vector":"1"}},{"base_weights":[4.4311546E-2,2.2248964E-1,-5.2470982E-2,2.5944838E-1,-5.146599E-2,4.2741644E-1,1.5367511E-1,-4.83396E-2,4.5571942E-2,-5.1657356E-2,2.2587394E-2],"categories":[],"categories_nodes":[],"categories_segments":[],"categories_sizes":[],"default_left":[0,0,0,0,0,0,0,0,0,0,0],"id":99,"left_children":[1,3,-1,5,-1,7,9,-1,-1,-1,-1],"loss_changes":[1.1887048E2,2.4453934E1,0E0,1.5048836E1,0E0,8.679813E0,2.5452866E1,0E0,0E0,0E0,0E0],"parents":[2147483647,0,0,1,1,3,3,5,5,6,6],"right_children":[2,4,-1,6,-1,8,10,-1,-1,-1,-1],"split_conditions":[9.12E2,9.332031E0,-5.2470982E-2,1E0,-5.146599E-2,1E0,5E1,-4.83396E-2,4.5571942E-2,-5.1657356E-2,2.2587394E-2],"split_indices":[378,413,0,212,0,234,383,0,0,0,0],"split_type":[0,0,0,0,0,0,0,0,0,0,0],"sum_hessian":[1.1702899E3,8.9168494E2,2.7860498E2,8.4972974E2,4.195517E1,3.2715942E2,5.225704E2,9.375303E0,3.1778412E2,5.0218502E1,4.7235184E2],"tree_param":{"num_deleted":"0","num_feature":"418","num_nodes":"11","size_leaf_vector":"1"}},{"base_weights":[-5.775517E-3,-5.2637972E-2,2.6123935E-1,3.182173E-2,7.675259E-2,-5.2900303E-2,7.672217E-2],"categories":[],"categories_nodes":[],"categories_segments":[],"categories_sizes":[],"default_left":[0,0,0,0,0,0,0],"id":100,"left_children":[1,-1,3,5,-1,-1,-1],"loss_changes":[1.2960258E2,0E0,7.155616E1,1.757467E2,0E0,0E0,0E0],"parents":[2147483647,0,0,2,2,3,3],"right_children":[2,-1,4,6,-1,-1,-1],"split_conditions":[1E0,-5.2637972E-2,1.493125E2,3.2E1,7.675259E-2,-5.2900303E-2,7.672217E-2],"split_indices":[212,0,411,1,0,0,0],"split_type":[0,0,0,0,0,0,0],"sum_hessian":[9.3034265E2,3.1507104E2,6.152716E2,4.2414038E2,1.9113124E2,2.4079097E2,1.8334941E2],"tree_param":{"num_deleted":"0","num_feature":"418","num_nodes":"7","size_leaf_vector":"1"}},{"base_weights":[-1.7905258E-1,7.710924E-2,-3.482076E-1,7.6497085E-2,-4.2557985E-1,-4.9699223E-1,7.6402836E-2,-5.065154E-1,7.04709E-2,-5.1613647E-1,7.018887E-2,-5.2662916E-2,-4.310521E-2],"categories":[],"categories_nodes":[],"categories_segments":[],"categories_sizes":[],"default_left":[0,0,0,0,0,0,0,0,0,0,0,0,0],"id":101,"left_children":[1,-1,3,-1,5,7,-1,9,-1,11,-1,-1,-1],"loss_changes":[1.2308373E2,0E0,5.6253876E1,0E0,5.2013687E1,6.925598E0,0E0,6.9897766E0,0E0,2.7841187E-1,0E0,0E0,0E0],"parents":[2147483647,0,0,2,2,4,4,5,5,7,7,9,9],"right_children":[2,-1,4,-1,6,8,-1,10,-1,12,-1,-1,-1],"split_conditions":[9.72125E1,7.710924E-2,1.2404347E2,7.6497085E-2,4E1,2.2E1,7.6402836E-2,1E0,7.04709E-2,1.6E1,7.018887E-2,-5.2662916E-2,-4.310521E-2],"split_indices":[414,0,0,0,382,6,0,217,0,6,0,0,0],"split_type":[0,0,0,0,0,0,0,0,0,0,0,0,0],"sum_hessian":[7.6314795E2,1.147935E2,6.4835443E2,4.1558125E1,6.067963E2,5.729823E2,3.3813995E1,5.690513E2,3.9310892E0,5.651247E2,3.9265244E0,4.984642E2,6.666051E1],"tree_param":{"num_deleted":"0","num_feature":"418","num_nodes":"13","size_leaf_vector":"1"}},{"base_weights":[-1.7631078E-2,-5.226643E-1,7.6690704E-1,-5.2827783E-2,6.948357E-2,2.3628822E-2,7.6845355E-2],"categories":[],"categories_nodes":[],"categories_segments":[],"categories_sizes":[],"default_left":[0,0,0,0,0,0,0],"id":102,"left_children":[1,3,5,-1,-1,-1,-1],"loss_changes":[3.639588E2,4.1862946E0,1.1361694E-1,0E0,0E0,0E0,0E0],"parents":[2147483647,0,0,1,1,2,2],"right_children":[2,4,6,-1,-1,-1,-1],"split_conditions":[1E0,1E0,1.05E3,-5.2827783E-2,6.948357E-2,2.3628822E-2,7.6845355E-2],"split_indices":[184,368,379,0,0,0,0],"split_type":[0,0,0,0,0,0,0],"sum_hessian":[9.1657086E2,5.578184E2,3.5875244E2,5.558218E2,1.9966248E0,1.4894896E0,3.5726297E2],"tree_param":{"num_deleted":"0","num_feature":"418","num_nodes":"7","size_leaf_vector":"1"}},{"base_weights":[-5.374949E-3,-5.2845754E-2,7.656901E-2],"categories":[],"categories_nodes":[],"categories_segments":[],"categories_sizes":[],"default_left":[0,0,0],"id":103,"left_children":[1,-1,-1],"loss_changes":[3.764893E2,0E0,0E0],"parents":[2147483647,0,0],"right_children":[2,-1,-1],"split_conditions":[1E0,-5.2845754E-2,7.656901E-2],"split_indices":[79,0,0],"split_type":[0,0,0],"sum_hessian":[9.3144745E2,5.551524E2,3.76295E2],"tree_param":{"num_deleted":"0","num_feature":"418","num_nodes":"3","size_leaf_vector":"1"}},{"base_weights":[3.1826936E-2,-5.240336E-2,3.1642836E-1,3.6174908E-1,-5.1110458E-2,-2.6876822E-2,3.6304038E-2],"categories":[],"categories_nodes":[],"categories_segments":[],"categories_sizes":[],"default_left":[0,0,0,0,0,0,0],"id":104,"left_children":[1,-1,3,5,-1,-1,-1],"loss_changes":[1.7836848E2,0E0,2.8149216E1,6.736145E-1,0E0,0E0,0E0],"parents":[2147483647,0,0,2,2,3,3],"right_children":[2,-1,4,6,-1,-1,-1],"split_conditions":[5E1,-5.240336E-2,1.4758333E2,1.2404348E2,-5.1110458E-2,-2.6876822E-2,3.6304038E-2],"split_indices":[383,0,411,0,0,0,0],"split_type":[0,0,0,0,0,0,0],"sum_hessian":[1.1254482E3,3.8082004E2,7.4462823E2,7.0649896E2,3.81293E1,1.0206122E0,7.0547833E2],"tree_param":{"num_deleted":"0","num_feature":"418","num_nodes":"7","size_leaf_vector":"1"}},{"base_weights":[7.655454E-2,-5.211581E-2,1.60875E-1,2.1665126E-1,-5.1915206E-2,1.4543946E-1,6.7415476E-1,1.8626507E-1,-4.950905E-1,-4.516389E-2,7.332611E-2,3.2076123E-1,1.1680254E-1,-9.689632E-3,-5.139309E-2,-3.693921E-2,3.2837458E-2,-5.153745E-2,1.906324E-2],"categories":[],"categories_nodes":[],"categories_segments":[],"categories_sizes":[],"default_left":[0,0,0,0,0,0,0,0,0,0,0,0,0,0,0,0,0,0,0],"id":105,"left_children":[1,-1,3,5,-1,7,9,11,13,-1,-1,15,17,-1,-1,-1,-1,-1,-1],"loss_changes":[5.939689E1,0E0,3.926043E1,3.1002308E1,0E0,2.1726055E1,8.868301E0,7.2351913E0,3.2413483E-1,0E0,0E0,1.5113201E0,2.4130781E1,0E0,0E0,0E0,0E0,0E0,0E0],"parents":[2147483647,0,0,2,2,3,3,5,5,6,6,7,7,8,8,11,11,12,12],"right_children":[2,-1,4,6,-1,8,10,12,14,-1,-1,16,18,-1,-1,-1,-1,-1,-1],"split_conditions":[1E0,-5.211581E-2,5E0,1.6E1,-5.1915206E-2,9.332031E0,1E0,1E0,1E0,-4.516389E-2,7.332611E-2,1E0,5E1,-9.689632E-3,-5.139309E-2,-3.693921E-2,3.2837458E-2,-5.153745E-2,1.906324E-2],"split_indices":[16,0,384,6,0,413,36,212,74,0,0,234,383,0,0,0,0,0,0],"split_type":[0,0,0,0,0,0,0,0,0,0,0,0,0,0,0,0,0,0,0],"sum_hessian":[1.1758602E3,1.4473232E2,1.0311279E3,9.5359485E2,7.753306E1,8.262971E2,1.2729772E2,7.7745355E2,4.884353E1,6.0187125E0,1.2127901E2,2.6354642E2,5.1390717E2,2.4841287E0,4.6359398E1,2.3570695E0,2.6118936E2,5.3115826E1,4.6079132E2],"tree_param":{"num_deleted":"0","num_feature":"418","num_nodes":"19","size_leaf_vector":"1"}},{"base_weights":[-1.959799E-2,-5.261579E-2,7.354972E-2],"categories":[],"categories_nodes":[],"categories_segments":[],"categories_sizes":[],"default_left":[0,0,0],"id":106,"left_children":[1,-1,-1],"loss_changes":[3.321252E2,0E0,0E0],"parents":[2147483647,0,0],"right_children":[2,-1,-1],"split_conditions":[1.8664062E2,-5.261579E-2,7.354972E-2],"split_indices":[411,0,0],"split_type":[0,0,0],"sum_hessian":[8.6628735E2,5.1865076E2,3.4763663E2],"tree_param":{"num_deleted":"0","num_feature":"418","num_nodes":"3","size_leaf_vector":"1"}},{"base_weights":[4.6553098E-2,2.1034946E-1,-5.222739E-2,2.4358012E-1,-5.114329E-2,3.9494702E-1,1.4767039E-1,-4.7903355E-2,4.2024773E-2,-5.134948E-2,2.1264091E-2],"categories":[],"categories_nodes":[],"categories_segments":[],"categories_sizes":[],"default_left":[0,0,0,0,0,0,0,0,0,0,0],"id":107,"left_children":[1,3,-1,5,-1,7,9,-1,-1,-1,-1],"loss_changes":[1.0745079E2,2.159653E1,0E0,1.2375805E1,0E0,7.533844E0,2.269923E1,0E0,0E0,0E0,0E0],"parents":[2147483647,0,0,1,1,3,3,5,5,6,6],"right_children":[2,4,-1,6,-1,8,10,-1,-1,-1,-1],"split_conditions":[9.12E2,9.332031E0,-5.222739E-2,1E0,-5.114329E-2,1E0,5E1,-4.7903355E-2,4.2024773E-2,-5.134948E-2,2.1264091E-2],"split_indices":[378,413,0,212,0,234,383,0,0,0,0],"split_type":[0,0,0,0,0,0,0,0,0,0,0],"sum_hessian":[1.1510754E3,8.9421295E2,2.5686255E2,8.55489E2,3.872395E1,3.3060413E2,5.248849E2,8.796774E0,3.2180734E2,4.6346043E1,4.7853882E2],"tree_param":{"num_deleted":"0","num_feature":"418","num_nodes":"11","size_leaf_vector":"1"}},{"base_weights":[-9.400415E-3,-5.2407354E-2,2.4789296E-1,2.483373E-2,7.346492E-2,-5.268469E-2,7.34344E-2],"categories":[],"categories_nodes":[],"categories_segments":[],"categories_sizes":[],"default_left":[0,0,0,0,0,0,0],"id":108,"left_children":[1,-1,3,5,-1,-1,-1],"loss_changes":[1.1648839E2,0E0,6.3662144E1,1.5822159E2,0E0,0E0,0E0],"parents":[2147483647,0,0,2,2,3,3],"right_children":[2,-1,4,6,-1,-1,-1],"split_conditions":[1E0,-5.2407354E-2,1.493125E2,3.2E1,7.346492E-2,-5.268469E-2,7.34344E-2],"split_indices":[212,0,411,1,0,0,0],"split_type":[0,0,0,0,0,0,0],"sum_hessian":[8.7769446E2,2.921865E2,5.8550793E2,4.0223303E2,1.832749E2,2.2642975E2,1.758033E2],"tree_param":{"num_deleted":"0","num_feature":"418","num_nodes":"7","size_leaf_vector":"1"}},{"base_weights":[-1.785526E-1,7.3744856E-2,-3.4568718E-1,7.3078886E-2,-4.226182E-1,-4.939214E-1,7.296503E-2,-5.035847E-1,6.6696875E-2,-5.1334584E-1,6.640523E-2,-5.245855E-2,-4.2215686E-2],"categories":[],"categories_nodes":[],"categories_segments":[],"categories_sizes":[],"default_left":[0,0,0,0,0,0,0,0,0,0,0,0,0],"id":109,"left_children":[1,-1,3,-1,5,7,-1,9,-1,11,-1,-1,-1],"loss_changes":[1.1028027E2,0E0,5.069783E1,0E0,4.7069168E1,6.3484344E0,0E0,6.4057465E0,0E0,3.199768E-1,0E0,0E0,0E0],"parents":[2147483647,0,0,2,2,4,4,5,5,7,7,9,9],"right_children":[2,-1,4,-1,6,8,-1,10,-1,12,-1,-1,-1],"split_conditions":[9.72125E1,7.3744856E-2,1.2404347E2,7.3078886E-2,4E1,2.2E1,7.296503E-2,1E0,6.6696875E-2,1.6E1,6.640523E-2,-5.245855E-2,-4.2215686E-2],"split_indices":[414,0,0,0,382,6,0,217,0,6,0,0,0],"split_type":[0,0,0,0,0,0,0,0,0,0,0,0,0],"sum_hessian":[7.1767145E2,1.10214645E2,6.0745685E2,3.9949825E1,5.67507E2,5.349738E2,3.2533207E1,5.3111896E2,3.854852E0,5.272714E2,3.8475096E0,4.65182E2,6.208943E1],"tree_param":{"num_deleted":"0","num_feature":"418","num_nodes":"13","size_leaf_vector":"1"}},{"base_weights":[-2.094141E-2,-5.202708E-1,7.339871E-1,-5.2611936E-2,6.658976E-2,2.1776365E-2,7.3559456E-2],"categories":[],"categories_nodes":[],"categories_segments":[],"categories_sizes":[],"default_left":[0,0,0,0,0,0,0],"id":110,"left_children":[1,3,5,-1,-1,-1,-1],"loss_changes":[3.2661752E2,3.9680786E0,1.2606812E-1,0E0,0E0,0E0,0E0],"parents":[2147483647,0,0,1,1,2,2],"right_children":[2,4,6,-1,-1,-1,-1],"split_conditions":[1E0,1E0,1.05E3,-5.2611936E-2,6.658976E-2,2.1776365E-2,7.3559456E-2],"split_indices":[184,368,379,0,0,0,0],"split_type":[0,0,0,0,0,0,0],"sum_hessian":[8.64443E2,5.204889E2,3.439541E2,5.184889E2,1.9999974E0,1.4913659E0,3.4246274E2],"tree_param":{"num_deleted":"0","num_feature":"418","num_nodes":"7","size_leaf_vector":"1"}},{"base_weights":[-8.952002E-3,-5.2628797E-2,7.327436E-1,-2.9871399E-2,7.365095E-2],"categories":[],"categories_nodes":[],"categories_segments":[],"categories_sizes":[],"default_left":[0,0,0,0,0],"id":111,"left_children":[1,-1,3,-1,-1],"loss_changes":[3.37998E2,0E0,1.6259613E0,0E0,0E0],"parents":[2147483647,0,0,2,2],"right_children":[2,-1,4,-1,-1],"split_conditions":[1E0,-5.2628797E-2,8E0,-2.9871399E-2,7.365095E-2],"split_indices":[79,0,4,0,0],"split_type":[0,0,0,0,0],"sum_hessian":[8.788729E2,5.1791516E2,3.609577E2,1.0281576E0,3.5992957E2],"tree_param":{"num_deleted":"0","num_feature":"418","num_nodes":"5","size_leaf_vector":"1"}},{"base_weights":[3.2988735E-2,-5.2190628E-2,2.9340667E-1,3.3336066E-2,-5.0795045E-2],"categories":[],"categories_nodes":[],"categories_segments":[],"categories_sizes":[],"default_left":[0,0,0,0,0],"id":112,"left_children":[1,-1,3,-1,-1],"loss_changes":[1.5981686E2,0E0,2.4266533E1,0E0,0E0],"parents":[2147483647,0,0,2,2],"right_children":[2,-1,4,-1,-1],"split_conditions":[5E1,-5.2190628E-2,1.4758333E2,3.3336066E-2,-5.0795045E-2],"split_indices":[383,0,411,0,0],"split_type":[0,0,0,0,0],"sum_hessian":[1.103904E3,3.522757E2,7.5162836E2,7.164897E2,3.5138653E1],"tree_param":{"num_deleted":"0","num_feature":"418","num_nodes":"5","size_leaf_vector":"1"}},{"base_weights":[7.706732E-2,-5.187155E-2,1.553399E-1,2.0651425E-1,-5.1659036E-2,1.4092058E-1,6.4898187E-1,1.7793337E-1,-4.906199E-1,-4.450531E-2,7.05237E-2,3.0066445E-1,1.1371508E-1,-8.451842E-3,-5.1090207E-2,-3.606065E-2,3.0749543E-2,-5.124509E-2,1.8049387E-2],"categories":[],"categories_nodes":[],"categories_segments":[],"categories_sizes":[],"default_left":[0,0,0,0,0,0,0,0,0,0,0,0,0,0,0,0,0,0,0],"id":113,"left_children":[1,-1,3,5,-1,7,9,11,13,-1,-1,15,17,-1,-1,-1,-1,-1,-1],"loss_changes":[5.389993E1,0E0,3.520912E1,2.7460613E1,0E0,1.9442585E1,