{"learner":{"attributes":{"scikit_learn":"{\"_estimator_type\": \"classifier\"}"},"feature_names":[],"feature_types":[],"gradient_booster":{"model":{"cats":{"enc":[],"feature_segments":[],"sorted_idx":[]},"gbtree_model_param":{"num_parallel_tree":"1","num_trees":"1050"},"iteration_indptr":[0,7,14,21,28,35,42,49,56,63,70,77,84,91,98,105,112,119,126,133,140,147,154,161,168,175,182,189,196,203,210,217,224,231,238,245,252,259,266,273,280,287,294,301,308,315,322,329,336,343,350,357,364,371,378,385,392,399,406,413,420,427,434,441,448,455,462,469,476,483,490,497,504,511,518,525,532,539,546,553,560,567,574,581,588,595,602,609,616,623,630,637,644,651,658,665,672,679,686,693,700,707,714,721,728,735,742,749,756,763,770,777,784,791,798,805,812,819,826,833,840,847,854,861,868,875,882,889,896,903,910,917,924,931,938,945,952,959,966,973,980,987,994,1001,1008,1015,1022,1029,1036,1043,1050],"tree_info":[0,1,2,3,4,5,6,0,1,2,3,4,5,6,0,1,2,3,4,5,6,0,1,2,3,4,5,6,0,1,2,3,4,5,6,0,1,2,3,4,5,6,0,1,2,3,4,5,6,0,1,2,3,4,5,6,0,1,2,3,4,5,6,0,1,2,3,4,5,6,0,1,2,3,4,5,6,0,1,2,3,4,5,6,0,1,2,3,4,5,6,0,1,2,3,4,5,6,0,1,2,3,4,5,6,0,1,2,3,4,5,6,0,1,2,3,4,5,6,0,1,2,3,4,5,6,0,1,2,3,4,5,6,0,1,2,3,4,5,6,0,1,2,3,4,5,6,0,1,2,3,4,5,6,0,1,2,3,4,5,6,0,1,2,3,4,5,6,0,1,2,3,4,5,6,0,1,2,3,4,5,6,0,1,2,3,4,5,6,0,1,2,3,4,5,6,0,1,2,3,4,5,6,0,1,2,3,4,5,6,0,1,2,3,4,5,6,0,1,2,3,4,5,6,0,1,2,3,4,5,6,0,1,2,3,4,5,6,0,1,2,3,4,5,6,0,1,2,3,4,5,6,0,1,2,3,4,5,6,0,1,2,3,4,5,6,0,1,2,3,4,5,6,0,1,2,3,4,5,6,0,1,2,3,4,5,6,0,1,2,3,4,5,6,0,1,2,3,4,5,6,0,1,2,3,4,5,6,0,1,2,3,4,5,6,0,1,2,3,4,5,6,0,1,2,3,4,5,6,0,1,2,3,4,5,6,0,1,2,3,4,5,6,0,1,2,3,4,5,6,0,1,2,3,4,5,6,0,1,2,3,4,5,6,0,1,2,3,4,5,6,0,1,2,3,4,5,6,0,1,2,3,4,5,6,0,1,2,3,4,5,6,0,1,2,3,4,5,6,0,1,2,3,4,5,6,0,1,2,3,4,5,6,0,1,2,3,4,5,6,0,1,2,3,4,5,6,0,1,2,3,4,5,6,0,1,2,3,4,5,6,0,1,2,3,4,5,6,0,1,2,3,4,5,6,0,1,2,3,4,5,6,0,1,2,3,4,5,6,0,1,2,3,4,5,6,0,1,2,3,4,5,6,0,1,2,3,4,5,6,0,1,2,3,4,5,6,0,1,2,3,4,5,6,0,1,2,3,4,5,6,0,1,2,3,4,5,6,0,1,2,3,4,5,6,0,1,2,3,4,5,6,0,1,2,3,4,5,6,0,1,2,3,4,5,6,0,1,2,3,4,5,6,0,1,2,3,4,5,6,0,1,2,3,4,5,6,0,1,2,3,4,5,6,0,1,2,3,4,5,6,0,1,2,3,4,5,6,0,1,2,3,4,5,6,0,1,2,3,4,5,6,0,1,2,3,4,5,6,0,1,2,3,4,5,6,0,1,2,3,4,5,6,0,1,2,3,4,5,6,0,1,2,3,4,5,6,0,1,2,3,4,5,6,0,1,2,3,4,5,6,0,1,2,3,4,5,6,0,1,2,3,4,5,6,0,1,2,3,4,5,6,0,1,2,3,4,5,6,0,1,2,3,4,5,6,0,1,2,3,4,5,6,0,1,2,3,4,5,6,0,1,2,3,4,5,6,0,1,2,3,4,5,6,0,1,2,3,4,5,6,0,1,2,3,4,5,6,0,1,2,3,4,5,6,0,1,2,3,4,5,6,0,1,2,3,4,5,6,0,1,2,3,4,5,6,0,1,2,3,4,5,6,0,1,2,3,4,5,6,0,1,2,3,4,5,6,0,1,2,3,4,5,6,0,1,2,3,4,5,6,0,1,2,3,4,5,6,0,1,2,3,4,5,6,0,1,2,3,4,5,6,0,1,2,3,4,5,6,0,1,2,3,4,5,6,0,1,2,3,4,5,6,0,1,2,3,4,5,6,0,1,2,3,4,5,6,0,1,2,3,4,5,6,0,1,2,3,4,5,6,0,1,2,3,4,5,6,0,1,2,3,4,5,6,0,1,2,3,4,5,6,0,1,2,3,4,5,6,0,1,2,3,4,5,6,0,1,2,3,4,5,6,0,1,2,3,4,5,6,0,1,2,3,4,5,6,0,1,2,3,4,5,6,0,1,2,3,4,5,6,0,1,2,3,4,5,6,0,1,2,3,4,5,6,0,1,2,3,4,5,6,0,1,2,3,4,5,6,0,1,2,3,4,5,6,0,1,2,3,4,5,6,0,1,2,3,4,5,6,0,1,2,3,4,5,6,0,1,2,3,4,5,6,0,1,2,3,4,5,6,0,1,2,3,4,5,6,0,1,2,3,4,5,6,0,1,2,3,4,5,6,0,1,2,3,4,5,6,0,1,2,3,4,5,6,0,1,2,3,4,5,6,0,1,2,3,4,5,6],"trees":[{"base_weights":[-1.5110459E-2,-5.8227856E-2,1.0603423E0,-5.7981152E-2,2.0937026E0,3.4971625E-1,-5.772675E-2],"categories":[],"categories_nodes":[],"categories_segments":[],"categories_sizes":[],"default_left":[0,0,0,0,0,0,0],"id":0,"left_children":[1,-1,3,-1,5,-1,-1],"loss_changes":[8.5527246E2,0E0,8.217857E2,0E0,1.1162323E3,0E0,0E0],"parents":[2147483647,0,0,2,2,4,4],"right_children":[2,-1,4,-1,6,-1,-1],"split_conditions":[1E0,-5.8227856E-2,1E0,-5.7981152E-2,1.493125E2,3.4971625E-1,-5.772675E-2],"split_indices":[7,0,465,0,411,0,0],"split_type":[0,0,0,0,0,0,0],"sum_hessian":[1.40016E3,9.1700964E2,4.8315036E2,1.8691574E2,2.9623462E2,1.9399219E2,1.02242424E2],"tree_param":{"num_deleted":"0","num_feature":"468","num_nodes":"7","size_leaf_vector":"1"}},{"base_weights":[5.485241E-2,-5.784383E-1,1.031587E0,1.0149502E-1,-5.819019E-1,-5.8275938E-2,2.5644178E0,-5.8421403E-2,-6.484563E-2,-5.728091E-2,3.185161E0,-4.2807393E-2,5.6867637E-2,3.4295854E-1,-5.4749973E-2],"categories":[],"categories_nodes":[],"categories_segments":[],"categories_sizes":[],"default_left":[0,0,0,0,0,0,0,0,0,0,0,0,0,0,0],"id":1,"left_children":[1,3,5,-1,7,-1,9,-1,11,-1,13,-1,-1,-1,-1],"loss_changes":[8.81988E2,5.364868E0,1.3893005E3,0E0,9.948425E-1,0E0,5.624215E2,0E0,1.3872094E0,0E0,2.21271E2,0E0,0E0,0E0,0E0],"parents":[2147483647,0,0,1,1,2,2,4,4,6,6,8,8,10,10],"right_children":[2,4,6,-1,8,-1,10,-1,12,-1,14,-1,-1,-1,-1],"split_conditions":[1.5E0,1E0,1E0,1.0149502E-1,1.92E3,-5.8275938E-2,1E0,-5.8421403E-2,1E0,-5.728091E-2,4.6001427E1,-4.2807393E-2,5.6867637E-2,3.4295854E-1,-5.4749973E-2],"split_indices":[454,466,16,0,378,0,74,0,452,0,453,0,0,0,0],"split_type":[0,0,0,0,0,0,0,0,0,0,0,0,0,0,0],"sum_hessian":[1.4239154E3,8.6407697E2,5.598385E2,1.2407768E0,8.628362E2,2.729709E2,2.8686758E2,8.5886566E2,3.9704857E0,4.7397675E1,2.3946992E2,2.729709E0,1.2407768E0,2.2482875E2,1.4641166E1],"tree_param":{"num_deleted":"0","num_feature":"468","num_nodes":"15","size_leaf_vector":"1"}},{"base_weights":[-1.44962E-2,-5.8244742E-2,3.4965777E-1],"categories":[],"categories_nodes":[],"categories_segments":[],"categories_sizes":[],"default_left":[0,0,0],"id":2,"left_children":[1,-1,-1],"loss_changes":[2.7965222E3,0E0,0E0],"parents":[2147483647,0,0],"right_children":[2,-1,-1],"split_conditions":[1.8664062E2,-5.8244742E-2,3.4965777E-1],"split_indices":[411,0,0],"split_type":[0,0,0],"sum_hessian":[1.4003636E3,1.2060992E3,1.9426447E2],"tree_param":{"num_deleted":"0","num_feature":"468","num_nodes":"3","size_leaf_vector":"1"}},{"base_weights":[-1.08146705E-2,7.6505977E-1,-5.7493126E-1,2.6138892E0,-5.8133043E-2,-3.9175943E-1,-5.797608E-1,-5.7228435E-2,3.482776E-1,5.3723514E-2,-5.1029E-1,-3.7193286E-1,-5.822826E-2,-5.5464793E-2,1.2962239E-2,1.6727445E-1,-5.2349903E-2,-3.2056063E-2,5.7980545E-2],"categories":[],"categories_nodes":[],"categories_segments":[],"categories_sizes":[],"default_left":[0,0,0,0,0,0,0,0,0,0,0,0,0,0,0,0,0,0,0],"id":3,"left_children":[1,3,5,7,-1,9,11,-1,-1,-1,13,15,-1,-1,-1,17,-1,-1,-1],"loss_changes":[6.143284E2,1.4724071E3,4.918213E-1,6.9180676E2,0E0,2.9125712E0,1.9735718E-1,0E0,0E0,0E0,6.896243E-1,1.0875733E0,0E0,0E0,0E0,8.786835E-1,0E0,0E0,0E0],"parents":[2147483647,0,0,1,1,2,2,3,3,5,5,6,6,10,10,11,11,15,15],"right_children":[2,4,6,8,-1,10,12,-1,-1,-1,14,16,-1,-1,-1,18,-1,-1,-1],"split_conditions":[2.1E0,1E0,1.00000024E-1,3E1,-5.8133043E-2,4E0,2.5E0,-5.7228435E-2,3.482776E-1,5.3723514E-2,1.636E2,1E0,-5.822826E-2,-5.5464793E-2,1.2962239E-2,9.9999905E-2,-5.2349903E-2,-3.2056063E-2,5.7980545E-2],"split_indices":[458,465,459,1,0,418,458,0,0,0,449,212,0,0,0,448,0,0,0],"split_type":[0,0,0,0,0,0,0,0,0,0,0,0,0,0,0,0,0,0,0],"sum_hessian":[1.4015853E3,5.898969E2,8.116884E2,2.4817195E2,3.4172498E2,2.296079E1,7.887276E2,5.3249496E1,1.9492247E2,2.1983736E0,2.0762417E1,1.1236132E1,7.7749146E2,1.95411E1,1.2213187E0,2.4426374E0,8.793494E0,1.2213187E0,1.2213187E0],"tree_param":{"num_deleted":"0","num_feature":"468","num_nodes":"19","size_leaf_vector":"1"}},{"base_weights":[7.9716643E-4,-5.8263768E-2,8.049431E-1,2.6716447E-1,3.4641168E-1,-5.0771827E-1,1.1183133E0,-5.65379E-1,2.5846246E-1,2.8275373E0,-5.61744E-1,1.0273639E-1,-5.771137E-1,-5.532372E-2,3.4637666E-1,5.77864E-2,-5.784228E-2,-5.8104303E-2,1.2836411E-2],"categories":[],"categories_nodes":[],"categories_segments":[],"categories_sizes":[],"default_left":[0,0,0,0,0,0,0,0,0,0,0,0,0,0,0,0,0,0,0],"id":4,"left_children":[1,-1,3,5,-1,7,9,11,-1,13,15,-1,17,-1,-1,-1,-1,-1,-1],"loss_changes":[6.60333E2,0E0,8.453656E2,3.259371E2,0E0,4.762861E1,6.7758044E2,5.358963E0,0E0,2.5326758E2,2.6065865E0,0E0,7.780762E-1,0E0,0E0,0E0,0E0,0E0,0E0],"parents":[2147483647,0,0,2,2,3,3,5,5,6,6,7,7,9,9,10,10,12,12],"right_children":[2,-1,4,6,-1,8,10,12,-1,14,16,-1,18,-1,-1,-1,-1,-1,-1],"split_conditions":[1E0,-5.8263768E-2,3.2E1,3.1625E2,3.4641168E-1,4.12825E3,1.7333333E0,-1E0,2.5846246E-1,1.493125E2,1.6E1,1.0273639E-1,1.35396E4,-5.532372E-2,3.4637666E-1,5.77864E-2,-5.784228E-2,-5.8104303E-2,1.2836411E-2],"split_indices":[465,0,1,446,0,449,457,420,0,411,448,0,448,0,0,0,0,0,0],"split_type":[0,0,0,0,0,0,0,0,0,0,0,0,0,0,0,0,0,0,0],"sum_hessian":[1.4054596E3,8.146669E2,5.9079266E2,4.9232724E2,9.846545E1,2.579207E2,2.3440656E2,2.5400166E2,3.9190228E0,1.1585611E2,1.1855044E2,1.2246946E0,2.5277698E2,1.8370419E1,9.7485695E1,1.2246946E0,1.17325745E2,2.5155228E2,1.2246946E0],"tree_param":{"num_deleted":"0","num_feature":"468","num_nodes":"19","size_leaf_vector":"1"}},{"base_weights":[-1.8184809E-2,-5.798634E-1,3.4948608E-1,-5.815154E-2,2.3510016E-3,5.8103193E-2,-4.0038403E-2],"categories":[],"categories_nodes":[],"categories_segments":[],"categories_sizes":[],"default_left":[0,0,0,0,0,0,0],"id":5,"left_children":[1,3,-1,-1,5,-1,-1],"loss_changes":[2.7647915E3,1.1631775E0,0E0,0E0,1.2612784E0,0E0,0E0],"parents":[2147483647,0,0,1,1,4,4],"right_children":[2,4,-1,-1,6,-1,-1],"split_conditions":[1E0,4E1,3.4948608E-1,-5.815154E-2,1E0,5.8103193E-2,-4.0038403E-2],"split_indices":[184,418,0,0,16,0,0],"split_type":[0,0,0,0,0,0,0],"sum_hessian":[1.3991425E3,1.2069982E3,1.9214435E2,1.2035845E3,3.413732E0,1.2191901E0,2.1945422E0],"tree_param":{"num_deleted":"0","num_feature":"468","num_nodes":"7","size_leaf_vector":"1"}},{"base_weights":[2.015352E-3,-5.8290243E-2,3.4661274E0,3.4758273E-1,1.0270877E-1],"categories":[],"categories_nodes":[],"categories_segments":[],"categories_sizes":[],"default_left":[0,0,0,0,0],"id":6,"left_children":[1,-1,3,-1,-1],"loss_changes":[2.852645E3,0E0,1.2416992E0,0E0,0E0],"parents":[2147483647,0,0,2,2],"right_children":[2,-1,4,-1,-1],"split_conditions":[1E0,-5.8290243E-2,1.7E1,3.4758273E-1,1.0270877E-1],"split_indices":[79,0,418,0,0],"split_type":[0,0,0,0,0],"sum_hessian":[1.4058678E3,1.2034895E3,2.0237833E2,2.0115327E2,1.2250504E0],"tree_param":{"num_deleted":"0","num_feature":"468","num_nodes":"5","size_leaf_vector":"1"}},{"base_weights":[-1.430405E-2,-5.7586975E-2,9.0711606E-1,-5.7329576E-2,1.6514733E0,2.496033E-1,-5.708052E-2],"categories":[],"categories_nodes":[],"categories_segments":[],"categories_sizes":[],"default_left":[0,0,0,0,0,0,0],"id":7,"left_children":[1,-1,3,-1,5,-1,-1],"loss_changes":[7.214553E2,0E0,5.8276E2,0E0,6.6130426E2,0E0,0E0],"parents":[2147483647,0,0,2,2,4,4],"right_children":[2,-1,4,-1,6,-1,-1],"split_conditions":[1E0,-5.7586975E-2,1E0,-5.7329576E-2,1.493125E2,2.496033E-1,-5.708052E-2],"split_indices":[7,0,465,0,411,0,0],"split_type":[0,0,0,0,0,0,0],"sum_hessian":[1.3922743E3,8.6529156E2,5.269827E2,1.7639336E2,3.5058942E2,2.5395325E2,9.663616E1],"tree_param":{"num_deleted":"0","num_feature":"468","num_nodes":"7","size_leaf_vector":"1"}},{"base_weights":[5.1184855E-2,-5.7155234E-1,8.854116E-1,9.619748E-2,-5.751984E-1,-5.7610232E-2,1.956641E0,-5.7762355E-2,-5.6738365E-2,-5.657738E-2,2.3259678E0,6.867153E-2,-4.3115344E-2,2.4632934E-1,-5.398349E-2],"categories":[],"categories_nodes":[],"categories_segments":[],"categories_sizes":[],"default_left":[0,0,0,0,0,0,0,0,0,0,0,0,0,0,0],"id":8,"left_children":[1,3,5,-1,7,-1,9,-1,11,-1,13,-1,-1,-1,-1],"loss_changes":[7.410428E2,5.1203003E0,9.556332E2,0E0,9.925537E-1,0E0,3.2927002E2,0E0,1.6616321E0,0E0,1.2225513E2,0E0,0E0,0E0,0E0],"parents":[2147483647,0,0,1,1,2,2,4,4,6,6,8,8,10,10],"right_children":[2,4,6,-1,8,-1,10,-1,12,-1,14,-1,-1,-1,-1],"split_conditions":[1.5E0,1E0,1E0,9.619748E-2,1.92E3,-5.7610232E-2,1E0,-5.7762355E-2,5E0,-5.657738E-2,4.6001427E1,6.867153E-2,-4.3115344E-2,2.4632934E-1,-5.398349E-2],"split_indices":[454,466,16,0,378,0,74,0,467,0,453,0,0,0,0],"split_type":[0,0,0,0,0,0,0,0,0,0,0,0,0,0,0],"sum_hessian":[1.4244688E3,8.158009E2,6.086678E2,1.3115752E0,8.144894E2,2.5763287E2,3.5103488E2,8.105837E2,3.9057014E0,4.4765453E1,3.0626944E2,1.0287908E0,2.8769104E0,2.9239853E2,1.38709135E1],"tree_param":{"num_deleted":"0","num_feature":"468","num_nodes":"15","size_leaf_vector":"1"}},{"base_weights":[-1.3689667E-2,-5.7604965E-2,2.4952343E-1],"categories":[],"categories_nodes":[],"categories_segments":[],"categories_sizes":[],"default_left":[0,0,0],"id":9,"left_children":[1,-1,-1],"loss_changes":[1.9675057E3,0E0,0E0],"parents":[2147483647,0,0],"right_children":[2,-1,-1],"split_conditions":[1.8664062E2,-5.7604965E-2,2.4952343E-1],"split_indices":[411,0,0],"split_type":[0,0,0],"sum_hessian":[1.3924672E3,1.1381322E3,2.5433498E2],"tree_param":{"num_deleted":"0","num_feature":"468","num_nodes":"3","size_leaf_vector":"1"}},{"base_weights":[-1.0222952E-2,6.7077076E-1,-5.6815106E-1,1.9846619E0,-5.7488628E-2,-3.7925857E-1,-5.7321477E-1,-5.6543674E-2,2.4876873E0,5.018324E-1,-5.010576E-1,-3.600169E-1,-5.7585657E-2,9.6755534E-2,2.4952832E-1,1.16704695E-1,-3.2532275E-2,-5.472002E-2,1.2711495E-2,1.6826569E-1,-5.1566053E-2,-3.408454E-2,6.98302E-2],"categories":[],"categories_nodes":[],"categories_segments":[],"categories_sizes":[],"default_left":[0,0,0,0,0,0,0,0,0,0,0,0,0,0,0,0,0,0,0,0,0,0,0],"id":10,"left_children":[1,3,5,7,-1,9,11,-1,13,15,17,19,-1,-1,-1,-1,-1,-1,-1,21,-1,-1,-1],"loss_changes":[5.30476E2,1.0302025E3,5.1667786E-1,3.9421814E2,0E0,2.7187636E0,2.1250916E-1,0E0,5.411377E-1,2.190955E0,6.695366E-1,1.056334E0,0E0,0E0,0E0,0E0,0E0,0E0,0E0,1.165606E0,0E0,0E0,0E0],"parents":[2147483647,0,0,1,1,2,2,3,3,5,5,6,6,8,8,9,9,10,10,11,11,19,19],"right_children":[2,4,6,8,-1,10,12,-1,14,16,18,20,-1,-1,-1,-1,-1,-1,-1,22,-1,-1,-1],"split_conditions":[2.1E0,1E0,1.00000024E-1,3E1,-5.7488628E-2,4E0,2.5E0,-5.6543674E-2,1.8E1,5.95E2,1.636E2,3.255202E2,-5.7585657E-2,9.6755534E-2,2.4952832E-1,1.16704695E-1,-3.2532275E-2,-5.472002E-2,1.2711495E-2,9.999999E-2,-5.1566053E-2,-3.408454E-2,6.98302E-2],"split_indices":[458,465,459,1,0,418,458,0,444,466,449,446,0,0,0,0,0,0,0,448,0,0,0],"split_type":[0,0,0,0,0,0,0,0,0,0,0,0,0,0,0,0,0,0,0,0,0,0,0],"sum_hessian":[1.3941866E3,6.2775793E2,7.6642865E2,3.0522266E2,3.225353E2,2.1991129E1,7.444375E2,5.0267307E1,2.5495535E2,2.2918413E0,1.9699287E1,1.079179E1,7.3364575E2,1.9059259E0,2.5304942E2,1.0425143E0,1.249327E0,1.847137E1,1.2279177E0,2.4374726E0,8.354318E0,1.4253415E0,1.012131E0],"tree_param":{"num_deleted":"0","num_feature":"468","num_nodes":"23","size_leaf_vector":"1"}},{"base_weights":[1.0578132E-3,-5.7618566E-2,7.0519114E-1,-5.030147E-1,1.417965E0,-5.5311763E-1,2.0851071E-1,2.1843257E0,-5.629499E-1,1.4651318E-1,-5.701689E-1,1.1495031E0,2.413953E0,1.9877879E-2,-5.7172727E-2,-5.744506E-2,1.9614432E-2,-6.765513E-2,2.3884664E-1,2.4395171E-1,1.4140105E0,2.0446058E-1,-5.5287927E-2,-3.900322E-2,2.0923989E-1],"categories":[],"categories_nodes":[],"categories_segments":[],"categories_sizes":[],"default_left":[0,0,0,0,0,0,0,0,0,0,0,0,0,0,0,0,0,0,0,0,0,0,0,0,0],"id":11,"left_children":[1,-1,3,5,7,9,-1,11,13,-1,15,17,19,-1,-1,-1,-1,21,-1,-1,23,-1,-1,-1,-1],"loss_changes":[5.693615E2,0E0,5.4414954E2,3.1611183E1,6.041495E2,8.792267E0,0E0,6.532153E1,8.59684E-1,0E0,8.673172E-1,8.152113E1,2.522461E0,0E0,0E0,0E0,0E0,3.0020512E1,0E0,0E0,1.0854752E1,0E0,0E0,0E0,0E0],"parents":[2147483647,0,0,2,2,3,3,4,4,5,5,7,7,8,8,10,10,11,11,12,12,17,17,20,20],"right_children":[2,-1,4,6,8,10,-1,12,14,-1,16,18,20,-1,-1,-1,-1,22,-1,-1,24,-1,-1,-1,-1],"split_conditions":[1E0,-5.7618566E-2,8.407153E1,4.12825E3,1.61375E1,3E0,2.0851071E-1,1.3294481E2,1.00000024E-1,1.4651318E-1,1E0,4.74E1,6.9125E2,1.9877879E-2,-5.7172727E-2,-5.744506E-2,1.9614432E-2,1.2404348E2,2.3884664E-1,2.4395171E-1,1.334E2,2.0446058E-1,-5.5287927E-2,-3.900322E-2,2.0923989E-1],"split_indices":[465,0,447,449,457,445,0,447,459,0,419,449,446,0,0,0,0,0,0,0,444,0,0,0,0],"split_type":[0,0,0,0,0,0,0,0,0,0,0,0,0,0,0,0,0,0,0,0,0,0,0,0,0],"sum_hessian":[1.3987943E3,7.687556E2,6.3003864E2,2.338832E2,3.9615546E2,2.3021284E2,3.670357E0,2.8557266E2,1.1058279E2,1.2171876E0,2.2899565E2,5.295143E1,2.3262125E2,1.0131308E0,1.0956966E2,2.2797224E2,1.023404E0,2.7187656E1,2.5763775E1,2.2541867E2,7.2025743E0,4.4784575E0,2.2709198E1,2.0844476E0,5.118127E0],"tree_param":{"num_deleted":"0","num_feature":"468","num_nodes":"25","size_leaf_vector":"1"}},{"base_weights":[-1.7112104E-2,-5.733541E-1,2.4948156E-1,-5.7508785E-2,8.000625E-3,5.8136195E-2,-3.971977E-2],"categories":[],"categories_nodes":[],"categories_segments":[],"categories_sizes":[],"default_left":[0,0,0,0,0,0,0],"id":12,"left_children":[1,3,-1,-1,5,-1,-1],"loss_changes":[1.9460317E3,1.1539001E0,0E0,0E0,1.2477248E0,0E0,0E0],"parents":[2147483647,0,0,1,1,4,4],"right_children":[2,4,-1,-1,6,-1,-1],"split_conditions":[1E0,4E1,2.4948156E-1,-5.7508785E-2,2.5600002E1,5.8136195E-2,-3.971977E-2],"split_indices":[184,418,0,0,444,0,0],"split_type":[0,0,0,0,0,0,0],"sum_hessian":[1.390745E3,1.1392426E3,2.5150244E2,1.1358658E3,3.3766656E0,1.2181737E0,2.1584918E0],"tree_param":{"num_deleted":"0","num_feature":"468","num_nodes":"7","size_leaf_vector":"1"}},{"base_weights":[1.8853334E-3,-5.7645507E-2,2.4802904E0,1.2730031E-2,2.4903305E-1],"categories":[],"categories_nodes":[],"categories_segments":[],"categories_sizes":[],"default_left":[0,0,0,0,0],"id":13,"left_children":[1,-1,3,-1,-1],"loss_changes":[2.0093804E3,0E0,5.9488525E0,0E0,0E0],"parents":[2147483647,0,0,2,2],"right_children":[2,-1,4,-1,-1],"split_conditions":[1E0,-5.7645507E-2,7.9428573E0,1.2730031E-2,2.4903305E-1],"split_indices":[79,0,453,0,0],"split_type":[0,0,0,0,0],"sum_hessian":[1.399868E3,1.1356333E3,2.642347E2,1.1807915E0,2.6305392E2],"tree_param":{"num_deleted":"0","num_feature":"468","num_nodes":"5","size_leaf_vector":"1"}},{"base_weights":[-1.3596356E-2,-5.7001572E-2,7.995183E-1,-5.673188E-2,1.3799385E0,1.971029E-1,-5.6488514E-2],"categories":[],"categories_nodes":[],"categories_segments":[],"categories_sizes":[],"default_left":[0,0,0,0,0,0,0],"id":14,"left_children":[1,-1,3,-1,5,-1,-1],"loss_changes":[6.224807E2,0E0,4.4425458E2,0E0,4.5250854E2,0E0,0E0],"parents":[2147483647,0,0,2,2,4,4],"right_children":[2,-1,4,-1,6,-1,-1],"split_conditions":[1E0,-5.7001572E-2,1E0,-5.673188E-2,1.493125E2,1.971029E-1,-5.6488514E-2],"split_indices":[7,0,465,0,411,0,0],"split_type":[0,0,0,0,0,0,0],"sum_hessian":[1.3738452E3,8.1585175E2,5.579934E2,1.6632819E2,3.9166525E2,3.0036252E2,9.130272E1],"tree_param":{"num_deleted":"0","num_feature":"468","num_nodes":"7","size_leaf_vector":"1"}},{"base_weights":[4.8094794E-2,-5.652244E-1,7.8173137E-1,9.0285115E-2,-5.6906015E-1,-5.6998875E-2,1.601416E0,-5.7160642E-2,-4.8326284E-2,-5.5924352E-2,1.8571923E0,-4.222031E-2,6.4476185E-2,1.9494645E-1,-5.3258028E-2],"categories":[],"categories_nodes":[],"categories_segments":[],"categories_sizes":[],"default_left":[0,0,0,0,0,0,0,0,0,0,0,0,0,0,0],"id":15,"left_children":[1,3,5,-1,7,-1,9,-1,11,-1,13,-1,-1,-1,-1],"loss_changes":[6.365801E2,4.853256E0,7.1464246E2,0E0,9.923096E-1,0E0,2.2279553E2,0E0,1.5252086E0,0E0,8.020618E1,0E0,0E0,0E0,0E0],"parents":[2147483647,0,0,1,1,2,2,4,4,6,6,8,8,10,10],"right_children":[2,4,6,-1,8,-1,10,-1,12,-1,14,-1,-1,-1,-1],"split_conditions":[1.5E0,1E0,1E0,9.0285115E-2,1.92E3,-5.6998875E-2,1E0,-5.7160642E-2,7.448485E-1,-5.5924352E-2,4.6001427E1,-4.222031E-2,6.4476185E-2,1.9494645E-1,-5.3258028E-2],"split_indices":[454,466,16,0,378,0,74,0,453,0,453,0,0,0,0],"split_type":[0,0,0,0,0,0,0,0,0,0,0,0,0,0,0],"sum_hessian":[1.412787E3,7.6961743E2,6.4316956E2,1.3948102E0,7.682226E2,2.4290536E2,4.002642E2,7.643872E2,3.8353734E0,4.224181E1,3.5802237E2,2.7452981E0,1.0900754E0,3.4488995E2,1.3132403E1],"tree_param":{"num_deleted":"0","num_feature":"468","num_nodes":"15","size_leaf_vector":"1"}},{"base_weights":[-1.3051763E-2,-5.701978E-2,1.9683985E-1],"categories":[],"categories_nodes":[],"categories_segments":[],"categories_sizes":[],"default_left":[0,0,0],"id":16,"left_children":[1,-1,-1],"loss_changes":[1.51913E3,0E0,0E0],"parents":[2147483647,0,0],"right_children":[2,-1,-1],"split_conditions":[1.8664062E2,-5.701978E-2,1.9683985E-1],"split_indices":[411,0,0],"split_type":[0,0,0],"sum_hessian":[1.3740603E3,1.073051E3,3.0100928E2],"tree_param":{"num_deleted":"0","num_feature":"468","num_nodes":"3","size_leaf_vector":"1"}},{"base_weights":[-9.71673E-3,6.013934E-1,-5.618836E-1,1.620234E0,-5.689927E-2,-3.6694086E-1,-5.671967E-1,-5.5911988E-2,1.9636649E0,4.7631934E-1,-4.9218148E-1,-3.4855253E-1,-5.6996655E-2,1.5430979E-2,1.9694734E-1,1.0656222E-1,-3.172278E-2,-5.4019134E-2,1.2422092E-2,6.762691E-2,-5.1752515E-2],"categories":[],"categories_nodes":[],"categories_segments":[],"categories_sizes":[],"default_left":[0,0,0,0,0,0,0,0,0,0,0,0,0,0,0,0,0,0,0,0,0],"id":17,"left_children":[1,3,5,7,-1,9,11,-1,13,15,17,19,-1,-1,-1,-1,-1,-1,-1,-1,-1],"loss_changes":[4.6505093E2,7.810005E2,5.4174805E-1,2.6305566E2,0E0,2.5622249E0,2.2706604E-1,0E0,2.8760986E0,1.9085816E0,6.495862E-1,2.3185754E0,0E0,0E0,0E0,0E0,0E0,0E0,0E0,0E0,0E0],"parents":[2147483647,0,0,1,1,2,2,3,3,5,5,6,6,8,8,9,9,10,10,11,11],"right_children":[2,4,6,8,-1,10,12,-1,14,16,18,20,-1,-1,-1,-1,-1,-1,-1,-1,-1],"split_conditions":[2.1E0,1E0,1.00000024E-1,3E1,-5.689927E-2,4E0,2.5E0,-5.5911988E-2,2.861023E-6,5.95E2,1.636E2,1.1E1,-5.6996655E-2,1.5430979E-2,1.9694734E-1,1.0656222E-1,-3.172278E-2,-5.4019134E-2,1.2422092E-2,6.762691E-2,-5.1752515E-2],"split_indices":[458,465,459,1,0,418,458,0,446,466,449,466,0,0,0,0,0,0,0,0,0],"split_type":[0,0,0,0,0,0,0,0,0,0,0,0,0,0,0,0,0,0,0,0,0],"sum_hessian":[1.3761936E3,6.531886E2,7.2300494E2,3.4899677E2,3.0419186E2,2.1041288E1,7.019637E2,4.742401E1,3.0157275E2,2.3584335E0,1.8682856E1,1.0368172E1,6.915955E2,1.0532436E0,3.005195E2,1.1566353E0,1.2017982E0,1.7447552E1,1.2353034E0,1.0425919E0,9.32558E0],"tree_param":{"num_deleted":"0","num_feature":"468","num_nodes":"21","size_leaf_vector":"1"}},{"base_weights":[1.440565E-3,-5.7027664E-2,6.321876E-1,-4.942573E-1,1.2056171E0,-5.461321E-1,1.7433195E-1,1.761318E0,-5.564151E-1,1.3135788E-1,-5.639504E-1,1.0024375E0,1.9148997E0,1.9165002E-2,-5.6561477E-2,-5.684496E-2,1.9005287E-2,-6.1067235E-2,1.9082144E-1,1.9308488E-1,1.2234833E0,1.7098E-1,-5.4602046E-2,-3.8124714E-2,1.7394933E-1],"categories":[],"categories_nodes":[],"categories_segments":[],"categories_sizes":[],"default_left":[0,0,0,0,0,0,0,0,0,0,0,0,0,0,0,0,0,0,0,0,0,0,0,0,0],"id":18,"left_children":[1,-1,3,5,7,9,-1,11,13,-1,15,17,19,-1,-1,-1,-1,21,-1,-1,23,-1,-1,-1,-1],"loss_changes":[4.989237E2,0E0,4.2550494E2,2.6791885E1,4.2809393E2,7.97567E0,0E0,3.6758545E1,8.3337784E-1,0E0,8.440552E-1,5.59451E1,6.6918945E-1,0E0,0E0,0E0,0E0,2.4658344E1,0E0,0E0,8.056018E0,0E0,0E0,0E0,0E0],"parents":[2147483647,0,0,2,2,3,3,4,4,5,5,7,7,8,8,10,10,11,11,12,12,17,17,20,20],"right_children":[2,-1,4,6,8,10,-1,12,14,-1,16,18,20,-1,-1,-1,-1,22,-1,-1,24,-1,-1,-1,-1],"split_conditions":[1E0,-5.7027664E-2,8.407153E1,4.12825E3,1.61375E1,3E0,1.7433195E-1,1.3294481E2,1.00000024E-1,1.3135788E-1,1E0,4.74E1,6.9125E2,1.9165002E-2,-5.6561477E-2,-5.684496E-2,1.9005287E-2,1.2404348E2,1.9082144E-1,1.9308488E-1,1.334E2,1.7098E-1,-5.4602046E-2,-3.8124714E-2,1.7394933E-1],"split_indices":[465,0,447,449,457,445,0,447,459,0,419,449,446,0,0,0,0,0,0,0,444,0,0,0,0],"split_type":[0,0,0,0,0,0,0,0,0,0,0,0,0,0,0,0,0,0,0,0,0,0,0,0,0],"sum_hessian":[1.3815592E3,7.247408E2,6.568184E2,2.2161533E2,4.352031E2,2.1733272E2,4.282597E0,3.308589E2,1.0434421E2,1.3724124E0,2.1596031E2,5.695567E1,2.7390323E2,1.0266962E0,1.03317505E2,2.1492393E2,1.0363787E0,2.662587E1,3.03298E1,2.6597528E2,7.9279413E0,5.1810217E0,2.1444847E1,1.9925394E0,5.935402E0],"tree_param":{"num_deleted":"0","num_feature":"468","num_nodes":"25","size_leaf_vector":"1"}},{"base_weights":[-1.6239803E-2,-5.673765E-1,1.9682525E0,-5.691987E-2,1.3433801E-2,6.0734797E-2,1.97124E-1,7.049448E-2,-4.051698E-2],"categories":[],"categories_nodes":[],"categories_segments":[],"categories_sizes":[],"default_left":[0,0,0,0,0,0,0,0,0],"id":19,"left_children":[1,3,5,-1,7,-1,-1,-1,-1],"loss_changes":[1.5028088E3,1.1457214E0,1.6845703E-2,0E0,1.5419271E0,0E0,0E0,0E0,0E0],"parents":[2147483647,0,0,1,1,2,2,4,4],"right_children":[2,4,6,-1,8,-1,-1,-1,-1],"split_conditions":[1E0,4E1,1E0,-5.691987E-2,1.5726191E0,6.0734797E-2,1.97124E-1,7.049448E-2,-4.051698E-2],"split_indices":[184,418,466,0,453,0,0,0,0],"split_type":[0,0,0,0,0,0,0,0,0],"sum_hessian":[1.3720049E3,1.074349E3,2.9765598E2,1.0710089E3,3.3400323E0,1.0994705E0,2.9655652E2,1.0015258E0,2.3385067E0],"tree_param":{"num_deleted":"0","num_feature":"468","num_nodes":"9","size_leaf_vector":"1"}},{"base_weights":[1.6845309E-3,-5.705614E-2,1.9585198E0,1.0848288E-2,1.9654356E-1],"categories":[],"categories_nodes":[],"categories_segments":[],"categories_sizes":[],"default_left":[0,0,0,0,0],"id":20,"left_children":[1,-1,3,-1,-1],"loss_changes":[1.5509888E3,0E0,3.7965088E0,0E0,0E0],"parents":[2147483647,0,0,2,2],"right_children":[2,-1,4,-1,-1],"split_conditions":[1E0,-5.705614E-2,7.9428573E0,1.0848288E-2,1.9654356E-1],"split_indices":[79,0,453,0,0],"split_type":[0,0,0,0,0],"sum_hessian":[1.3830719E3,1.0706775E3,3.1239447E2,1.2255526E0,3.111689E2],"tree_param":{"num_deleted":"0","num_feature":"468","num_nodes":"5","size_leaf_vector":"1"}},{"base_weights":[-1.2951453E-2,-5.6455594E-2,7.18611E-1,-5.6171685E-2,1.1935664E0,1.642998E-1,-5.5929866E-2],"categories":[],"categories_nodes":[],"categories_segments":[],"categories_sizes":[],"default_left":[0,0,0,0,0,0,0],"id":21,"left_children":[1,-1,3,-1,5,-1,-1],"loss_changes":[5.441452E2,0E0,3.5317117E2,0E0,3.3426904E2,0E0,0E0],"parents":[2147483647,0,0,2,2,4,4],"right_children":[2,-1,4,-1,6,-1,-1],"split_conditions":[1E0,-5.6455594E-2,1E0,-5.6171685E-2,1.493125E2,1.642998E-1,-5.5929866E-2],"split_indices":[7,0,465,0,411,0,0],"split_type":[0,0,0,0,0,0,0],"sum_hessian":[1.3464469E3,7.677699E2,5.7867694E2,1.5653255E2,4.2214438E2,3.3604556E2,8.609882E1],"tree_param":{"num_deleted":"0","num_feature":"468","num_nodes":"7","size_leaf_vector":"1"}},{"base_weights":[4.5453247E-2,-5.5929035E-1,7.033846E-1,8.2863554E-2,-5.633205E-1,-5.6427993E-2,1.3656733E0,-5.6599677E-2,-4.0498774E-2,-5.530501E-2,1.5585692E0,6.1451178E-2,-4.1441426E-2,1.6269156E-1,-5.2555025E-2],"categories":[],"categories_nodes":[],"categories_segments":[],"categories_sizes":[],"default_left":[0,0,0,0,0,0,0,0,0,0,0,0,0,0,0],"id":22,"left_children":[1,3,5,-1,7,-1,9,-1,11,-1,13,-1,-1,-1,-1],"loss_changes":[5.5410187E2,4.5259705E0,5.607204E2,0E0,9.9038696E-1,0E0,1.6311047E2,0E0,1.4217542E0,0E0,5.7631104E1,0E0,0E0,0E0,0E0],"parents":[2147483647,0,0,1,1,2,2,4,4,6,6,8,8,10,10],"right_children":[2,4,6,-1,8,-1,10,-1,12,-1,14,-1,-1,-1,-1],"split_conditions":[1.5E0,1E0,1E0,8.2863554E-2,1.92E3,-5.6427993E-2,1E0,-5.6599677E-2,5E0,-5.530501E-2,4.6001427E1,6.1451178E-2,-4.1441426E-2,1.6269156E-1,-5.2555025E-2],"split_indices":[454,466,16,0,378,0,74,0,467,0,453,0,0,0,0],"split_type":[0,0,0,0,0,0,0,0,0,0,0,0,0,0,0],"sum_hessian":[1.3906476E3,7.246911E2,6.659565E2,1.5058022E0,7.231853E2,2.2858246E2,4.3737405E2,7.194201E2,3.765223E0,3.978347E1,3.9759058E2,1.1344634E0,2.6307597E0,3.8517847E2,1.2412124E1],"tree_param":{"num_deleted":"0","num_feature":"468","num_nodes":"15","size_leaf_vector":"1"}},{"base_weights":[-1.2508538E-2,-5.6474227E-2,1.6394901E-1],"categories":[],"categories_nodes":[],"categories_segments":[],"categories_sizes":[],"default_left":[0,0,0],"id":23,"left_children":[1,-1,-1],"loss_changes":[1.2303655E3,0E0,0E0],"parents":[2147483647,0,0],"right_children":[2,-1,-1],"split_conditions":[1.8664062E2,-5.6474227E-2,1.6394901E-1],"split_indices":[411,0,0],"split_type":[0,0,0],"sum_hessian":[1.3466422E3,1.00975665E3,3.3688553E2],"tree_param":{"num_deleted":"0","num_feature":"468","num_nodes":"3","size_leaf_vector":"1"}},{"base_weights":[-9.311356E-3,5.473788E-1,-5.5598176E-1,1.3790509E0,-5.6348503E-2,-3.5491645E-1,-5.615586E-1,-5.5318207E-2,1.6357455E0,4.513887E-1,-4.834539E-1,-3.3647352E-1,-5.6447167E-2,1.1962212E-2,1.6403936E-1,9.754186E-2,-3.091381E-2,-5.3410646E-2,2.0574497E-2,6.332364E-2,-5.1004637E-2],"categories":[],"categories_nodes":[],"categories_segments":[],"categories_sizes":[],"default_left":[0,0,0,0,0,0,0,0,0,0,0,0,0,0,0,0,0,0,0,0,0],"id":24,"left_children":[1,3,5,7,-1,9,11,-1,13,15,17,19,-1,-1,-1,-1,-1,-1,-1,-1,-1],"loss_changes":[4.1121307E2,6.1929785E2,5.651703E-1,1.9094196E2,0E0,2.4067192E0,2.4389648E-1,0E0,2.1887817E0,1.664762E0,7.625494E-1,2.162531E0,0E0,0E0,0E0,0E0,0E0,0E0,0E0,0E0,0E0],"parents":[2147483647,0,0,1,1,2,2,3,3,5,5,6,6,8,8,9,9,10,10,11,11],"right_children":[2,4,6,8,-1,10,12,-1,14,16,18,20,-1,-1,-1,-1,-1,-1,-1,-1,-1],"split_conditions":[2.1E0,1E0,1.00000024E-1,3E1,-5.6348503E-2,4E0,2.5E0,-5.5318207E-2,3E0,5.95E2,1.644E2,1.1E1,-5.6447167E-2,1.1962212E-2,1.6403936E-1,9.754186E-2,-3.091381E-2,-5.3410646E-2,2.0574497E-2,6.332364E-2,-5.1004637E-2],"split_indices":[458,465,459,1,0,418,458,0,445,466,449,466,0,0,0,0,0,0,0,0,0],"split_type":[0,0,0,0,0,0,0,0,0,0,0,0,0,0,0,0,0,0,0,0,0],"sum_hessian":[1.3492255E3,6.6848584E2,6.807396E2,3.8214404E2,2.8634177E2,2.0116224E1,6.6062335E2,4.467842E1,3.374656E2,2.4205534E0,1.7695671E1,9.929198E0,6.5069415E2,1.1131254E0,3.363525E2,1.2658094E0,1.1547439E0,1.6693796E1,1.0018748E0,1.1053921E0,8.823807E0],"tree_param":{"num_deleted":"0","num_feature":"468","num_nodes":"21","size_leaf_vector":"1"}},{"base_weights":[1.7438795E-3,-5.647672E-2,5.7523376E-1,-4.8598105E-1,1.0545617E0,-5.3951025E-1,1.4976378E-1,1.486081E0,-5.502196E-1,1.1855729E-1,-5.580986E-1,8.922451E-1,1.5990492E0,1.8491102E-2,-5.5987664E-2,-5.628351E-2,1.8431494E-2,-5.558314E-2,1.5991786E-1,1.6102669E-1,1.0788755E0,1.4706494E-1,-5.3943474E-2,-3.7246943E-2,1.4908554E-1],"categories":[],"categories_nodes":[],"categories_segments":[],"categories_sizes":[],"default_left":[0,0,0,0,0,0,0,0,0,0,0,0,0,0,0,0,0,0,0,0,0,0,0,0,0],"id":25,"left_children":[1,-1,3,5,7,9,-1,11,13,-1,15,17,19,-1,-1,-1,-1,21,-1,-1,23,-1,-1,-1,-1],"loss_changes":[4.4105716E2,0E0,3.4367438E2,2.3168674E1,3.2285278E2,7.260639E0,0E0,2.3177124E1,8.0831146E-1,0E0,8.220749E-1,4.088254E1,5.3344727E-2,0E0,0E0,0E0,0E0,2.0714022E1,0E0,0E0,6.240612E0,0E0,0E0,0E0,0E0],"parents":[2147483647,0,0,2,2,3,3,4,4,5,5,7,7,8,8,10,10,11,11,12,12,17,17,20,20],"right_children":[2,-1,4,6,8,10,-1,12,14,-1,16,18,20,-1,-1,-1,-1,22,-1,-1,24,-1,-1,-1,-1],"split_conditions":[1E0,-5.647672E-2,8.407153E1,4.12825E3,1.61375E1,3E0,1.4976378E-1,1.3294481E2,1.00000024E-1,1.1855729E-1,1E0,4.74E1,6.9125E2,1.8491102E-2,-5.5987664E-2,-5.628351E-2,1.8431494E-2,1.2404348E2,1.5991786E-1,1.6102669E-1,1.334E2,1.4706494E-1,-5.3943474E-2,-3.7246943E-2,1.4908554E-1],"split_indices":[465,0,447,449,457,445,0,447,459,0,419,449,446,0,0,0,0,0,0,0,444,0,0,0,0],"split_type":[0,0,0,0,0,0,0,0,0,0,0,0,0,0,0,0,0,0,0,0,0,0,0,0,0],"sum_hessian":[1.3555653E3,6.819396E2,6.736258E2,2.0958914E2,4.6403665E2,2.0479074E2,4.7983913E0,3.6575937E2,9.8277275E1,1.513895E0,2.0327686E2,5.988137E1,3.0587802E2,1.0389673E0,9.723831E1,2.0222855E2,1.048306E0,2.5975641E1,3.390573E1,2.973696E2,8.508414E0,5.7617283E0,2.0213913E1,1.9024086E0,6.6060057E0],"tree_param":{"num_deleted":"0","num_feature":"468","num_nodes":"25","size_leaf_vector":"1"}},{"base_weights":[-1.544966E-2,-5.617785E-1,1.6396728E-1,-5.636977E-2,2.009397E-2,6.6679224E-2,-3.966579E-2],"categories":[],"categories_nodes":[],"categories_segments":[],"categories_sizes":[],"default_left":[0,0,0,0,0,0,0],"id":26,"left_children":[1,3,-1,-1,5,-1,-1],"loss_changes":[1.217427E3,1.1416931E0,0E0,0E0,1.421567E0,0E0,0E0],"parents":[2147483647,0,0,1,1,4,4],"right_children":[2,4,-1,-1,6,-1,-1],"split_conditions":[1E0,4E1,1.6396728E-1,-5.636977E-2,1.330625E2,6.6679224E-2,-3.966579E-2],"split_indices":[184,418,0,0,414,0,0],"split_type":[0,0,0,0,0,0,0],"sum_hessian":[1.3443336E3,1.0112102E3,3.3312335E2,1.007917E3,3.2932248E0,1.0554489E0,2.237776E0],"tree_param":{"num_deleted":"0","num_feature":"468","num_nodes":"7","size_leaf_vector":"1"}},{"base_weights":[1.506095E-3,-5.650682E-2,1.63215E0,9.123074E-3,1.63748E-1],"categories":[],"categories_nodes":[],"categories_segments":[],"categories_sizes":[],"default_left":[0,0,0,0,0],"id":27,"left_children":[1,-1,3,-1,-1],"loss_changes":[1.2554723E3,0E0,2.7285156E0,0E0,0E0],"parents":[2147483647,0,0,2,2],"right_children":[2,-1,4,-1,-1],"split_conditions":[1E0,-5.650682E-2,7.9428573E0,9.123074E-3,1.63748E-1],"split_indices":[79,0,453,0,0],"split_type":[0,0,0,0,0],"sum_hessian":[1.3569131E3,1.0075047E3,3.494084E2,1.2668641E0,3.4814154E2],"tree_param":{"num_deleted":"0","num_feature":"468","num_nodes":"5","size_leaf_vector":"1"}},{"base_weights":[-1.23547735E-2,-5.5944044E-2,6.554482E-1,-5.5643767E-2,1.057462E0,1.4182033E-1,-5.5400174E-2],"categories":[],"categories_nodes":[],"categories_segments":[],"categories_sizes":[],"default_left":[0,0,0,0,0,0,0],"id":28,"left_children":[1,-1,3,-1,5,-1,-1],"loss_changes":[4.7983514E2,0E0,2.8873682E2,0E0,2.5916162E2,0E0,0E0],"parents":[2147483647,0,0,2,2,4,4],"right_children":[2,-1,4,-1,6,-1,-1],"split_conditions":[1E0,-5.5944044E-2,1E0,-5.5643767E-2,1.493125E2,1.4182033E-1,-5.5400174E-2],"split_indices":[7,0,465,0,411,0,0],"split_type":[0,0,0,0,0,0,0],"sum_hessian":[1.3113702E3,7.2092645E2,5.9044385E2,1.4698073E2,4.434631E2,3.6244608E2,8.101703E1],"tree_param":{"num_deleted":"0","num_feature":"468","num_nodes":"7","size_leaf_vector":"1"}},{"base_weights":[4.317468E-2,-5.536837E-1,6.4197993E-1,7.759553E-2,-5.579294E-1,-5.5892076E-2,1.1975011E0,-5.6074616E-2,-3.3089705E-2,-5.4714687E-2,1.3513381E0,-4.0540706E-2,5.7716858E-2,1.4052348E-1,-5.1868208E-2],"categories":[],"categories_nodes":[],"categories_segments":[],"categories_sizes":[],"default_left":[0,0,0,0,0,0,0,0,0,0,0,0,0,0,0],"id":29,"left_children":[1,3,5,-1,7,-1,9,-1,11,-1,13,-1,-1,-1,-1],"loss_changes":[4.866008E2,4.282379E0,4.5405167E2,0E0,9.8716736E-1,0E0,1.2553552E2,0E0,1.3005898E0,0E0,4.3824524E1,0E0,0E0,0E0,0E0],"parents":[2147483647,0,0,1,1,2,2,4,4,6,6,8,8,10,10],"right_children":[2,4,6,-1,8,-1,10,-1,12,-1,14,-1,-1,-1,-1],"split_conditions":[1.5E0,1E0,1E0,7.759553E-2,1.92E3,-5.5892076E-2,1E0,-5.6074616E-2,7.448485E-1,-5.4714687E-2,4.6001427E1,-4.0540706E-2,5.7716858E-2,1.4052348E-1,-5.1868208E-2],"split_indices":[454,466,16,0,378,0,74,0,453,0,453,0,0,0,0],"split_type":[0,0,0,0,0,0,0,0,0,0,0,0,0,0,0],"sum_hessian":[1.3595001E3,6.808946E2,6.786055E2,1.5887066E0,6.7930585E2,2.1462746E2,4.6397806E2,6.756115E2,3.6943471E0,3.7389656E1,4.265884E2,2.50297E0,1.1913772E0,4.1487955E2,1.1708846E1],"tree_param":{"num_deleted":"0","num_feature":"468","num_nodes":"15","size_leaf_vector":"1"}},{"base_weights":[-1.2043756E-2,-5.596326E-2,1.4141767E-1],"categories":[],"categories_nodes":[],"categories_segments":[],"categories_sizes":[],"default_left":[0,0,0],"id":30,"left_children":[1,-1,-1],"loss_changes":[1.0258313E3,0E0,0E0],"parents":[2147483647,0,0],"right_children":[2,-1,-1],"split_conditions":[1.8664062E2,-5.596326E-2,1.4141767E-1],"split_indices":[411,0,0],"split_type":[0,0,0],"sum_hessian":[1.311501E3,9.480936E2,3.6340732E2],"tree_param":{"num_deleted":"0","num_feature":"468","num_nodes":"3","size_leaf_vector":"1"}},{"base_weights":[-8.964621E-3,5.0413924E-1,-5.5039805E-1,1.2075865E0,-5.583131E-2,-3.4301108E-1,-5.5625606E-1,-5.4749418E-2,1.4109756E0,4.274362E-1,-4.7473076E-1,-3.2448822E-1,-5.593236E-2,1.0613504E-2,1.41476E-1,-3.3907454E-2,1.110382E-1,-5.27592E-2,1.9938005E-2,5.934423E-2,-5.0266232E-2],"categories":[],"categories_nodes":[],"categories_segments":[],"categories_sizes":[],"default_left":[0,0,0,0,0,0,0,0,0,0,0,0,0,0,0,0,0,0,0,0,0],"id":31,"left_children":[1,3,5,7,-1,9,11,-1,13,15,17,19,-1,-1,-1,-1,-1,-1,-1,-1,-1],"loss_changes":[3.6574176E2,5.0586353E2,5.873871E-1,1.4605676E2,0E0,2.253404E0,2.6028442E-1,0E0,1.6523438E0,2.1962657E0,7.369511E-1,2.0153065E0,0E0,0E0,0E0,0E0,0E0,0E0,0E0,0E0,0E0],"parents":[2147483647,0,0,1,1,2,2,3,3,5,5,6,6,8,8,9,9,10,10,11,11],"right_children":[2,4,6,8,-1,10,12,-1,14,16,18,20,-1,-1,-1,-1,-1,-1,-1,-1,-1],"split_conditions":[2.1E0,1E0,1.00000024E-1,3E1,-5.583131E-2,4E0,2.5E0,-5.4749418E-2,3E0,3E1,1.644E2,1.1E1,-5.593236E-2,1.0613504E-2,1.41476E-1,-3.3907454E-2,1.110382E-1,-5.27592E-2,1.9938005E-2,5.934423E-2,-5.0266232E-2],"split_indices":[458,465,459,1,0,418,458,0,445,1,449,466,0,0,0,0,0,0,0,0,0],"split_type":[0,0,0,0,0,0,0,0,0,0,0,0,0,0,0,0,0,0,0,0,0],"sum_hessian":[1.3145112E3,6.749478E2,6.395634E2,4.0599973E2,2.689481E2,1.920521E1,6.203582E2,4.198778E1,3.6401193E2,2.4762464E0,1.6728964E1,9.49826E0,6.108599E2,1.1366777E0,3.6287524E2,1.4039836E0,1.0722626E0,1.5714076E1,1.0148875E0,1.1651038E0,8.333156E0],"tree_param":{"num_deleted":"0","num_feature":"468","num_nodes":"21","size_leaf_vector":"1"}},{"base_weights":[2.0088747E-3,-5.5960573E-2,5.2949566E-1,-4.7811347E-1,9.4139326E-1,-5.331946E-1,1.3139449E-1,1.2923241E0,-5.4430217E-1,1.0772326E-1,-5.5255806E-1,7.063101E-1,1.3653221E0,1.7862799E-2,-5.5445738E-2,-5.5765044E-2,1.7816572E-2,-3.4007296E-1,1.3942571E-1,1.3720605E0,-3.3476025E-2,9.513657E-2,-5.308227E-2,1.4235783E-1,1.2499553E-1],"categories":[],"categories_nodes":[],"categories_segments":[],"categories_sizes":[],"default_left":[0,0,0,0,0,0,0,0,0,0,0,0,0,0,0,0,0,0,0,0,0,0,0,0,0],"id":32,"left_children":[1,-1,3,5,7,9,-1,11,13,-1,15,17,19,-1,-1,-1,-1,21,-1,23,-1,-1,-1,-1,-1],"loss_changes":[3.9221597E2,0E0,2.8380164E2,2.032074E1,2.5354697E2,6.630886E0,0E0,1.5829773E1,7.8448486E-1,0E0,8.13488E-1,3.3269615E1,4.446289E0,0E0,0E0,0E0,0E0,5.1547785E0,0E0,4.0252686E-1,0E0,0E0,0E0,0E0,0E0],"parents":[2147483647,0,0,2,2,3,3,4,4,5,5,7,7,8,8,10,10,11,11,12,12,17,17,19,19],"right_children":[2,-1,4,6,8,10,-1,12,14,-1,16,18,20,-1,-1,-1,-1,22,-1,24,-1,-1,-1,-1,-1],"split_conditions":[1E0,-5.5960573E-2,8.407153E1,4.12825E3,1.61375E1,3E0,1.3139449E-1,1.2199986E2,1.00000024E-1,1.0772326E-1,4.0000004E-1,9E0,1E0,1.7862799E-2,-5.5445738E-2,-5.5765044E-2,1.7816572E-2,1.2404348E2,1.3942571E-1,9E0,-3.3476025E-2,9.513657E-2,-5.308227E-2,1.4235783E-1,1.2499553E-1],"split_indices":[465,0,447,449,457,445,0,447,459,0,455,466,461,0,0,0,0,0,0,418,0,0,0,0,0],"split_type":[0,0,0,0,0,0,0,0,0,0,0,0,0,0,0,0,0,0,0,0,0,0,0,0,0],"sum_hessian":[1.3219613E3,6.4023883E2,6.817225E2,1.9776846E2,4.83954E2,1.9255258E2,5.2158723E0,3.9158844E2,9.236556E1,1.6386303E0,1.9091396E2,4.4558372E1,3.470301E2,1.0496985E0,9.1315865E1,1.8982791E2,1.0860453E0,1.78753E1,2.6683073E1,3.458522E2,1.1778698E0,1.7872851E0,1.6088015E1,2.357344E2,1.101178E2],"tree_param":{"num_deleted":"0","num_feature":"468","num_nodes":"25","size_leaf_vector":"1"}},{"base_weights":[-1.4776433E-2,-5.5651087E-1,1.414302E-1,-5.5853534E-2,2.6430303E-2,6.4833276E-2,-3.9057206E-2],"categories":[],"categories_nodes":[],"categories_segments":[],"categories_sizes":[],"default_left":[0,0,0,0,0,0,0],"id":33,"left_children":[1,3,-1,-1,5,-1,-1],"loss_changes":[1.0150405E3,1.1367493E0,0E0,0E0,1.3541007E0,0E0,0E0],"parents":[2147483647,0,0,1,1,4,4],"right_children":[2,4,-1,-1,6,-1,-1],"split_conditions":[1E0,4E1,1.414302E-1,-5.5853534E-2,1.5726191E0,6.4833276E-2,-3.9057206E-2],"split_indices":[184,418,0,0,453,0,0],"split_type":[0,0,0,0,0,0,0],"sum_hessian":[1.3090986E3,9.496981E2,3.5940054E2,9.4645306E2,3.2450154E0,1.079838E0,2.1651773E0],"tree_param":{"num_deleted":"0","num_feature":"468","num_nodes":"7","size_leaf_vector":"1"}},{"base_weights":[1.341831E-3,-5.599242E-2,1.408286E0,7.5022555E-3,1.4127113E-1],"categories":[],"categories_nodes":[],"categories_segments":[],"categories_sizes":[],"default_left":[0,0,0,0,0],"id":34,"left_children":[1,-1,3,-1,-1],"loss_changes":[1.0460935E3,0E0,2.1229858E0,0E0,0E0],"parents":[2147483647,0,0,2,2],"right_children":[2,-1,4,-1,-1],"split_conditions":[1E0,-5.599242E-2,7.9428573E0,7.5022555E-3,1.4127113E-1],"split_indices":[79,0,453,0,0],"split_type":[0,0,0,0,0],"sum_hessian":[1.3227241E3,9.45959E2,3.767652E2,1.3057966E0,3.754594E2],"tree_param":{"num_deleted":"0","num_feature":"468","num_nodes":"5","size_leaf_vector":"1"}},{"base_weights":[-1.1742947E-2,-5.546481E-2,6.050051E-1,-5.5146035E-2,9.540777E-1,1.2552325E-1,-5.4900784E-2],"categories":[],"categories_nodes":[],"categories_segments":[],"categories_sizes":[],"default_left":[0,0,0,0,0,0,0],"id":35,"left_children":[1,-1,3,-1,5,-1,-1],"loss_changes":[4.2586972E2,0E0,2.4090485E2,0E0,2.0789868E2,0E0,0E0],"parents":[2147483647,0,0,2,2,4,4],"right_children":[2,-1,4,-1,6,-1,-1],"split_conditions":[1E0,-5.546481E-2,1E0,-5.5146035E-2,1.493125E2,1.2552325E-1,-5.4900784E-2],"split_indices":[7,0,465,0,411,0,0],"split_type":[0,0,0,0,0,0,0],"sum_hessian":[1.2698746E3,6.754215E2,5.9445306E2,1.376949E2,4.5675815E2,3.806557E2,7.610245E1],"tree_param":{"num_deleted":"0","num_feature":"468","num_nodes":"7","size_leaf_vector":"1"}},{"base_weights":[4.1172583E-2,-5.483831E-1,5.9264666E-1,7.2894834E-2,-5.5286205E-1,-5.538827E-2,1.0716952E0,-5.558302E-2,-2.6109785E-2,-5.4149467E-2,1.1993566E0,-4.0879782E-2,6.7881815E-2,1.2437674E-1,-5.1192183E-2],"categories":[],"categories_nodes":[],"categories_segments":[],"categories_sizes":[],"default_left":[0,0,0,0,0,0,0,0,0,0,0,0,0,0,0],"id":36,"left_children":[1,3,5,-1,7,-1,9,-1,11,-1,13,-1,-1,-1,-1],"loss_changes":[4.300569E2,4.060684E0,3.7595163E2,0E0,9.824524E-1,0E0,9.998633E1,0E0,1.5244387E0,0E0,3.4630615E1,0E0,0E0,0E0,0E0],"parents":[2147483647,0,0,1,1,2,2,4,4,6,6,8,8,10,10],"right_children":[2,4,6,-1,8,-1,10,-1,12,-1,14,-1,-1,-1,-1],"split_conditions":[1.5E0,1E0,1E0,7.2894834E-2,1.92E3,-5.538827E-2,1E0,-5.558302E-2,1.1285714E0,-5.4149467E-2,4.6001427E1,-4.0879782E-2,6.7881815E-2,1.2437674E-1,-5.1192183E-2],"split_indices":[454,466,16,0,378,0,74,0,453,0,453,0,0,0,0],"split_type":[0,0,0,0,0,0,0,0,0,0,0,0,0,0,0],"sum_hessian":[1.3207449E3,6.383353E2,6.8240955E2,1.6652858E0,6.3667004E2,2.0105615E2,4.8135336E2,6.330478E2,3.6222744E0,3.5061256E1,4.462921E2,2.620017E0,1.0022571E0,4.352693E2,1.1022844E1],"tree_param":{"num_deleted":"0","num_feature":"468","num_nodes":"15","size_leaf_vector":"1"}},{"base_weights":[-1.165543E-2,-5.5484664E-2,1.250462E-1],"categories":[],"categories_nodes":[],"categories_segments":[],"categories_sizes":[],"default_left":[0,0,0],"id":37,"left_children":[1,-1,-1],"loss_changes":[8.719747E2,0E0,0E0],"parents":[2147483647,0,0],"right_children":[2,-1,-1],"split_conditions":[1.8664062E2,-5.5484664E-2,1.250462E-1],"split_indices":[411,0,0],"split_type":[0,0,0],"sum_hessian":[1.2698834E3,8.8818567E2,3.8169778E2],"tree_param":{"num_deleted":"0","num_feature":"468","num_nodes":"3","size_leaf_vector":"1"}},{"base_weights":[-8.6789E-3,4.6883595E-1,-5.45114E-1,1.0795739E0,-5.5343866E-2,-3.3107084E-1,-5.51271E-1,-5.4206412E-2,1.2475588E0,4.0860882E-1,-4.659869E-1,-3.133598E-1,-5.545018E-2,8.249582E-3,1.250916E-1,-3.301136E-2,1.019035E-1,-5.212265E-2,1.9379359E-2,5.5687238E-2,-4.957227E-2],"categories":[],"categories_nodes":[],"categories_segments":[],"categories_sizes":[],"default_left":[0,0,0,0,0,0,0,0,0,0,0,0,0,0,0,0,0,0,0,0,0],"id":38,"left_children":[1,3,5,7,-1,9,11,-1,13,15,17,19,-1,-1,-1,-1,-1,-1,-1,-1,-1],"loss_changes":[3.266697E2,4.2184192E2,6.08963E-1,1.15825806E2,0E0,2.116071E0,2.738037E-1,0E0,1.3960571E0,1.9189397E0,7.1282244E-1,1.8790132E0,0E0,0E0,0E0,0E0,0E0,0E0,0E0,0E0,0E0],"parents":[2147483647,0,0,1,1,2,2,3,3,5,5,6,6,8,8,9,9,10,10,11,11],"right_children":[2,4,6,8,-1,10,12,-1,14,16,18,20,-1,-1,-1,-1,-1,-1,-1,-1,-1],"split_conditions":[2.1E0,1E0,1.00000024E-1,3E1,-5.5343866E-2,4E0,2.5E0,-5.4206412E-2,2.861023E-6,3E1,1.644E2,1.1E1,-5.545018E-2,8.249582E-3,1.250916E-1,-3.301136E-2,1.019035E-1,-5.212265E-2,1.9379359E-2,5.5687238E-2,-4.957227E-2],"split_indices":[458,465,459,1,0,418,458,0,446,1,449,466,0,0,0,0,0,0,0,0,0],"split_type":[0,0,0,0,0,0,0,0,0,0,0,0,0,0,0,0,0,0,0,0,0],"sum_hessian":[1.27328E3,6.737016E2,5.995784E2,4.2170575E2,2.519959E2,1.8296272E1,5.8128217E2,3.9374844E1,3.823309E2,2.509466E0,1.5786807E1,9.100684E0,5.721815E2,1.1719675E0,3.8115894E2,1.343185E0,1.1662809E0,1.4760959E1,1.0258489E0,1.220904E0,7.87978E0],"tree_param":{"num_deleted":"0","num_feature":"468","num_nodes":"21","size_leaf_vector":"1"}},{"base_weights":[2.245235E-3,-5.5476792E-2,4.9172577E-1,-4.7060844E-1,8.528696E-1,-5.2714574E-1,1.1722268E-1,1.1475879E0,-5.386305E-1,9.8512314E-2,-5.472891E-1,7.309907E-1,1.2213875E0,1.7280316E-2,-5.4932922E-2,-5.526022E-2,1.9044008E-2,-5.7330795E-2,1.22923054E-1,1.2297348E-1,8.3653027E-1,1.1531756E-1,-5.2950848E-2,-3.778301E-2,1.15882866E-1],"categories":[],"categories_nodes":[],"categories_segments":[],"categories_sizes":[],"default_left":[0,0,0,0,0,0,0,0,0,0,0,0,0,0,0,0,0,0,0,0,0,0,0,0,0],"id":39,"left_children":[1,-1,3,5,7,9,-1,11,13,-1,15,17,19,-1,-1,-1,-1,21,-1,-1,23,-1,-1,-1,-1],"loss_changes":[3.5015656E2,0E0,2.3797311E2,1.8003117E1,2.046034E2,6.0722313E0,0E0,1.1736694E1,7.6181984E-1,0E0,8.1035614E-1,2.5329575E1,8.758545E-2,0E0,0E0,0E0,0E0,1.5391693E1,0E0,0E0,4.548951E0,0E0,0E0,0E0,0E0],"parents":[2147483647,0,0,2,2,3,3,4,4,5,5,7,7,8,8,10,10,11,11,12,12,17,17,20,20],"right_children":[2,-1,4,6,8,10,-1,12,14,-1,16,18,20,-1,-1,-1,-1,22,-1,-1,24,-1,-1,-1,-1],"split_conditions":[1E0,-5.5476792E-2,8.407153E1,4.12825E3,1.61375E1,3E0,1.1722268E-1,1.3294481E2,1.00000024E-1,9.8512314E-2,1E0,4.74E1,6.9125E2,1.7280316E-2,-5.4932922E-2,-5.526022E-2,1.9044008E-2,1.2404348E2,1.22923054E-1,1.2297348E-1,1.334E2,1.1531756E-1,-5.2950848E-2,-3.778301E-2,1.15882866E-1],"split_indices":[465,0,447,449,457,445,0,447,459,0,419,449,446,0,0,0,0,0,0,0,444,0,0,0,0],"split_type":[0,0,0,0,0,0,0,0,0,0,0,0,0,0,0,0,0,0,0,0,0,0,0,0,0],"sum_hessian":[1.2822843E3,5.997054E2,6.825789E2,1.8617589E2,4.96403E2,1.8063843E2,5.5374537E0,4.0978604E2,8.661699E1,1.7447472E0,1.7889368E2,6.3309647E1,3.4647638E2,1.0587927E0,8.55582E1,1.7786365E2,1.0300336E0,2.4860296E1,3.8449352E1,3.369724E2,9.503967E0,6.5713344E0,1.8288961E1,1.9572216E0,7.546746E0],"tree_param":{"num_deleted":"0","num_feature":"468","num_nodes":"25","size_leaf_vector":"1"}},{"base_weights":[-1.4196575E-2,-5.5154854E-1,1.2504499E-1,-5.5368777E-2,3.2660246E-2,6.138401E-2,-3.81824E-2],"categories":[],"categories_nodes":[],"categories_segments":[],"categories_sizes":[],"default_left":[0,0,0,0,0,0,0],"id":40,"left_children":[1,3,-1,-1,5,-1,-1],"loss_changes":[8.627029E2,1.1315613E0,0E0,0E0,1.2448508E0,0E0,0E0],"parents":[2147483647,0,0,1,1,4,4],"right_children":[2,4,-1,-1,6,-1,-1],"split_conditions":[1E0,4E1,1.2504499E-1,-5.5368777E-2,1.330625E2,6.138401E-2,-3.81824E-2],"split_indices":[184,418,0,0,414,0,0],"split_type":[0,0,0,0,0,0,0],"sum_hessian":[1.2674869E3,8.8992084E2,3.775661E2,8.867261E2,3.1947455E0,1.1297141E0,2.0650313E0],"tree_param":{"num_deleted":"0","num_feature":"468","num_nodes":"7","size_leaf_vector":"1"}},{"base_weights":[1.1716293E-3,-5.551065E-2,1.2454302E0,5.985063E-3,1.24930434E-1],"categories":[],"categories_nodes":[],"categories_segments":[],"categories_sizes":[],"default_left":[0,0,0,0,0],"id":41,"left_children":[1,-1,3,-1,-1],"loss_changes":[8.8857806E2,0E0,1.7469482E0,0E0,0E0],"parents":[2147483647,0,0,2,2],"right_children":[2,-1,4,-1,-1],"split_conditions":[1E0,-5.551065E-2,7.9428573E0,5.985063E-3,1.24930434E-1],"split_indices":[79,0,453,0,0],"split_type":[0,0,0,0,0],"sum_hessian":[1.281788E3,8.861607E2,3.9562732E2,1.342145E0,3.9428516E2],"tree_param":{"num_deleted":"0","num_feature":"468","num_nodes":"5","size_leaf_vector":"1"}},{"base_weights":[-1.1224682E-2,-5.501554E-2,5.6364983E-1,-5.4677237E-2,8.7279135E-1,1.1313826E-1,-5.4422554E-2],"categories":[],"categories_nodes":[],"categories_segments":[],"categories_sizes":[],"default_left":[0,0,0,0,0,0,0],"id":42,"left_children":[1,-1,3,-1,5,-1,-1],"loss_changes":[3.7955493E2,0E0,2.03968E2,0E0,1.7066788E2,0E0,0E0],"parents":[2147483647,0,0,2,2,4,4],"right_children":[2,-1,4,-1,6,-1,-1],"split_conditions":[1E0,-5.501554E-2,1E0,-5.4677237E-2,1.493125E2,1.1313826E-1,-5.4422554E-2],"split_indices":[7,0,465,0,411,0,0],"split_type":[0,0,0,0,0,0,0],"sum_hessian":[1.2230908E3,6.313029E2,5.9178796E2,1.2870757E2,4.630804E2,3.9178516E2,7.1295265E1],"tree_param":{"num_deleted":"0","num_feature":"468","num_nodes":"7","size_leaf_vector":"1"}},{"base_weights":[3.9427366E-2,-5.433634E-1,5.5225474E-1,6.868639E-2,-5.480956E-1,-5.4915097E-2,9.7432953E-1,-5.5122625E-2,-1.8358827E-2,-5.3607058E-2,1.0834796E0,-3.9950784E-2,6.360551E-2,1.1212961E-1,-5.0527163E-2],"categories":[],"categories_nodes":[],"categories_segments":[],"categories_sizes":[],"default_left":[0,0,0,0,0,0,0,0,0,0,0,0,0,0,0],"id":43,"left_children":[1,3,5,-1,7,-1,9,-1,11,-1,13,-1,-1,-1,-1],"loss_changes":[3.8185004E2,3.8582153E0,3.1645343E2,0E0,9.788208E-1,0E0,8.1636475E1,0E0,1.3859987E0,0E0,2.813507E1,0E0,0E0,0E0,0E0],"parents":[2147483647,0,0,1,1,2,2,4,4,6,6,8,8,10,10],"right_children":[2,4,6,-1,8,-1,10,-1,12,-1,14,-1,-1,-1,-1],"split_conditions":[1.5E0,1E0,1E0,6.868639E-2,1.92E3,-5.4915097E-2,1E0,-5.5122625E-2,1.1285714E0,-5.3607058E-2,4.6001427E1,-3.9950784E-2,6.360551E-2,1.1212961E-1,-5.0527163E-2],"split_indices":[454,466,16,0,378,0,74,0,453,0,453,0,0,0,0],"split_type":[0,0,0,0,0,0,0,0,0,0,0,0,0,0,0],"sum_hessian":[1.2756376E3,5.970614E2,6.785761E2,1.7355202E0,5.9532587E2,1.8791367E2,4.9066245E2,5.9178796E2,3.5379195E0,3.2804745E1,4.578577E2,2.4819062E0,1.0560135E0,4.4750027E2,1.0357442E1],"tree_param":{"num_deleted":"0","num_feature":"468","num_nodes":"15","size_leaf_vector":"1"}},{"base_weights":[-1.1322183E-2,-5.5036522E-2,1.1264473E-1],"categories":[],"categories_nodes":[],"categories_segments":[],"categories_sizes":[],"default_left":[0,0,0],"id":44,"left_children":[1,-1,-1],"loss_changes":[7.512596E2,0E0,0E0],"parents":[2147483647,0,0],"right_children":[2,-1,-1],"split_conditions":[1.8664062E2,-5.5036522E-2,1.1264473E-1],"split_indices":[411,0,0],"split_type":[0,0,0],"sum_hessian":[1.222922E3,8.30141E2,3.9278107E2],"tree_param":{"num_deleted":"0","num_feature":"468","num_nodes":"3","size_leaf_vector":"1"}},{"base_weights":[-8.433003E-3,4.3943968E-1,-5.400983E-1,9.806422E-1,-5.48872E-2,-3.1940705E-1,-5.465693E-1,-5.368654E-2,1.1237532E0,3.9039308E-1,-4.5724788E-1,-3.0156755E-1,-5.4997977E-2,6.9502345E-3,1.1267692E-1,-3.211166E-2,9.388571E-2,-5.150147E-2,1.8831072E-2,5.2300937E-2,-4.884508E-2],"categories":[],"categories_nodes":[],"categories_segments":[],"categories_sizes":[],"default_left":[0,0,0,0,0,0,0,0,0,0,0,0,0,0,0,0,0,0,0,0,0],"id":45,"left_children":[1,3,5,7,-1,9,11,-1,13,15,17,19,-1,-1,-1,-1,-1,-1,-1,-1,-1],"loss_changes":[2.925698E2,3.5724728E2,6.277008E-1,9.42659E1,0E0,1.9796245E0,2.889862E-1,0E0,1.1758423E0,1.6802065E0,6.8902445E-1,1.7483399E0,0E0,0E0,0E0,0E0,0E0,0E0,0E0,0E0,0E0],"parents":[2147483647,0,0,1,1,2,2,3,3,5,5,6,6,8,8,9,9,10,10,11,11],"right_children":[2,4,6,8,-1,10,12,-1,14,16,18,20,-1,-1,-1,-1,-1,-1,-1,-1,-1],"split_conditions":[2.1E0,1E0,1.00000024E-1,3E1,-5.48872E-2,4E0,2.5E0,-5.368654E-2,3E0,3E1,1.644E2,1.1E1,-5.4997977E-2,6.9502345E-3,1.1267692E-1,-3.211166E-2,9.388571E-2,-5.150147E-2,1.8831072E-2,5.2300937E-2,-4.884508E-2],"split_indices":[458,465,459,1,0,418,458,0,445,1,449,466,0,0,0,0,0,0,0,0,0],"split_type":[0,0,0,0,0,0,0,0,0,0,0,0,0,0,0,0,0,0,0,0,0],"sum_hessian":[1.226677E3,6.658995E2,5.607775E2,4.30283E2,2.3561652E2,1.7408918E1,5.433686E2,3.684439E1,3.934386E2,2.533039E0,1.4875879E1,8.687733E0,5.346809E2,1.1909012E0,3.9224768E2,1.283065E0,1.2499741E0,1.3839675E1,1.0362041E0,1.2728777E0,7.4148555E0],"tree_param":{"num_deleted":"0","num_feature":"468","num_nodes":"21","size_leaf_vector":"1"}},{"base_weights":[2.4771388E-3,-5.5023797E-2,4.6054286E-1,-4.6345648E-1,7.8288656E-1,-5.266642E-1,9.497601E-1,1.0371672E0,-5.3318167E-1,-5.422474E-1,7.755374E-2,1.0600811E-1,1.481356E-2,6.7631376E-1,1.0994072E0,1.6741341E-2,-5.4447323E-2,-5.4800104E-2,1.9344805E-2,-5.3320244E-2,1.1070635E0,1.1042827E0,-3.1796224E-2,1.0450708E-1,-5.233252E-2,1.1231092E-1,3.7290767E-2,1.1114309E-1,7.680277E-2],"categories":[],"categories_nodes":[],"categories_segments":[],"categories_sizes":[],"default_left":[0,0,0,0,0,0,0,0,0,0,0,0,0,0,0,0,0,0,0,0,0,0,0,0,0,0,0,0,0],"id":46,"left_children":[1,-1,3,5,7,9,11,13,15,17,-1,-1,-1,19,21,-1,-1,-1,-1,23,25,27,-1,-1,-1,-1,-1,-1,-1],"loss_changes":[3.136656E2,0E0,2.0213954E2,1.620726E1,1.687536E2,3.849041E0,5.402498E-1,8.72467E0,7.402115E-1,8.152199E-1,0E0,0E0,0E0,2.0366566E1,2.824768E0,0E0,0E0,0E0,0E0,1.3421987E1,6.0333252E-2,4.333496E-3,0E0,0E0,0E0,0E0,0E0,0E0,0E0],"parents":[2147483647,0,0,2,2,3,3,4,4,5,5,6,6,7,7,8,8,9,9,13,13,14,14,19,19,20,20,21,21],"right_children":[2,-1,4,6,8,10,12,14,16,18,-1,-1,-1,20,22,-1,-1,-1,-1,24,26,28,-1,-1,-1,-1,-1,-1,-1],"split_conditions":[1E0,-5.5023797E-2,8.407153E1,1.491695E4,1.61375E1,3.2E1,6E0,1.3294481E2,1.00000024E-1,7.6804E2,7.755374E-2,1.0600811E-1,1.481356E-2,4.74E1,1E0,1.6741341E-2,-5.4447323E-2,-5.4800104E-2,1.9344805E-2,1.2404348E2,1.9847982E4,6.9125E2,-3.1796224E-2,1.0450708E-1,-5.233252E-2,1.1231092E-1,3.7290767E-2,1.1114309E-1,7.680277E-2],"split_indices":[465,0,447,448,457,1,418,447,459,453,0,0,0,449,461,0,0,0,0,0,451,446,0,0,0,0,0,0,0],"split_type":[0,0,0,0,0,0,0,0,0,0,0,0,0,0,0,0,0,0,0,0,0,0,0,0,0,0,0,0,0],"sum_hessian":[1.2369036E3,5.6044885E2,6.764547E2,1.7483934E2,5.0161536E2,1.6795471E2,6.8846345E0,4.2056827E2,8.104707E1,1.6654529E2,1.4094235E0,5.768365E0,1.1162694E0,6.361408E1,3.569542E2,1.0662172E0,7.998086E1,1.6550604E2,1.0392442E0,2.3939646E1,3.967443E1,3.5595065E2,1.0035475E0,6.807392E0,1.7132254E1,3.8307384E1,1.3670475E0,3.4628403E2,9.666623E0],"tree_param":{"num_deleted":"0","num_feature":"468","num_nodes":"29","size_leaf_vector":"1"}},{"base_weights":[-1.367525E-2,-5.468722E-1,1.1263292E0,-5.4913606E-2,3.8614698E-2,4.508964E-2,1.1285426E-1,5.970796E-2,-3.7559744E-2],"categories":[],"categories_nodes":[],"categories_segments":[],"categories_sizes":[],"default_left":[0,0,0,0,0,0,0,0,0],"id":47,"left_children":[1,3,5,-1,7,-1,-1,-1,-1],"loss_changes":[7.4317017E2,1.1252747E0,7.3638916E-2,0E0,1.1825733E0,0E0,0E0,0E0,0E0],"parents":[2147483647,0,0,1,1,2,2,4,4],"right_children":[2,4,6,-1,8,-1,-1,-1,-1],"split_conditions":[1E0,4E1,2E0,-5.4913606E-2,1.5726191E0,4.508964E-2,1.1285426E-1,5.970796E-2,-3.7559744E-2],"split_indices":[184,418,418,0,453,0,0,0,0],"split_type":[0,0,0,0,0,0,0,0,0],"sum_hessian":[1.220614E3,8.3199695E2,3.88617E2,8.2885425E2,3.142744E0,1.9380019E0,3.8667902E2,1.1503257E0,1.9924184E0],"tree_param":{"num_deleted":"0","num_feature":"468","num_nodes":"9","size_leaf_vector":"1"}},{"base_weights":[1.0154846E-3,-5.505963E-2,1.1219983E0,4.558644E-3,1.1255286E-1],"categories":[],"categories_nodes":[],"categories_segments":[],"categories_sizes":[],"default_left":[0,0,0,0,0],"id":48,"left_children":[1,-1,3,-1,-1],"loss_changes":[7.650608E2,0E0,1.4992676E0,0E0,0E0],"parents":[2147483647,0,0,2,2],"right_children":[2,-1,4,-1,-1],"split_conditions":[1E0,-5.505963E-2,7.9428573E0,4.558644E-3,1.1255286E-1],"split_indices":[79,0,453,0,0],"split_type":[0,0,0,0,0],"sum_hessian":[1.2352681E3,8.28225E2,4.0704306E2,1.3760604E0,4.05667E2],"tree_param":{"num_deleted":"0","num_feature":"468","num_nodes":"5","size_leaf_vector":"1"}},{"base_weights":[-1.0731099E-2,-5.4595705E-2,5.294088E-1,-5.4235052E-2,8.075989E-1,1.03475705E-1,-5.3969342E-2],"categories":[],"categories_nodes":[],"categories_segments":[],"categories_sizes":[],"default_left":[0,0,0,0,0,0,0],"id":49,"left_children":[1,-1,3,-1,5,-1,-1],"loss_changes":[3.3945346E2,0E0,1.7468457E2,0E0,1.4268362E2,0E0,0E0],"parents":[2147483647,0,0,2,2,4,4],"right_children":[2,-1,4,-1,6,-1,-1],"split_conditions":[1E0,-5.4595705E-2,1E0,-5.4235052E-2,1.493125E2,1.03475705E-1,-5.3969342E-2],"split_indices":[7,0,465,0,411,0,0],"split_type":[0,0,0,0,0,0,0],"sum_hessian":[1.172186E3,5.887658E2,5.834202E2,1.2003233E2,4.633879E2,3.9672986E2,6.6658035E1],"tree_param":{"num_deleted":"0","num_feature":"468","num_nodes":"7","size_leaf_vector":"1"}},{"base_weights":[3.7872538E-2,-5.386196E-1,5.187148E-1,6.4572856E-2,-5.436229E-1,-5.4470778E-2,8.9703417E-1,-5.4692484E-2,-1.3216385E-2,-5.3084727E-2,9.9254686E-1,-3.9117776E-2,5.9668463E-2,1.0255808E-1,-4.9869806E-2],"categories":[],"categories_nodes":[],"categories_segments":[],"categories_sizes":[],"default_left":[0,0,0,0,0,0,0,0,0,0,0,0,0,0,0],"id":50,"left_children":[1,3,5,-1,7,-1,9,-1,11,-1,13,-1,-1,-1,-1],"loss_changes":[3.4026712E2,3.6591644E0,2.6973102E2,0E0,9.673157E-1,0E0,6.7899445E1,0E0,1.263243E0,0E0,2.3338196E1,0E0,0E0,0E0,0E0],"parents":[2147483647,0,0,1,1,2,2,4,4,6,6,8,8,10,10],"right_children":[2,4,6,-1,8,-1,10,-1,12,-1,14,-1,-1,-1,-1],"split_conditions":[1.5E0,1E0,1E0,6.4572856E-2,1.92E3,-5.4470778E-2,1E0,-5.4692484E-2,1.1285714E0,-5.3084727E-2,4.6001427E1,-3.9117776E-2,5.9668463E-2,1.0255808E-1,-4.9869806E-2],"split_indices":[454,466,16,0,378,0,74,0,453,0,453,0,0,0,0],"split_type":[0,0,0,0,0,0,0,0,0,0,0,0,0,0,0],"sum_hessian":[1.2254993E3,5.5726373E2,6.682356E2,1.8055642E0,5.554581E2,1.7523253E2,4.9300305E2,5.519907E2,3.467454E0,3.0624193E1,4.6237888E2,2.3621986E0,1.1052555E0,4.526638E2,9.715086E0],"tree_param":{"num_deleted":"0","num_feature":"468","num_nodes":"15","size_leaf_vector":"1"}},{"base_weights":[-1.10398205E-2,-5.461794E-2,1.0296786E-1],"categories":[],"categories_nodes":[],"categories_segments":[],"categories_sizes":[],"default_left":[0,0,0],"id":51,"left_children":[1,-1,-1],"loss_changes":[6.537247E2,0E0,0E0],"parents":[2147483647,0,0],"right_children":[2,-1,-1],"split_conditions":[1.8664062E2,-5.461794E-2,1.0296786E-1],"split_indices":[411,0,0],"split_type":[0,0,0],"sum_hessian":[1.1717915E3,7.741811E2,3.9761038E2],"tree_param":{"num_deleted":"0","num_feature":"468","num_nodes":"3","size_leaf_vector":"1"}},{"base_weights":[-8.238645E-3,4.1466242E-1,-5.3534395E-1,9.021346E-1,-5.4459225E-2,-3.0802137E-1,-5.421442E-1,-5.3190645E-2,1.0270765E0,-5.0658282E-2,2.0510615E-1,-2.8977636E-1,-5.4574884E-2,4.9141725E-3,1.0299355E-1,5.9928423E-1,-3.649697E-2,4.9180772E-2,-4.8115484E-2,-2.8855303E-2,1.0516514E-1],"categories":[],"categories_nodes":[],"categories_segments":[],"categories_sizes":[],"default_left":[0,0,0,0,0,0,0,0,0,0,0,0,0,0,0,0,0,0,0,0,0],"id":52,"left_children":[1,3,5,7,-1,9,11,-1,13,-1,15,17,-1,-1,-1,19,-1,-1,-1,-1,-1],"loss_changes":[2.6256226E2,3.0609464E2,6.435394E-1,7.825482E1,0E0,1.8915231E0,3.0378723E-1,0E0,1.0657349E0,0E0,1.4786508E0,1.6251166E0,0E0,0E0,0E0,1.7868073E0,0E0,0E0,0E0,0E0,0E0],"parents":[2147483647,0,0,1,1,2,2,3,3,5,5,6,6,8,8,10,10,11,11,15,15],"right_children":[2,4,6,8,-1,10,12,-1,14,-1,16,18,-1,-1,-1,20,-1,-1,-1,-1,-1],"split_conditions":[2.1E0,1E0,1.00000024E-1,3E1,-5.4459225E-2,2.045E2,2.5E0,-5.3190645E-2,2.861023E-6,-5.0658282E-2,1E0,1.1E1,-5.4574884E-2,4.9141725E-3,1.0299355E-1,3E1,-3.649697E-2,4.9180772E-2,-4.8115484E-2,-2.8855303E-2,1.0516514E-1],"split_indices":[458,465,459,1,0,445,458,0,446,0,212,466,0,0,0,1,0,0,0,0,0],"split_type":[0,0,0,0,0,0,0,0,0,0,0,0,0,0,0,0,0,0,0,0,0],"sum_hessian":[1.175871E3,6.525433E2,5.2332764E2,4.327094E2,2.1983388E2,1.6545063E1,5.067826E2,3.441769E1,3.9829172E2,1.1938181E1,4.6068816E0,8.282632E0,4.9849997E2,1.2140203E0,3.970777E2,2.6933398E0,1.9135416E0,1.3203883E0,6.9622436E0,1.0313296E0,1.6620102E0],"tree_param":{"num_deleted":"0","num_feature":"468","num_nodes":"21","size_leaf_vector":"1"}},{"base_weights":[2.706929E-3,-5.4600347E-2,4.342369E-1,-4.565409E-1,7.2590536E-1,-5.213061E-1,8.723094E-1,9.497365E-1,-5.2793646E-1,-5.374856E-1,7.239811E-2,9.694566E-2,1.4350826E-2,6.3159716E-1,1.0034093E0,1.6241638E-2,-5.3987373E-2,-5.4351527E-2,1.9569157E-2,-4.970776E-2,1.0118409E0,8.8268346E-1,1.0270796E-1,9.577284E-2,-5.1728286E-2,1.02587536E-1,3.5134625E-2,9.304079E-2,-3.9797876E-2],"categories":[],"categories_nodes":[],"categories_segments":[],"categories_sizes":[],"default_left":[0,0,0,0,0,0,0,0,0,0,0,0,0,0,0,0,0,0,0,0,0,0,0,0,0,0,0,0,0],"id":53,"left_children":[1,-1,3,5,7,9,11,13,15,17,-1,-1,-1,19,21,-1,-1,-1,-1,23,25,27,-1,-1,-1,-1,-1,-1,-1],"loss_changes":[2.8162332E2,0E0,1.733057E2,1.4641037E1,1.4136807E2,3.568531E0,4.2972088E-1,6.644806E0,7.1954346E-1,7.9755783E-1,0E0,0E0,0E0,1.6690155E1,1.3079834E-1,0E0,0E0,0E0,0E0,1.1782107E1,2.212143E-2,4.4421883E0,0E0,0E0,0E0,0E0,0E0,0E0,0E0],"parents":[2147483647,0,0,2,2,3,3,4,4,5,5,6,6,7,7,8,8,9,9,13,13,14,14,19,19,20,20,21,21],"right_children":[2,-1,4,6,8,10,12,14,16,18,-1,-1,-1,20,22,-1,-1,-1,-1,24,26,28,-1,-1,-1,-1,-1,-1,-1],"split_conditions":[1E0,-5.4600347E-2,8.407153E1,1.491695E4,1.61375E1,3.2E1,6E0,1.3294481E2,1.00000024E-1,1E0,7.239811E-2,9.694566E-2,1.4350826E-2,4.74E1,1.2609436E2,1.6241638E-2,-5.3987373E-2,-5.4351527E-2,1.9569157E-2,1.2404348E2,1.9847982E4,6.18E2,1.0270796E-1,9.577284E-2,-5.1728286E-2,1.02587536E-1,3.5134625E-2,9.304079E-2,-3.9797876E-2],"split_indices":[465,0,447,448,457,1,418,447,459,419,0,0,0,449,444,0,0,0,0,0,451,446,0,0,0,0,0,0,0],"split_type":[0,0,0,0,0,0,0,0,0,0,0,0,0,0,0,0,0,0,0,0,0,0,0,0,0,0,0,0,0],"sum_hessian":[1.1873618E3,5.22594E2,6.6476776E2,1.638357E2,5.009321E2,1.5680125E2,7.0344424E0,4.2525897E2,7.56731E1,1.5535123E2,1.450031E0,5.91569E0,1.1187526E0,6.3231174E1,3.620278E2,1.0719934E0,7.4601105E1,1.543406E2,1.0106113E0,2.2960604E1,4.0270573E1,6.562276E1,2.9640506E2,6.9461527E0,1.601445E1,3.8891018E1,1.3795549E0,6.3528824E1,2.0939326E0],"tree_param":{"num_deleted":"0","num_feature":"468","num_nodes":"29","size_leaf_vector":"1"}},{"base_weights":[-1.3194763E-2,-5.4247046E-1,1.0295091E0,-5.448698E-2,4.4439062E-2,3.5059772E-2,1.0310679E-1,5.661541E-2,-3.6658484E-2],"categories":[],"categories_nodes":[],"categories_segments":[],"categories_sizes":[],"default_left":[0,0,0,0,0,0,0,0,0],"id":54,"left_children":[1,3,5,-1,7,-1,-1,-1,-1],"loss_changes":[6.465996E2,1.1185913E0,5.606079E-2,0E0,1.0843091E0,0E0,0E0,0E0,0E0],"parents":[2147483647,0,0,1,1,2,2,4,4],"right_children":[2,4,6,-1,8,-1,-1,-1,-1],"split_conditions":[1E0,4E1,1E0,-5.448698E-2,1.330625E2,3.5059772E-2,1.0310679E-1,5.661541E-2,-3.6658484E-2],"split_indices":[184,418,466,0,414,0,0,0,0],"split_type":[0,0,0,0,0,0,0,0,0],"sum_hessian":[1.1696235E3,7.7613684E2,3.9348672E2,7.7304816E2,3.0886796E0,1.4188957E0,3.920678E2,1.1947511E0,1.8939284E0],"tree_param":{"num_deleted":"0","num_feature":"468","num_nodes":"9","size_leaf_vector":"1"}},{"base_weights":[8.533065E-4,-5.4638382E-2,1.0255749E0,-3.242479E-2,1.029683E-1],"categories":[],"categories_nodes":[],"categories_segments":[],"categories_sizes":[],"default_left":[0,0,0,0,0],"id":55,"left_children":[1,-1,3,-1,-1],"loss_changes":[6.6527466E2,0E0,2.623993E0,0E0,0E0],"parents":[2147483647,0,0,2,2],"right_children":[2,-1,4,-1,-1],"split_conditions":[1E0,-5.4638382E-2,8E0,-3.242479E-2,1.029683E-1],"split_indices":[79,0,4,0,0],"split_type":[0,0,0,0,0],"sum_hessian":[1.1843691E3,7.7236566E2,4.1200342E2,1.0136354E0,4.109898E2],"tree_param":{"num_deleted":"0","num_feature":"468","num_nodes":"5","size_leaf_vector":"1"}},{"base_weights":[-1.0261131E-2,-5.420357E-2,5.0069624E-1,-5.3818982E-2,7.5438684E-1,9.575482E-2,-5.353723E-2],"categories":[],"categories_nodes":[],"categories_segments":[],"categories_sizes":[],"default_left":[0,0,0,0,0,0,0],"id":56,"left_children":[1,-1,3,-1,5,-1,-1],"loss_changes":[3.0436972E2,0E0,1.5097112E2,0E0,1.2093494E2,0E0,0E0],"parents":[2147483647,0,0,2,2,4,4],"right_children":[2,-1,4,-1,6,-1,-1],"split_conditions":[1E0,-5.420357E-2,1E0,-5.3818982E-2,1.493125E2,9.575482E-2,-5.353723E-2],"split_indices":[7,0,465,0,411,0,0],"split_type":[0,0,0,0,0,0,0],"sum_hessian":[1.1181847E3,5.4790076E2,5.7028394E2,1.1170802E2,4.585759E2,3.9639398E2,6.2181915E1],"tree_param":{"num_deleted":"0","num_feature":"468","num_nodes":"7","size_leaf_vector":"1"}},{"base_weights":[3.6493685E-2,-5.3413755E-1,4.9054384E-1,6.0108304E-2,-5.394243E-1,-5.4053683E-2,8.3444536E-1,-5.429108E-2,-6.6819685E-3,-5.258134E-2,9.1960317E-1,-3.8182396E-2,5.6043524E-2,9.490409E-2,-4.9214456E-2],"categories":[],"categories_nodes":[],"categories_segments":[],"categories_sizes":[],"default_left":[0,0,0,0,0,0,0,0,0,0,0,0,0,0,0],"id":57,"left_children":[1,3,5,-1,7,-1,9,-1,11,-1,13,-1,-1,-1,-1],"loss_changes":[3.0405078E2,3.445221E0,2.3216507E2,0E0,9.588165E-1,0E0,5.7292297E1,0E0,1.1461354E0,0E0,1.9662628E1,0E0,0E0,0E0,0E0],"parents":[2147483647,0,0,1,1,2,2,4,4,6,6,8,8,10,10],"right_children":[2,4,6,-1,8,-1,10,-1,12,-1,14,-1,-1,-1,-1],"split_conditions":[1.5E0,1E0,1E0,6.0108304E-2,1.92E3,-5.4053683E-2,1E0,-5.429108E-2,1.1285714E0,-5.258134E-2,4.6001427E1,-3.8182396E-2,5.6043524E-2,9.490409E-2,-4.9214456E-2],"split_indices":[454,466,16,0,378,0,74,0,453,0,453,0,0,0,0],"split_type":[0,0,0,0,0,0,0,0,0,0,0,0,0,0,0],"sum_hessian":[1.1714985E3,5.190286E2,6.524699E2,1.8835167E0,5.1714514E2,1.6304848E2,4.8942142E2,5.137637E2,3.381434E0,2.852976E1,4.6089163E2,2.2318304E0,1.1496036E0,4.5179852E2,9.093134E0],"tree_param":{"num_deleted":"0","num_feature":"468","num_nodes":"15","size_leaf_vector":"1"}},{"base_weights":[-1.0802015E-2,-5.4227304E-2,9.523322E-2],"categories":[],"categories_nodes":[],"categories_segments":[],"categories_sizes":[],"default_left":[0,0,0],"id":58,"left_children":[1,-1,-1],"loss_changes":[5.7306726E2,0E0,0E0],"parents":[2147483647,0,0],"right_children":[2,-1,-1],"split_conditions":[1.8664062E2,-5.4227304E-2,9.523322E-2],"split_indices":[411,0,0],"split_type":[0,0,0],"sum_hessian":[1.1175302E3,7.2042596E2,3.9710422E2],"tree_param":{"num_deleted":"0","num_feature":"468","num_nodes":"3","size_leaf_vector":"1"}},{"base_weights":[-8.0930805E-3,3.9360932E-1,-5.3086466E-1,8.386039E-1,-5.4057904E-2,-2.9768005E-1,-5.379847E-1,-5.2713808E-2,9.498035E-1,-5.0035466E-2,1.9928426E-1,-2.7825367E-1,-5.4179747E-2,3.890136E-3,9.52513E-2,5.628999E-1,-3.557289E-2,4.6307515E-2,-4.7393374E-2,3.2935415E-3,8.825642E-2],"categories":[],"categories_nodes":[],"categories_segments":[],"categories_sizes":[],"default_left":[0,0,0,0,0,0,0,0,0,0,0,0,0,0,0,0,0,0,0,0,0],"id":59,"left_children":[1,3,5,7,-1,9,11,-1,13,-1,15,17,-1,-1,-1,19,-1,-1,-1,-1,-1],"loss_changes":[2.3602066E2,2.6466257E2,6.5068054E-1,6.593994E1,0E0,1.7826139E0,3.1729126E-1,0E0,9.472046E-1,0E0,1.3213665E0,1.5096235E0,0E0,0E0,0E0,6.0514283E-1,0E0,0E0,0E0,0E0,0E0],"parents":[2147483647,0,0,1,1,2,2,3,3,5,5,6,6,8,8,10,10,11,11,15,15],"right_children":[2,4,6,8,-1,10,12,-1,14,-1,16,18,-1,-1,-1,20,-1,-1,-1,-1,-1],"split_conditions":[2.1E0,1E0,1.00000024E-1,3E1,-5.4057904E-2,2.045E2,2.5E0,-5.2713808E-2,3E0,-5.0035466E-2,1E0,1.1E1,-5.4179747E-2,3.890136E-3,9.52513E-2,6.613333E1,-3.557289E-2,4.6307515E-2,-4.7393374E-2,3.2935415E-3,8.825642E-2],"split_indices":[458,465,459,1,0,445,458,0,445,0,212,466,0,0,0,448,0,0,0,0,0],"split_type":[0,0,0,0,0,0,0,0,0,0,0,0,0,0,0,0,0,0,0,0,0],"sum_hessian":[1.1219203E3,6.345633E2,4.8735706E2,4.2989017E2,2.046731E2,1.570837E1,4.7164868E2,3.208499E1,3.9780518E2,1.1153052E1,4.555318E0,7.8937507E0,4.6375494E2,1.2253091E0,3.9657986E2,2.7436268E0,1.811691E0,1.3631191E0,6.530632E0,1.4472665E0,1.2963605E0],"tree_param":{"num_deleted":"0","num_feature":"468","num_nodes":"21","size_leaf_vector":"1"}},{"base_weights":[2.9409612E-3,-5.420487E-2,4.1189855E-1,-4.499155E-1,6.7890257E-1,-5.161818E-1,8.0775213E-1,8.7923497E-1,-5.228758E-1,-5.329666E-1,6.782136E-2,8.949163E-2,1.3923824E-2,5.94171E-1,9.264628E-1,1.5778026E-2,-5.3551525E-2,-5.3947683E-2,1.992283E-2,-3.1423315E-2,9.4386645E-2,9.307813E-2,-3.176341E-2,8.917979E-2,-5.1503997E-2],"categories":[],"categories_nodes":[],"categories_segments":[],"categories_sizes":[],"default_left":[0,0,0,0,0,0,0,0,0,0,0,0,0,0,0,0,0,0,0,0,0,0,0,0,0],"id":60,"left_children":[1,-1,3,5,7,9,11,13,15,17,-1,-1,-1,19,21,-1,-1,-1,-1,23,-1,-1,-1,-1,-1],"loss_changes":[2.5330522E2,0E0,1.497122E2,1.3266525E1,1.19900604E2,3.3099518E0,3.4779453E-1,5.1793213E0,6.9971275E-1,8.014946E-1,0E0,0E0,0E0,1.3872694E1,2.2476501E0,0E0,0E0,0E0,0E0,1.1021471E1,0E0,0E0,0E0,0E0,0E0],"parents":[2147483647,0,0,2,2,3,3,4,4,5,5,6,6,7,7,8,8,9,9,13,13,14,14,19,19],"right_children":[2,-1,4,6,8,10,12,14,16,18,-1,-1,-1,20,22,-1,-1,-1,-1,24,-1,-1,-1,-1,-1],"split_conditions":[1E0,-5.420487E-2,8.407153E1,1.491695E4,1.61375E1,3.2E1,6E0,1.3294481E2,1.00000024E-1,4.0000004E-1,6.782136E-2,8.949163E-2,1.3923824E-2,9E0,1E0,1.5778026E-2,-5.3551525E-2,-5.3947683E-2,1.992283E-2,1.2404348E2,9.4386645E-2,9.307813E-2,-3.176341E-2,8.917979E-2,-5.1503997E-2],"split_indices":[465,0,447,448,457,1,418,447,459,455,0,0,0,466,461,0,0,0,0,0,0,0,0,0,0],"split_type":[0,0,0,0,0,0,0,0,0,0,0,0,0,0,0,0,0,0,0,0,0,0,0,0,0],"sum_hessian":[1.1345197E3,4.8622952E2,6.482901E2,1.5318071E2,4.9510938E2,1.4607368E2,7.1070313E0,4.2459863E2,7.051077E1,1.4459547E2,1.478217E0,5.9876647E0,1.1193665E0,6.22774E1,3.6232123E2,1.0761298E0,6.943464E1,1.4358203E2,1.0134321E0,2.2656237E1,3.9621166E1,3.6131888E2,1.0023543E0,7.498201E0,1.5158036E1],"tree_param":{"num_deleted":"0","num_feature":"468","num_nodes":"25","size_leaf_vector":"1"}},{"base_weights":[-1.2758711E-2,-5.3832966E-1,9.5215476E-1,1.1608668E-1,-5.423072E-2,3.742204E-2,9.541086E-2],"categories":[],"categories_nodes":[],"categories_segments":[],"categories_sizes":[],"default_left":[0,0,0,0,0,0,0],"id":61,"left_children":[1,3,5,-1,-1,-1,-1],"loss_changes":[5.6675323E2,5.519287E0,8.792114E-2,0E0,0E0,0E0,0E0],"parents":[2147483647,0,0,1,1,2,2],"right_children":[2,4,6,-1,-1,-1,-1],"split_conditions":[1E0,8E0,2E0,1.1608668E-1,-5.423072E-2,3.742204E-2,9.541086E-2],"split_indices":[184,4,418,0,0,0,0],"split_type":[0,0,0,0,0,0,0],"sum_hessian":[1.1155581E3,7.2247894E2,3.9307913E2,1.008001E0,7.214709E2,1.9731288E0,3.9110602E2],"tree_param":{"num_deleted":"0","num_feature":"468","num_nodes":"7","size_leaf_vector":"1"}},{"base_weights":[6.8237085E-4,-5.424536E-2,9.4844437E-1,-3.2446135E-2,9.523644E-2],"categories":[],"categories_nodes":[],"categories_segments":[],"categories_sizes":[],"default_left":[0,0,0,0,0],"id":62,"left_children":[1,-1,3,-1,-1],"loss_changes":[5.827969E2,0E0,2.367096E0,0E0,0E0],"parents":[2147483647,0,0,2,2],"right_children":[2,-1,4,-1,-1],"split_conditions":[1E0,-5.424536E-2,8E0,-3.2446135E-2,9.523644E-2],"split_indices":[79,0,4,0,0],"split_type":[0,0,0,0,0],"sum_hessian":[1.1301647E3,7.187161E2,4.1144852E2,1.0121837E0,4.1043634E2],"tree_param":{"num_deleted":"0","num_feature":"468","num_nodes":"5","size_leaf_vector":"1"}},{"base_weights":[-9.780611E-3,-5.383827E-2,4.7643992E-1,-5.342678E-2,7.103557E-1,8.9483164E-2,-5.3127516E-2],"categories":[],"categories_nodes":[],"categories_segments":[],"categories_sizes":[],"default_left":[0,0,0,0,0,0,0],"id":63,"left_children":[1,-1,3,-1,5,-1,-1],"loss_changes":[2.734973E2,0E0,1.3142532E2,0E0,1.0367348E2,0E0,0E0],"parents":[2147483647,0,0,2,2,4,4],"right_children":[2,-1,4,-1,6,-1,-1],"split_conditions":[1E0,-5.383827E-2,1E0,-5.342678E-2,1.493125E2,8.9483164E-2,-5.3127516E-2],"split_indices":[7,0,465,0,411,0,0],"split_type":[0,0,0,0,0,0,0],"sum_hessian":[1.0621226E3,5.0883142E2,5.532912E2,1.0374478E2,4.495464E2,3.916379E2,5.790849E1],"tree_param":{"num_deleted":"0","num_feature":"468","num_nodes":"7","size_leaf_vector":"1"}},{"base_weights":[3.5246294E-2,-5.336023E-1,4.639322E-1,5.677078E-2,-5.3926177E-2,-5.3662714E-2,7.7711606E-1,-5.2260336E-2,8.612603E-1,8.879142E-2,-4.8565157E-2],"categories":[],"categories_nodes":[],"categories_segments":[],"categories_sizes":[],"default_left":[0,0,0,0,0,0,0,0,0,0,0],"id":64,"left_children":[1,3,5,-1,-1,-1,7,-1,9,-1,-1],"loss_changes":[2.7233282E2,3.2976227E0,1.99964E2,0E0,0E0,0E0,5.3535492E1,0E0,1.681134E1,0E0,0E0],"parents":[2147483647,0,0,1,1,2,2,6,6,8,8],"right_children":[2,4,6,-1,-1,-1,8,-1,10,-1,-1],"split_conditions":[1.4000001E0,1E0,1E0,5.677078E-2,-5.3926177E-2,-5.3662714E-2,1E0,-5.2260336E-2,4.6001427E1,8.879142E-2,-4.8565157E-2],"split_indices":[454,466,16,0,0,0,74,0,453,0,0],"split_type":[0,0,0,0,0,0,0,0,0,0,0],"sum_hessian":[1.114756E3,4.7895612E2,6.3579987E2,1.9409654E0,4.7701517E2,1.5139854E2,4.844013E2,2.9136633E1,4.5526468E2,4.4676447E2,8.50021E0],"tree_param":{"num_deleted":"0","num_feature":"468","num_nodes":"11","size_leaf_vector":"1"}},{"base_weights":[-1.0604365E-2,-5.3863663E-2,8.894008E-2],"categories":[],"categories_nodes":[],"categories_segments":[],"categories_sizes":[],"default_left":[0,0,0],"id":65,"left_children":[1,-1,-1],"loss_changes":[5.0525317E2,0E0,0E0],"parents":[2147483647,0,0],"right_children":[2,-1,-1],"split_conditions":[1.8664062E2,-5.3863663E-2,8.894008E-2],"split_indices":[411,0,0],"split_type":[0,0,0],"sum_hessian":[1.0611641E3,6.690402E2,3.9212384E2],"tree_param":{"num_deleted":"0","num_feature":"468","num_nodes":"3","size_leaf_vector":"1"}},{"base_weights":[-7.976011E-3,3.7557054E-1,-5.2659404E-1,7.8635263E-1,-5.36819E-2,-2.8727788E-1,-5.340908E-1,-5.2252788E-2,8.8688666E-1,-4.9420353E-2,1.898509E-1,-2.6674992E-1,-5.381281E-2,2.0959221E-3,8.895636E-2,-3.5206623E-2,5.254497E-1,4.364334E-2,-4.6663202E-2,9.044841E-2,-2.7144311E-2],"categories":[],"categories_nodes":[],"categories_segments":[],"categories_sizes":[],"default_left":[0,0,0,0,0,0,0,0,0,0,0,0,0,0,0,0,0,0,0,0,0],"id":66,"left_children":[1,3,5,7,-1,9,11,-1,13,-1,15,17,-1,-1,-1,-1,19,-1,-1,-1,-1],"loss_changes":[2.1240494E2,2.304927E2,6.6103363E-1,5.62157E1,0E0,1.6688583E0,3.3029175E-1,0E0,8.942871E-1,0E0,1.1940255E0,1.4003456E0,0E0,0E0,0E0,0E0,1.401624E0,0E0,0E0,0E0,0E0],"parents":[2147483647,0,0,1,1,2,2,3,3,5,5,6,6,8,8,10,10,11,11,16,16],"right_children":[2,4,6,8,-1,10,12,-1,14,-1,16,18,-1,-1,-1,-1,20,-1,-1,-1,-1],"split_conditions":[2.1E0,1E0,6.489029E-2,3E1,-5.36819E-2,2.045E2,2.5E0,-5.2252788E-2,2.861023E-6,-4.9420353E-2,8.225E1,1.1E1,-5.381281E-2,2.0959221E-3,8.895636E-2,-3.5206623E-2,1E0,4.364334E-2,-4.6663202E-2,9.044841E-2,-2.7144311E-2],"split_indices":[458,465,460,1,0,445,458,0,446,0,451,466,0,0,0,0,212,0,0,0,0],"split_type":[0,0,0,0,0,0,0,0,0,0,0,0,0,0,0,0,0,0,0,0,0],"sum_hessian":[1.0658279E3,6.1286E2,4.5296783E2,4.2269125E2,1.9016873E2,1.4952906E1,4.3801492E2,2.9851303E1,3.9283997E2,1.0404709E1,4.548197E0,7.5141225E0,4.305008E2,1.2379105E0,3.9160205E2,1.7206548E0,2.827542E0,1.401213E0,6.11291E0,1.824651E0,1.0028911E0],"tree_param":{"num_deleted":"0","num_feature":"468","num_nodes":"21","size_leaf_vector":"1"}},{"base_weights":[3.1069657E-3,-5.3836424E-2,3.9252186E-1,-4.435434E-1,6.391876E-1,-5.112556E-1,7.5319517E-1,8.20811E-1,-5.179817E-1,-5.286532E-1,6.373818E-2,8.3265506E-2,1.3527736E-2,5.6219393E-1,8.6298645E-1,1.5345113E-2,-5.3138282E-2,-5.3559214E-2,2.0089308E-2,-4.3954663E-2,8.726301E-2,8.961983E-2,7.785704E-1,8.256515E-2,-5.056513E-2,-5.8859356E-2,8.96863E-2],"categories":[],"categories_nodes":[],"categories_segments":[],"categories_sizes":[],"default_left":[0,0,0,0,0,0,0,0,0,0,0,0,0,0,0,0,0,0,0,0,0,0,0,0,0,0,0],"id":67,"left_children":[1,-1,3,5,7,9,11,13,15,17,-1,-1,-1,19,21,-1,-1,-1,-1,23,-1,-1,25,-1,-1,-1,-1],"loss_changes":[2.2806528E2,0E0,1.3003006E2,1.2047434E1,1.0261354E2,3.0708656E0,2.8562355E-1,4.1029053E0,6.805763E-1,7.925987E-1,0E0,0E0,0E0,1.1676611E1,3.1097412E-1,0E0,0E0,0E0,0E0,9.210111E0,0E0,0E0,1.8189255E1,0E0,0E0,0E0,0E0],"parents":[2147483647,0,0,2,2,3,3,4,4,5,5,6,6,7,7,8,8,9,9,13,13,14,14,19,19,22,22],"right_children":[2,-1,4,6,8,10,12,14,16,18,-1,-1,-1,20,22,-1,-1,-1,-1,24,-1,-1,26,-1,-1,-1,-1],"split_conditions":[1E0,-5.3836424E-2,8.407153E1,1.491695E4,1.61375E1,3.2E1,6E0,1.3294481E2,1.00000024E-1,7.6804E2,6.373818E-2,8.3265506E-2,1.3527736E-2,4.74E1,9E0,1.5345113E-2,-5.3138282E-2,-5.3559214E-2,2.0089308E-2,1.2404348E2,8.726301E-2,8.961983E-2,4.74E1,8.256515E-2,-5.056513E-2,-5.8859356E-2,8.96863E-2],"split_indices":[465,0,447,448,457,1,418,447,459,453,0,0,0,449,418,0,0,0,0,0,0,0,449,0,0,0,0],"split_type":[0,0,0,0,0,0,0,0,0,0,0,0,0,0,0,0,0,0,0,0,0,0,0,0,0,0,0],"sum_hessian":[1.0796093E3,4.5146985E2,6.2813947E2,1.429197E2,4.8521976E2,1.3580836E2,7.1113267E0,4.1964505E2,6.557469E1,1.3431377E2,1.4945985E0,5.9931355E0,1.1181915E0,6.084954E1,3.5879553E2,1.0786899E0,6.4496E1,1.3331165E2,1.0021175E0,2.0899736E1,3.9949806E1,2.5058952E2,1.0820599E2,6.974659E0,1.3925078E1,8.30025E0,9.990575E1],"tree_param":{"num_deleted":"0","num_feature":"468","num_nodes":"27","size_leaf_vector":"1"}},{"base_weights":[-1.2317247E-2,-5.3445005E-1,8.891935E-1,1.07309364E-1,-5.3866524E-2,3.4803316E-2,8.910542E-2],"categories":[],"categories_nodes":[],"categories_segments":[],"categories_sizes":[],"default_left":[0,0,0,0,0,0,0],"id":68,"left_children":[1,3,5,-1,-1,-1,-1],"loss_changes":[4.9959213E2,5.132141E0,8.1848145E-2,0E0,0E0,0E0,0E0],"parents":[2147483647,0,0,1,1,2,2],"right_children":[2,4,6,-1,-1,-1,-1],"split_conditions":[1E0,8E0,2E0,1.07309364E-1,-5.3866524E-2,3.4803316E-2,8.910542E-2],"split_indices":[184,4,418,0,0,0,0],"split_type":[0,0,0,0,0,0,0],"sum_hessian":[1.0593528E3,6.710844E2,3.8826843E2,1.0918887E0,6.699925E2,1.9747877E0,3.8629364E2],"tree_param":{"num_deleted":"0","num_feature":"468","num_nodes":"7","size_leaf_vector":"1"}},{"base_weights":[5.0949276E-4,-5.3879675E-2,8.856908E-1,1.0983594E-3,8.887687E-2],"categories":[],"categories_nodes":[],"categories_segments":[],"categories_sizes":[],"default_left":[0,0,0,0,0],"id":69,"left_children":[1,-1,3,-1,-1],"loss_changes":[5.1351776E2,0E0,1.0866699E0,0E0,0E0],"parents":[2147483647,0,0,2,2],"right_children":[2,-1,4,-1,-1],"split_conditions":[1E0,-5.3879675E-2,7.9428573E0,1.0983594E-3,8.887687E-2],"split_indices":[79,0,453,0,0],"split_type":[0,0,0,0,0],"sum_hessian":[1.0736921E3,6.67439E2,4.0625305E2,1.4405341E0,4.0481253E2],"tree_param":{"num_deleted":"0","num_feature":"468","num_nodes":"5","size_leaf_vector":"1"}},{"base_weights":[-9.554614E-3,-5.349762E-2,4.5525548E-1,-5.305756E-2,6.728976E-1,8.421891E-2,-5.2730728E-2],"categories":[],"categories_nodes":[],"categories_segments":[],"categories_sizes":[],"default_left":[0,0,0,0,0,0,0],"id":70,"left_children":[1,-1,3,-1,5,-1,-1],"loss_changes":[2.4586945E2,0E0,1.1497337E2,0E0,8.944519E1,0E0,0E0],"parents":[2147483647,0,0,2,2,4,4],"right_children":[2,-1,4,-1,6,-1,-1],"split_conditions":[1E0,-5.349762E-2,1E0,-5.305756E-2,1.493125E2,8.421891E-2,-5.2730728E-2],"split_indices":[7,0,465,0,411,0,0],"split_type":[0,0,0,0,0,0,0],"sum_hessian":[1.0047515E3,4.7155478E2,5.331967E2,9.6165924E1,4.370308E2,3.8326828E2,5.3762543E1],"tree_param":{"num_deleted":"0","num_feature":"468","num_nodes":"7","size_leaf_vector":"1"}},{"base_weights":[3.4159694E-2,-5.297565E-1,4.4359118E-1,5.3748082E-2,-5.3576704E-2,-5.3296864E-2,7.3459363E-1,-5.179857E-2,8.1174016E-1,8.362414E-2,-4.7919672E-2],"categories":[],"categories_nodes":[],"categories_segments":[],"categories_sizes":[],"default_left":[0,0,0,0,0,0,0,0,0,0,0],"id":71,"left_children":[1,3,5,-1,-1,-1,7,-1,9,-1,-1],"loss_changes":[2.443194E2,3.1434402E0,1.746011E2,0E0,0E0,0E0,4.6099228E1,0E0,1.4497101E1,0E0,0E0],"parents":[2147483647,0,0,1,1,2,2,6,6,8,8],"right_children":[2,4,6,-1,-1,-1,8,-1,10,-1,-1],"split_conditions":[1.4000001E0,1E0,1E0,5.3748082E-2,-5.3576704E-2,-5.3296864E-2,1E0,-5.179857E-2,4.6001427E1,8.362414E-2,-4.7919672E-2],"split_indices":[454,466,16,0,0,0,74,0,453,0,0],"split_type":[0,0,0,0,0,0,0,0,0,0,0],"sum_hessian":[1.0561686E3,4.4414587E2,6.120227E2,1.9921738E0,4.421537E2,1.4031512E2,4.717076E2,2.7035461E1,4.4467215E2,4.3673538E2,7.936749E0],"tree_param":{"num_deleted":"0","num_feature":"468","num_nodes":"11","size_leaf_vector":"1"}},{"base_weights":[-1.0393363E-2,-5.3524923E-2,8.374329E-2],"categories":[],"categories_nodes":[],"categories_segments":[],"categories_sizes":[],"default_left":[0,0,0],"id":72,"left_children":[1,-1,-1],"loss_changes":[4.4744507E2,0E0,0E0],"parents":[2147483647,0,0],"right_children":[2,-1,-1],"split_conditions":[1.8664062E2,-5.3524923E-2,8.374329E-2],"split_indices":[411,0,0],"split_type":[0,0,0],"sum_hessian":[1.0035176E3,6.200424E2,3.834752E2],"tree_param":{"num_deleted":"0","num_feature":"468","num_nodes":"3","size_leaf_vector":"1"}},{"base_weights":[-7.861669E-3,3.600667E-1,-5.225855E-1,7.428059E-1,-5.3328313E-2,-2.7732855E-1,-5.30408E-1,-5.180615E-2,8.348947E-1,-4.8811797E-2,1.9008702E-1,-2.5520715E-1,-5.346855E-2,1.2745316E-3,8.375236E-2,5.0518227E-1,-3.377146E-2,4.1195266E-2,-4.5920666E-2,3.4930513E-3,7.624228E-2],"categories":[],"categories_nodes":[],"categories_segments":[],"categories_sizes":[],"default_left":[0,0,0,0,0,0,0,0,0,0,0,0,0,0,0,0,0,0,0,0,0],"id":73,"left_children":[1,3,5,7,-1,9,11,-1,13,-1,15,17,-1,-1,-1,19,-1,-1,-1,-1,-1],"loss_changes":[1.9135199E2,2.0186777E2,6.609497E-1,4.8377823E1,0E0,1.5819162E0,3.4270477E-1,0E0,8.218689E-1,0E0,1.071537E0,1.2974676E0,0E0,0E0,0E0,4.3217552E-1,0E0,0E0,0E0,0E0,0E0],"parents":[2147483647,0,0,1,1,2,2,3,3,5,5,6,6,8,8,10,10,11,11,15,15],"right_children":[2,4,6,8,-1,10,12,-1,14,-1,16,18,-1,-1,-1,20,-1,-1,-1,-1,-1],"split_conditions":[2.1E0,1E0,1.00000024E-1,3E1,-5.3328313E-2,2.045E2,2.5E0,-5.180615E-2,3E0,-4.8811797E-2,1E0,1.1E1,-5.346855E-2,1.2745316E-3,8.375236E-2,6.613333E1,-3.377146E-2,4.1195266E-2,-4.5920666E-2,3.4930513E-3,7.624228E-2],"split_indices":[458,465,459,1,0,445,458,0,445,0,212,466,0,0,0,448,0,0,0,0,0],"split_type":[0,0,0,0,0,0,0,0,0,0,0,0,0,0,0,0,0,0,0,0,0],"sum_hessian":[1.0084112E3,5.8823615E2,4.2017505E2,4.119236E2,1.7631253E2,1.4114055E1,4.0606097E2,2.7722698E1,3.8420093E2,9.696813E0,4.4172425E0,7.1432347E0,3.9891776E2,1.2432116E0,3.8295773E2,2.7928054E0,1.6244369E0,1.4340236E0,5.709211E0,1.389147E0,1.4036584E0],"tree_param":{"num_deleted":"0","num_feature":"468","num_nodes":"21","size_leaf_vector":"1"}},{"base_weights":[3.3151933E-3,-5.349343E-2,3.7624928E-1,-4.3740967E-1,6.064959E-1,-5.0652075E-1,7.065343E-1,7.713937E-1,-5.274221E-2,-5.245391E-1,6.007743E-2,1.9248934E-2,8.0741905E-2,7.7847254E-1,-3.9182436E-2,-5.3193685E-2,1.9575723E-2,4.926733E-1,8.087995E-1,-2.8929716E-2,8.270673E-2,8.4408306E-2,7.2653465E-2],"categories":[],"categories_nodes":[],"categories_segments":[],"categories_sizes":[],"default_left":[0,0,0,0,0,0,0,0,0,0,0,0,0,0,0,0,0,0,0,0,0,0,0],"id":74,"left_children":[1,-1,3,5,7,9,11,13,-1,15,-1,-1,-1,17,-1,-1,-1,19,21,-1,-1,-1,-1],"loss_changes":[2.0567647E2,0E0,1.1365628E2,1.0958054E1,8.8695755E1,2.8494453E0,2.623806E-1,3.7027893E0,0E0,7.7297974E-1,0E0,0E0,0E0,3.1593475E0,0E0,0E0,0E0,1.12052145E1,4.593506E-1,0E0,0E0,0E0,0E0],"parents":[2147483647,0,0,2,2,3,3,4,4,5,5,6,6,7,7,9,9,13,13,17,17,18,18],"right_children":[2,-1,4,6,8,10,12,14,-1,16,-1,-1,-1,18,-1,-1,-1,20,22,-1,-1,-1,-1],"split_conditions":[1E0,-5.349343E-2,8.407153E1,1.491695E4,2.31E1,3.2E1,1.493125E2,1E0,-5.274221E-2,4.0000004E-1,6.007743E-2,1.9248934E-2,8.0741905E-2,1.2199986E2,-3.9182436E-2,-5.3193685E-2,1.9575723E-2,9E0,9E0,-2.8929716E-2,8.270673E-2,8.4408306E-2,7.2653465E-2],"split_indices":[465,0,447,448,457,1,411,461,0,455,0,0,0,447,0,0,0,466,418,0,0,0,0],"split_type":[0,0,0,0,0,0,0,0,0,0,0,0,0,0,0,0,0,0,0,0,0,0,0],"sum_hessian":[1.02263165E3,4.1837036E2,6.042613E2,1.3307906E2,4.7118225E2,1.2602265E2,7.0564084E0,4.1164E2,5.954223E1,1.2452265E2,1.4999975E0,1.6347523E0,5.421656E0,4.0947888E2,2.1611457E0,1.235156E2,1.0070463E0,4.0936996E1,3.6854187E2,1.2302596E1,2.86344E1,2.5143867E2,1.171032E2],"tree_param":{"num_deleted":"0","num_feature":"468","num_nodes":"23","size_leaf_vector":"1"}},{"base_weights":[-1.1895868E-2,-5.308031E-1,8.3710593E-1,1.0002177E-1,-5.3527277E-2,3.2301348E-2,8.389262E-2],"categories":[],"categories_nodes":[],"categories_segments":[],"categories_sizes":[],"default_left":[0,0,0,0,0,0,0],"id":75,"left_children":[1,3,5,-1,-1,-1,-1],"loss_changes":[4.4227255E2,4.799118E0,8.54187E-2,0E0,0E0,0E0,0E0],"parents":[2147483647,0,0,1,1,2,2],"right_children":[2,4,6,-1,-1,-1,-1],"split_conditions":[1E0,8E0,2E0,1.0002177E-1,-5.3527277E-2,3.2301348E-2,8.389262E-2],"split_indices":[184,4,418,0,0,0,0],"split_type":[0,0,0,0,0,0,0],"sum_hessian":[1.00189417E3,6.220649E2,3.7982928E2,1.1622869E0,6.209026E2,1.9697839E0,3.778595E2],"tree_param":{"num_deleted":"0","num_feature":"468","num_nodes":"7","size_leaf_vector":"1"}},{"base_weights":[4.0291096E-4,-5.3539008E-2,8.3385795E-1,5.241066E-4,8.368703E-2],"categories":[],"categories_nodes":[],"categories_segments":[],"categories_sizes":[],"default_left":[0,0,0,0,0],"id":76,"left_children":[1,-1,3,-1,-1],"loss_changes":[4.5451425E2,0E0,9.897156E-1,0E0,0E0],"parents":[2147483647,0,0,2,2],"right_children":[2,-1,4,-1,-1],"split_conditions":[1E0,-5.3539008E-2,7.9428573E0,5.241066E-4,8.368703E-2],"split_indices":[79,0,453,0,0],"split_type":[0,0,0,0,0],"sum_hessian":[1.0158139E3,6.18539E2,3.9727493E2,1.4489142E0,3.9582602E2],"tree_param":{"num_deleted":"0","num_feature":"468","num_nodes":"5","size_leaf_vector":"1"}},{"base_weights":[-8.982325E-3,-5.318244E-2,4.3769252E-1,-5.2709002E-2,6.418955E-1,7.992066E-2,-5.2359253E-2],"categories":[],"categories_nodes":[],"categories_segments":[],"categories_sizes":[],"default_left":[0,0,0,0,0,0,0],"id":77,"left_children":[1,-1,3,-1,5,-1,-1],"loss_changes":[2.2168849E2,0E0,1.01193245E2,0E0,7.796391E1,0E0,0E0],"parents":[2147483647,0,0,2,2,4,4],"right_children":[2,-1,4,-1,6,-1,-1],"split_conditions":[1E0,-5.318244E-2,1E0,-5.2709002E-2,1.493125E2,7.992066E-2,-5.2359253E-2],"split_indices":[7,0,465,0,411,0,0],"split_type":[0,0,0,0,0,0,0],"sum_hessian":[9.472544E2,4.3633026E2,5.1092413E2,8.8974E1,4.2195013E2,3.720475E2,4.9902637E1],"tree_param":{"num_deleted":"0","num_feature":"468","num_nodes":"7","size_leaf_vector":"1"}},{"base_weights":[3.311318E-2,-5.2614594E-1,4.2606184E-1,5.1008146E-2,-5.3253587E-2,-5.2954108E-2,6.987529E-1,-5.1350046E-2,7.7024937E-1,7.930272E-2,-4.726828E-2],"categories":[],"categories_nodes":[],"categories_segments":[],"categories_sizes":[],"default_left":[0,0,0,0,0,0,0,0,0,0,0],"id":78,"left_children":[1,3,5,-1,-1,-1,7,-1,9,-1,-1],"loss_changes":[2.1951762E2,3.0012589E0,1.5323776E2,0E0,0E0,0E0,3.998964E1,0E0,1.2599243E1,0E0,0E0],"parents":[2147483647,0,0,1,1,2,2,6,6,8,8],"right_children":[2,4,6,-1,-1,-1,8,-1,10,-1,-1],"split_conditions":[1.4000001E0,1E0,1E0,5.1008146E-2,-5.3253587E-2,-5.2954108E-2,1E0,-5.1350046E-2,4.6001427E1,7.930272E-2,-4.726828E-2],"split_indices":[454,466,16,0,0,0,74,0,453,0,0],"split_type":[0,0,0,0,0,0,0,0,0,0,0],"sum_hessian":[9.968766E2,4.1124228E2,5.856343E2,2.0372863E0,4.0920502E2,1.2980637E2,4.558279E2,2.5042336E1,4.3078558E2,4.2338858E2,7.3969803E0],"tree_param":{"num_deleted":"0","num_feature":"468","num_nodes":"11","size_leaf_vector":"1"}},{"base_weights":[-1.02810785E-2,-5.321158E-2,7.939819E-2],"categories":[],"categories_nodes":[],"categories_segments":[],"categories_sizes":[],"default_left":[0,0,0],"id":79,"left_children":[1,-1,-1],"loss_changes":[3.9769693E2,0E0,0E0],"parents":[2147483647,0,0],"right_children":[2,-1,-1],"split_conditions":[1.8664062E2,-5.321158E-2,7.939819E-2],"split_indices":[411,0,0],"split_type":[0,0,0],"sum_hessian":[9.4558496E2,5.736916E2,3.7189334E2],"tree_param":{"num_deleted":"0","num_feature":"468","num_nodes":"3","size_leaf_vector":"1"}},{"base_weights":[-7.828298E-3,3.4652835E-1,-5.187572E-1,7.06111E-1,-5.2999347E-2,-2.670978E-1,-5.269843E-1,-5.137233E-2,7.9140216E-1,-4.818839E-2,1.8315396E-1,-2.4481985E-1,-5.3151626E-2,-3.2186334E-4,7.940708E-2,-3.3404917E-2,4.7972178E-1,3.89293E-2,-4.5217376E-2,7.1401045E-2,3.9119218E-3],"categories":[],"categories_nodes":[],"categories_segments":[],"categories_sizes":[],"default_left":[0,0,0,0,0,0,0,0,0,0,0,0,0,0,0,0,0,0,0,0,0],"id":80,"left_children":[1,3,5,7,-1,9,11,-1,13,-1,15,17,-1,-1,-1,-1,19,-1,-1,-1,-1],"loss_changes":[1.7248228E2,1.7767726E2,6.6698456E-1,4.195294E1,0E0,1.4787316E0,3.516693E-1,0E0,7.948761E-1,0E0,9.836654E-1,1.2028822E0,0E0,0E0,0E0,0E0,3.666442E-1,0E0,0E0,0E0,0E0],"parents":[2147483647,0,0,1,1,2,2,3,3,5,5,6,6,8,8,10,10,11,11,16,16],"right_children":[2,4,6,8,-1,10,12,-1,14,-1,16,18,-1,-1,-1,-1,20,-1,-1,-1,-1],"split_conditions":[2.1E0,1E0,6.489029E-2,3E1,-5.2999347E-2,2.045E2,2.5E0,-5.137233E-2,2.861023E-6,-4.818839E-2,8.225E1,1.1E1,-5.3151626E-2,-3.2186334E-4,7.940708E-2,-3.3404917E-2,3.255202E2,3.89293E-2,-4.5217376E-2,7.1401045E-2,3.9119218E-3],"split_indices":[458,465,460,1,0,445,458,0,446,0,451,466,0,0,0,0,446,0,0,0,0],"split_type":[0,0,0,0,0,0,0,0,0,0,0,0,0,0,0,0,0,0,0,0,0],"sum_hessian":[9.5067914E2,5.615416E2,3.8913754E2,3.983271E2,1.6321455E2,1.33780775E1,3.7575946E2,2.5702755E1,3.7262433E2,9.009819E0,4.3682585E0,6.8096204E0,3.6894983E2,1.2465491E0,3.7137778E2,1.5458939E0,2.8223646E0,1.4618075E0,5.3478127E0,1.4374663E0,1.3848983E0],"tree_param":{"num_deleted":"0","num_feature":"468","num_nodes":"21","size_leaf_vector":"1"}},{"base_weights":[3.4803716E-3,-5.3174842E-2,3.613353E-1,-4.3140158E-1,5.770633E-1,-5.0196254E-1,6.6506845E-1,7.2944164E-1,-5.2368473E-2,-5.2060884E-1,5.6778204E-2,7.370857E-2,1.190219E-2,7.3606807E-1,-3.8119327E-2,-5.2850474E-2,1.9062426E-2,5.1488036E-1,7.7126575E-1,-3.4173157E-3,7.771423E-2,7.773514E-2,5.062273E-2],"categories":[],"categories_nodes":[],"categories_segments":[],"categories_sizes":[],"default_left":[0,0,0,0,0,0,0,0,0,0,0,0,0,0,0,0,0,0,0,0,0,0,0],"id":81,"left_children":[1,-1,3,5,7,9,11,13,-1,15,-1,-1,-1,17,-1,-1,-1,19,21,-1,-1,-1,-1],"loss_changes":[1.854597E2,0E0,9.948777E1,9.98213E0,7.696503E1,2.6440582E0,2.2569394E-1,3.235321E0,0E0,7.535286E-1,0E0,0E0,0E0,2.7126617E0,0E0,0E0,0E0,8.3560505E0,1.5905762E-1,0E0,0E0,0E0,0E0],"parents":[2147483647,0,0,2,2,3,3,4,4,5,5,6,6,7,7,9,9,13,13,17,17,18,18],"right_children":[2,-1,4,6,8,10,12,14,-1,16,-1,-1,-1,18,-1,-1,-1,20,22,-1,-1,-1,-1],"split_conditions":[1E0,-5.3174842E-2,8.407153E1,1.491695E4,2.31E1,3.2E1,6E0,1E0,-5.2368473E-2,4.0000004E-1,5.6778204E-2,7.370857E-2,1.190219E-2,1.3294481E2,-3.8119327E-2,-5.2850474E-2,1.9062426E-2,4.74E1,6.9125E2,-3.4173157E-3,7.771423E-2,7.773514E-2,5.062273E-2],"split_indices":[465,0,447,448,457,1,418,461,0,455,0,0,0,447,0,0,0,449,446,0,0,0,0],"split_type":[0,0,0,0,0,0,0,0,0,0,0,0,0,0,0,0,0,0,0,0,0,0,0],"sum_hessian":[9.6628156E2,3.869903E2,5.7929126E2,1.23706505E2,4.5558475E2,1.1673639E2,6.9701185E0,4.004826E2,5.5102135E1,1.15241E2,1.4953892E0,5.8488626E0,1.121256E0,3.9844263E2,2.0399904E0,1.14229774E2,1.0112193E0,5.6845383E1,3.4159723E2,1.8656698E1,3.8188683E1,3.3204016E2,9.557077E0],"tree_param":{"num_deleted":"0","num_feature":"468","num_nodes":"23","size_leaf_vector":"1"}},{"base_weights":[-1.1562322E-2,-5.273976E-1,7.935657E-1,9.3566634E-2,-5.3213477E-2,2.9971143E-2,7.953825E-2],"categories":[],"categories_nodes":[],"categories_segments":[],"categories_sizes":[],"default_left":[0,0,0,0,0,0,0],"id":82,"left_children":[1,3,5,-1,-1,-1,-1],"loss_changes":[3.9296658E2,4.494858E0,9.312439E-2,0E0,0E0,0E0,0E0],"parents":[2147483647,0,0,1,1,2,2],"right_children":[2,4,6,-1,-1,-1,-1],"split_conditions":[1E0,8E0,2E0,9.3566634E-2,-5.3213477E-2,2.9971143E-2,7.953825E-2],"split_indices":[184,4,418,0,0,0,0],"split_type":[0,0,0,0,0,0,0],"sum_hessian":[9.441852E2,5.756918E2,3.6849344E2,1.2237577E0,5.74468E2,1.958945E0,3.665345E2],"tree_param":{"num_deleted":"0","num_feature":"468","num_nodes":"7","size_leaf_vector":"1"}},{"base_weights":[2.280913E-4,-5.3223927E-2,7.9049057E-1,2.5004409E-5,7.9347715E-2],"categories":[],"categories_nodes":[],"categories_segments":[],"categories_sizes":[],"default_left":[0,0,0,0,0],"id":83,"left_children":[1,-1,3,-1,-1],"loss_changes":[4.037684E2,0E0,9.114227E-1,0E0,0E0],"parents":[2147483647,0,0,2,2],"right_children":[2,-1,4,-1,-1],"split_conditions":[1E0,-5.3223927E-2,7.9428573E0,2.5004409E-5,7.9347715E-2],"split_indices":[79,0,453,0,0],"split_type":[0,0,0,0,0],"sum_hessian":[9.5755096E2,5.722821E2,3.8526883E2,1.454623E0,3.838142E2],"tree_param":{"num_deleted":"0","num_feature":"468","num_nodes":"5","size_leaf_vector":"1"}},{"base_weights":[-8.366023E-3,-5.289025E-2,4.226277E-1,-5.23803E-2,6.1556816E-1,7.630153E-2,-5.2003015E-2],"categories":[],"categories_nodes":[],"categories_segments":[],"categories_sizes":[],"default_left":[0,0,0,0,0,0,0],"id":84,"left_children":[1,-1,3,-1,5,-1,-1],"loss_changes":[2.0014578E2,0E0,8.9442345E1,0E0,6.835458E1,0E0,0E0],"parents":[2147483647,0,0,2,2,4,4],"right_children":[2,-1,4,-1,6,-1,-1],"split_conditions":[1E0,-5.289025E-2,1E0,-5.23803E-2,1.493125E2,7.630153E-2,-5.2003015E-2],"split_indices":[7,0,465,0,411,0,0],"split_type":[0,0,0,0,0,0,0],"sum_hessian":[8.9012585E2,4.0307785E2,4.87048E2,8.218605E1,4.0486194E2,3.5862576E2,4.6236195E1],"tree_param":{"num_deleted":"0","num_feature":"468","num_nodes":"7","size_leaf_vector":"1"}},{"base_weights":[3.2148786E-2,-5.2274007E-1,4.108552E-1,4.8511498E-2,-5.2954085E-2,-5.2632745E-2,6.6825235E-1,-5.091238E-2,7.3512304E-1,7.565185E-2,-4.6615396E-2],"categories":[],"categories_nodes":[],"categories_segments":[],"categories_sizes":[],"default_left":[0,0,0,0,0,0,0,0,0,0,0],"id":85,"left_children":[1,3,5,-1,-1,-1,7,-1,9,-1,-1],"loss_changes":[1.9744548E2,2.8694687E0,1.350546E2,0E0,0E0,0E0,3.4900208E1,0E0,1.1028305E1,0E0,0E0],"parents":[2147483647,0,0,1,1,2,2,6,6,8,8],"right_children":[2,4,6,-1,-1,-1,8,-1,10,-1,-1],"split_conditions":[1.4000001E0,1E0,1E0,4.8511498E-2,-5.2954085E-2,-5.2632745E-2,1E0,-5.091238E-2,4.6001427E1,7.565185E-2,-4.6615396E-2],"split_indices":[454,466,16,0,0,0,74,0,453,0,0],"split_type":[0,0,0,0,0,0,0,0,0,0,0],"sum_hessian":[9.3756824E2,3.8016376E2,5.574045E2,2.0766625E0,3.780871E2,1.1987931E2,4.3752518E2,2.3158875E1,4.143663E2,4.0747913E2,6.8871846E0],"tree_param":{"num_deleted":"0","num_feature":"468","num_nodes":"11","size_leaf_vector":"1"}},{"base_weights":[-1.0207023E-2,-5.2921414E-2,7.572842E-2],"categories":[],"categories_nodes":[],"categories_segments":[],"categories_sizes":[],"default_left":[0,0,0],"id":86,"left_children":[1,-1,-1],"loss_changes":[3.5450504E2,0E0,0E0],"parents":[2147483647,0,0],"right_children":[2,-1,-1],"split_conditions":[1.8664062E2,-5.2921414E-2,7.572842E-2],"split_indices":[411,0,0],"split_type":[0,0,0],"sum_hessian":[8.8796454E2,5.2992163E2,3.5804294E2],"tree_param":{"num_deleted":"0","num_feature":"468","num_nodes":"3","size_leaf_vector":"1"}},{"base_weights":[-7.8340145E-3,3.345853E-1,-5.151132E-1,6.7489505E-1,-5.2693643E-2,-2.571191E-1,-5.2374905E-1,-5.0949115E-2,7.546386E-1,-4.7568243E-2,1.7904207E-1,-2.3384733E-1,-5.2855533E-2,-9.784395E-4,7.573245E-2,-3.244011E-2,4.5592454E-1,3.6815297E-2,-4.4468682E-2,6.7078404E-2,3.952061E-3],"categories":[],"categories_nodes":[],"categories_segments":[],"categories_sizes":[],"default_left":[0,0,0,0,0,0,0,0,0,0,0,0,0,0,0,0,0,0,0,0,0],"id":87,"left_children":[1,3,5,7,-1,9,11,-1,13,-1,15,17,-1,-1,-1,-1,19,-1,-1,-1,-1],"loss_changes":[1.5550163E2,1.5705374E2,6.6911316E-1,3.6611404E1,0E0,1.3863032E0,3.6143494E-1,0E0,7.4609375E-1,0E0,8.8430846E-1,1.111932E0,0E0,0E0,0E0,0E0,3.1562537E-1,0E0,0E0,0E0,0E0],"parents":[2147483647,0,0,1,1,2,2,3,3,5,5,6,6,8,8,10,10,11,11,16,16],"right_children":[2,4,6,8,-1,10,12,-1,14,-1,16,18,-1,-1,-1,-1,20,-1,-1,-1,-1],"split_conditions":[2.1E0,1E0,6.489029E-2,3E1,-5.2693643E-2,2.045E2,2.5E0,-5.0949115E-2,3E0,-4.7568243E-2,8.225E1,1.1E1,-5.2855533E-2,-9.784395E-4,7.573245E-2,-3.244011E-2,3.255202E2,3.6815297E-2,-4.4468682E-2,6.7078404E-2,3.952061E-3],"split_indices":[458,465,460,1,0,445,458,0,445,0,451,466,0,0,0,0,446,0,0,0,0],"split_type":[0,0,0,0,0,0,0,0,0,0,0,0,0,0,0,0,0,0,0,0,0],"sum_hessian":[8.9322766E2,5.334698E2,3.5975787E2,3.8256815E2,1.5090163E2,1.2648925E1,3.4710895E2,2.379314E1,3.5877502E2,8.366036E0,4.282889E0,6.4706798E0,3.4063828E2,1.2468961E0,3.575281E2,1.4587988E0,2.82409E0,1.48487E0,4.98581E0,1.4599007E0,1.3641893E0],"tree_param":{"num_deleted":"0","num_feature":"468","num_nodes":"21","size_leaf_vector":"1"}},{"base_weights":[3.6630256E-3,-5.2879103E-2,3.4818444E-1,-4.2567953E-1,5.5146337E-1,-4.975595E-1,6.2971985E-1,6.933528E-1,-5.20118E-2,-5.168414E-1,5.378886E-2,1.6484857E-2,7.2064474E-2,6.9961065E-1,-3.7060395E-2,-5.2527793E-2,1.857364E-2,4.8892665E-1,7.3319286E-1,-1.8855268E-3,7.4660435E-2,7.625436E-2,6.584106E-2],"categories":[],"categories_nodes":[],"categories_segments":[],"categories_sizes":[],"default_left":[0,0,0,0,0,0,0,0,0,0,0,0,0,0,0,0,0,0,0,0,0,0,0],"id":88,"left_children":[1,-1,3,5,7,9,11,13,-1,15,-1,-1,-1,17,-1,-1,-1,19,21,-1,-1,-1,-1],"loss_changes":[1.6733034E2,0E0,8.7355774E1,9.096409E0,6.711487E1,2.4533024E0,2.1190166E-1,2.8434906E0,0E0,7.345772E-1,0E0,0E0,0E0,2.3740387E0,0E0,0E0,0E0,7.3542147E0,2.2468567E-1,0E0,0E0,0E0,0E0],"parents":[2147483647,0,0,2,2,3,3,4,4,5,5,6,6,7,7,9,9,13,13,17,17,18,18],"right_children":[2,-1,4,6,8,10,12,14,-1,16,-1,-1,-1,18,-1,-1,-1,20,22,-1,-1,-1,-1],"split_conditions":[1E0,-5.2879103E-2,8.407153E1,1.491695E4,2.31E1,3.2E1,1.493125E2,1E0,-5.20118E-2,4.0000004E-1,5.378886E-2,1.6484857E-2,7.2064474E-2,1.3294481E2,-3.7060395E-2,-5.2527793E-2,1.857364E-2,9E0,9E0,-1.8855268E-3,7.4660435E-2,7.625436E-2,6.584106E-2],"split_indices":[465,0,447,448,457,1,411,461,0,455,0,0,0,447,0,0,0,466,418,0,0,0,0],"split_type":[0,0,0,0,0,0,0,0,0,0,0,0,0,0,0,0,0,0,0,0,0,0,0],"sum_hessian":[9.101674E2,3.573508E2,5.528166E2,1.1477705E2,4.3803955E2,1.0795325E2,6.8238E0,3.871319E2,5.090766E1,1.06471405E2,1.4818398E0,1.5765245E0,5.247276E0,3.8520868E2,1.9232166E0,1.05457436E2,1.0139704E0,5.5098362E1,3.3011032E2,1.8859833E1,3.623853E1,2.3046144E2,9.964888E1],"tree_param":{"num_deleted":"0","num_feature":"468","num_nodes":"23","size_leaf_vector":"1"}},{"base_weights":[-1.128092E-2,-5.2421E-1,7.567514E-1,8.783495E-2,-5.2922886E-2,2.7792567E-2,7.585948E-2],"categories":[],"categories_nodes":[],"categories_segments":[],"categories_sizes":[],"default_left":[0,0,0,0,0,0,0],"id":89,"left_children":[1,3,5,-1,-1,-1,-1],"loss_changes":[3.5014212E2,4.216034E0,1.03302E-1,0E0,0E0,0E0,0E0],"parents":[2147483647,0,0,1,1,2,2],"right_children":[2,4,6,-1,-1,-1,-1],"split_conditions":[1E0,8E0,2E0,8.783495E-2,-5.2922886E-2,2.7792567E-2,7.585948E-2],"split_indices":[184,4,418,0,0,0,0],"split_type":[0,0,0,0,0,0,0],"sum_hessian":[8.868002E2,5.318935E2,3.5490665E2,1.2760811E0,5.3061743E2,1.9430633E0,3.529636E2],"tree_param":{"num_deleted":"0","num_feature":"468","num_nodes":"7","size_leaf_vector":"1"}},{"base_weights":[4.2192154E-5,-5.293218E-2,7.538344E-1,-4.0771437E-4,7.5682804E-2],"categories":[],"categories_nodes":[],"categories_segments":[],"categories_sizes":[],"default_left":[0,0,0,0,0],"id":90,"left_children":[1,-1,3,-1,-1],"loss_changes":[3.597354E2,0E0,8.469391E-1,0E0,0E0],"parents":[2147483647,0,0,2,2],"right_children":[2,-1,4,-1,-1],"split_conditions":[1E0,-5.293218E-2,7.9428573E0,-4.0771437E-4,7.5682804E-2],"split_indices":[79,0,453,0,0],"split_type":[0,0,0,0,0],"sum_hessian":[8.995236E2,5.2860156E2,3.7092206E2,1.4578705E0,3.6946417E2],"tree_param":{"num_deleted":"0","num_feature":"468","num_nodes":"5","size_leaf_vector":"1"}},{"base_weights":[-7.7333907E-3,-5.2619487E-2,4.095776E-1,-5.2068796E-2,5.9293735E-1,7.321978E-2,-5.1661074E-2],"categories":[],"categories_nodes":[],"categories_segments":[],"categories_sizes":[],"default_left":[0,0,0,0,0,0,0],"id":91,"left_children":[1,-1,3,-1,5,-1,-1],"loss_changes":[1.8086246E2,0E0,7.931089E1,0E0,6.0232452E1,0E0,0E0],"parents":[2147483647,0,0,2,2,4,4],"right_children":[2,-1,4,-1,6,-1,-1],"split_conditions":[1E0,-5.2619487E-2,1E0,-5.2068796E-2,1.493125E2,7.321978E-2,-5.1661074E-2],"split_indices":[7,0,465,0,411,0,0],"split_type":[0,0,0,0,0,0,0],"sum_hessian":[8.3393805E2,3.7178125E2,4.6215683E2,7.579176E1,3.8636508E2,3.4358188E2,4.2783207E1],"tree_param":{"num_deleted":"0","num_feature":"468","num_nodes":"7","size_leaf_vector":"1"}},{"base_weights":[3.1256914E-2,-5.1951915E-1,3.9759445E-1,4.6236314E-2,-5.2676506E-2,-5.233109E-2,6.420977E-1,-5.0483115E-2,7.051389E-1,7.254082E-2,-4.595491E-2],"categories":[],"categories_nodes":[],"categories_segments":[],"categories_sizes":[],"default_left":[0,0,0,0,0,0,0,0,0,0,0],"id":92,"left_children":[1,3,5,-1,-1,-1,7,-1,9,-1,-1],"loss_changes":[1.7774623E2,2.7472763E0,1.1944807E2,0E0,0E0,0E0,3.061261E1,0E0,9.707352E0,0E0,0E0],"parents":[2147483647,0,0,1,1,2,2,6,6,8,8],"right_children":[2,4,6,-1,-1,-1,8,-1,10,-1,-1],"split_conditions":[1.4000001E0,1E0,1E0,4.6236314E-2,-5.2676506E-2,-5.233109E-2,1E0,-5.0483115E-2,4.6001427E1,7.254082E-2,-4.595491E-2],"split_indices":[454,466,16,0,0,0,74,0,453,0,0],"split_type":[0,0,0,0,0,0,0,0,0,0,0],"sum_hessian":[8.789113E2,3.5091077E2,5.2800055E2,2.1104918E0,3.4880026E2,1.1053552E2,4.1746506E2,2.1385427E1,3.9607962E2,3.8967523E2,6.404408E0],"tree_param":{"num_deleted":"0","num_feature":"468","num_nodes":"11","size_leaf_vector":"1"}},{"base_weights":[-1.01652155E-2,-5.2652854E-2,7.2602116E-2],"categories":[],"categories_nodes":[],"categories_segments":[],"categories_sizes":[],"default_left":[0,0,0],"id":93,"left_children":[1,-1,-1],"loss_changes":[3.1675067E2,0E0,0E0],"parents":[2147483647,0,0],"right_children":[2,-1,-1],"split_conditions":[1.8664062E2,-5.2652854E-2,7.2602116E-2],"split_indices":[411,0,0],"split_type":[0,0,0],"sum_hessian":[8.312426E2,4.8873044E2,3.4251218E2],"tree_param":{"num_deleted":"0","num_feature":"468","num_nodes":"3","size_leaf_vector":"1"}},{"base_weights":[-7.873736E-3,3.2410517E-1,-5.116517E-1,6.4812493E-1,-5.2407064E-2,-2.468505E-1,-5.20703E-1,-5.0534207E-2,7.2329026E-1,-4.6940237E-2,1.7911598E-1,-2.2367933E-1,-5.257992E-2,-2.4104167E-3,7.260675E-2,4.496758E-1,-3.150864E-2,3.4864686E-2,-4.3738656E-2,5.330284E-3,6.3199975E-2],"categories":[],"categories_nodes":[],"categories_segments":[],